svm_type c_svc
kernel_type linear
nr_class 12
total_sv 3984
rho 2.66164 -0.13752 -1.34734 3.15437 -1.00042 1.76868 2.24355 1.06232 -0.999296 1.71045 -1.00158 -2.92806 -0.999401 1.71459 -0.999564 2.09232 -0.4619 -1.32987 -0.998456 0.0263238 -0.999347 0.968578 2.77273 0.521367 1.99778 3.19508 1.06855 2.60511 2.67859 -0.442336 3.37847 -2.12539 2.51569 1.61113 0.852678 0.395003 0.537406 -1.68201 -1.00051 -0.998222 -1.70817 -2.32044 -1.00066 -0.897813 -1.00055 3.95895 1.00167 1.00005 3.10929 2.56457 -1.07592 -1.43191 -3.07898 -3.02614 -1.92254 -4.36003 -0.796132 -0.99965 1.3909 -2.10319 0.100892 1.32205 -0.946088 0.918215 -3.02529 -1.96431
label 0 1 2 3 4 5 6 7 8 9 10 11
nr_sv 517 831 32 91 565 38 74 570 756 100 367 43
SV
512 0 0 512 0 0 512 512 0 0 0 1:0.095861 2:0.010893 3:0.043573 4:0.069717 5:0.037037 6:0.056645 7:0.021786 8:0.04793 9:0.045752 10:0.082789 11:0.030501 12:0.04793 13:0.063181 14:0.021786 15:0.058824 16:0.108932 17:0.041394 18:0.074074 19:0.008715 20:0.03268 
512 0 0 512 39.41731797947418 142.946474325259 512 444.7507976637287 512 512 0 1:0.120879 2:0 3:0.038462 4:0.071429 5:0.06044 6:0.098901 7:0.016484 8:0.049451 9:0.032967 10:0.120879 11:0.049451 12:0.071429 13:0.049451 14:0.038462 15:0.038462 16:0.06044 17:0.016484 18:0.038462 19:0.010989 20:0.016484 
512 0 0 512 0 0 512 512 0 512 0 1:0.072761 2:0.007463 3:0.046642 4:0.063433 5:0.067164 6:0.061567 7:0.011194 8:0.050373 9:0.065299 10:0.098881 11:0.024254 12:0.037313 13:0.076493 14:0.029851 15:0.044776 16:0.085821 17:0.052239 18:0.063433 19:0.007463 20:0.033582 
512 0 0 512 0 0 512 512 0 0 0 1:0.081678 2:0.019868 3:0.05298 4:0.059603 5:0.03532 6:0.064018 7:0.015453 8:0.06181 9:0.07064 10:0.0883 11:0.019868 12:0.046358 13:0.059603 14:0.02649 15:0.037528 16:0.10596 17:0.039735 18:0.072848 19:0.015453 20:0.02649 
512 152.1801207722021 0 0 0 0 512 512 0 0 0 1:0.095506 2:0 3:0.039326 4:0.095506 5:0.02809 6:0.044944 7:0.005618 8:0.08427 9:0.067416 10:0.123596 11:0.005618 12:0.033708 13:0.005618 14:0.095506 15:0.044944 16:0.08427 17:0.067416 18:0.067416 19:0 20:0.011236 
512 0 512 0 0 0 512 231.187078321662 0 0 0 1:0.086811 2:0.001669 3:0.070117 4:0.088481 5:0.033389 6:0.071786 7:0.006678 8:0.050083 9:0.078464 10:0.09015 11:0.016694 12:0.036728 13:0.038397 14:0.045075 15:0.040067 16:0.066778 17:0.070117 18:0.096828 19:0.003339 20:0.008347 
512 512 0 512 0 0 512 512 33.78050450119235 0 0 1:0.13 2:0.006667 3:0.04 4:0.083333 5:0.04 6:0.053333 7:0.033333 8:0.03 9:0.05 10:0.08 11:0.02 12:0.036667 13:0.063333 14:0.043333 15:0.06 16:0.083333 17:0.033333 18:0.066667 19:0.003333 20:0.043333 
0 0 0 512 0 0 0 0 0 0 0 1:0.101695 2:0.022599 3:0.033898 4:0.062147 5:0.050847 6:0.056497 7:0.00565 8:0.033898 9:0.067797 10:0.062147 11:0.039548 12:0.045198 13:0.073446 14:0.028249 15:0.045198 16:0.084746 17:0.039548 18:0.073446 19:0.022599 20:0.050847 
512 0 0 512 0 0 512 0 0 512 0 1:0.071247 2:0.017812 3:0.048346 4:0.061069 5:0.045802 6:0.094148 7:0.010178 8:0.050891 9:0.068702 10:0.094148 11:0.020356 12:0.02799 13:0.043257 14:0.02799 15:0.035623 16:0.094148 17:0.081425 18:0.068702 19:0.005089 20:0.033079 
512 0 0 0 0 0 512 512 0 0 0 1:0.034483 2:0 3:0.057471 4:0.114943 5:0.045977 6:0.045977 7:0 8:0.126437 9:0.114943 10:0.137931 11:0.011494 12:0.091954 13:0.011494 14:0.034483 15:0.068966 16:0.057471 17:0.011494 18:0.034483 19:0 20:0 
512 0 0 0 0 0 0 0 0 24.78736435444983 0 1:0.059574 2:0 3:0.06383 4:0.089362 5:0.029787 6:0.093617 7:0.012766 8:0.085106 9:0.042553 10:0.089362 11:0.034043 12:0.038298 13:0.038298 14:0.051064 15:0.046809 16:0.017021 17:0.093617 18:0.097872 19:0.004255 20:0.012766 
512 193.0994757381557 0 0 0 0 0 512 0 0 0 1:0.093923 2:0 3:0.038674 4:0.088398 5:0.016575 6:0.066298 7:0.01105 8:0.049724 9:0.049724 10:0.110497 11:0.033149 12:0.016575 13:0.093923 14:0.038674 15:0.049724 16:0.099448 17:0.033149 18:0.060773 19:0.027624 20:0.022099 
512 0 0 0 0 0 0 0 512 98.61730341660177 0 1:0.146465 2:0 3:0.060606 4:0.050505 5:0.075758 6:0.111111 7:0.010101 8:0.070707 9:0.035354 10:0.09596 11:0.030303 12:0.025253 13:0.030303 14:0.055556 15:0.045455 16:0.040404 17:0.035354 18:0.050505 19:0.010101 20:0.020202 
512 0 512 0 0 0 512 512 0 0 0 1:0.071066 2:0.005076 3:0.045685 4:0.076142 5:0.050761 6:0.060914 7:0.010152 8:0.045685 9:0.121827 10:0.116751 11:0.020305 12:0.030457 13:0.025381 14:0.055838 15:0.050761 16:0.071066 17:0.045685 18:0.081218 19:0.010152 20:0.005076 
512 8.510426776607762 512 0 178.1731895837135 0 512 512 167.1637160224762 0 0 1:0.092593 2:0 3:0.037037 4:0.111111 5:0.018519 6:0.074074 7:0 8:0 9:0.111111 10:0.055556 11:0.018519 12:0 13:0.111111 14:0.018519 15:0.018519 16:0.037037 17:0.148148 18:0.074074 19:0 20:0.074074 
512 0 512 0 97.71971385192131 0 512 0 300.3522174911699 0 0 1:0.071429 2:0 3:0.042857 4:0.085714 5:0.014286 6:0.114286 7:0.014286 8:0.028571 9:0.114286 10:0.1 11:0.042857 12:0.014286 13:0.042857 14:0.057143 15:0 16:0.028571 17:0.014286 18:0.2 19:0 20:0.014286 
512 0 0 512 0 0 512 512 0 0 0 1:0.092275 2:0.021459 3:0.049356 4:0.072961 5:0.040773 6:0.094421 7:0.034335 8:0.042918 9:0.05794 10:0.090129 11:0.023605 12:0.027897 13:0.049356 14:0.025751 15:0.064378 16:0.053648 17:0.053648 18:0.066524 19:0.004292 20:0.034335 
512 0 0 0 183.3793976957077 216.2775323711085 0 0 491.1517851463507 0 0 1:0.043478 2:0 3:0 4:0.086957 5:0 6:0.086957 7:0 8:0.043478 9:0.086957 10:0.130435 11:0 12:0.043478 13:0 14:0.086957 15:0 16:0.043478 17:0.043478 18:0.26087 19:0.043478 20:0 
512 0 512 0 0 0 512 0 0 0 0 1:0.078431 2:0 3:0.052288 4:0.078431 5:0.045752 6:0.098039 7:0.019608 8:0.084967 9:0.084967 10:0.052288 11:0.006536 12:0.03268 13:0.058824 14:0.019608 15:0.052288 16:0.045752 17:0.03268 18:0.091503 19:0.026144 20:0.039216 
512 0 512 0 0 0 512 0 512 0 0 1:0.123711 2:0.010309 3:0.061856 4:0.103093 5:0.072165 6:0.061856 7:0.020619 8:0.020619 9:0.072165 10:0.051546 11:0.010309 12:0.010309 13:0.061856 14:0.030928 15:0.072165 16:0.010309 17:0.020619 18:0.154639 19:0.010309 20:0.020619 
512 0 0 0 0 0 512 512 0 0 0 1:0.093407 2:0 3:0.032967 4:0.087912 5:0.027473 6:0.043956 7:0.005495 8:0.10989 9:0.093407 10:0.10989 11:0.016484 12:0.071429 13:0.005495 14:0.087912 15:0.027473 16:0.049451 17:0.076923 18:0.049451 19:0 20:0.010989 
0 0 0 512 0 0 512 0 0 512 0 1:0.096045 2:0.028249 3:0.028249 4:0.056497 5:0.039548 6:0.050847 7:0.011299 8:0.039548 9:0.062147 10:0.073446 11:0.033898 12:0.062147 13:0.062147 14:0.028249 15:0.039548 16:0.084746 17:0.050847 18:0.084746 19:0.022599 20:0.045198 
512 0 512 512 0 0 512 512 512 0 62.43812532561476 1:0.073048 2:0.015113 3:0.060453 4:0.062972 5:0.070529 6:0.070529 7:0.027708 8:0.035264 9:0.070529 10:0.052897 11:0.015113 12:0.032746 13:0.075567 14:0.02267 15:0.055416 16:0.080605 17:0.052897 18:0.062972 19:0.025189 20:0.037783 
512 0 0 0 0 0 512 0 0 0 0 1:0.086735 2:0.012755 3:0.084184 4:0.028061 5:0.033163 6:0.089286 7:0.012755 8:0.056122 9:0.061224 10:0.079082 11:0.012755 12:0.045918 13:0.038265 14:0.028061 15:0.048469 16:0.081633 17:0.056122 18:0.117347 19:0.012755 20:0.015306 
512 0 0 0 0 0 0 0 0 0 0 1:0.080214 2:0.024064 3:0.034759 4:0.080214 5:0.029412 6:0.085561 7:0.002674 8:0.093583 9:0.069519 10:0.082888 11:0.024064 12:0.05615 13:0.05615 14:0.029412 15:0.029412 16:0.074866 17:0.05615 18:0.072193 19:0.002674 20:0.016043 
512 0 0 512 0 0 512 0 0 0 0 1:0.080592 2:0.016447 3:0.057566 4:0.046053 5:0.041118 6:0.090461 7:0.021382 8:0.052632 9:0.069079 10:0.080592 11:0.03125 12:0.042763 13:0.046053 14:0.039474 15:0.03125 16:0.059211 17:0.057566 18:0.092105 19:0.013158 20:0.03125 
512 0 0 0 0 0 0 0 0 0 0 1:0.166667 2:0.020833 3:0.083333 4:0.083333 5:0.041667 6:0.0625 7:0 8:0.041667 9:0.020833 10:0.104167 11:0 12:0 13:0.104167 14:0.020833 15:0.041667 16:0.020833 17:0.0625 18:0.083333 19:0.041667 20:0 
512 0 0 0 0 0 512 0 0 0 0 1:0.112605 2:0.010084 3:0.05042 4:0.084034 5:0.015126 6:0.080672 7:0.005042 8:0.057143 9:0.095798 10:0.089076 11:0.015126 12:0.055462 13:0.02521 14:0.020168 15:0.031933 16:0.068908 17:0.053782 18:0.110924 19:0 20:0.018487 
512 0 0 512 0 512 512 512 0 512 0 1:0.071429 2:0.021978 3:0.032967 4:0.054945 5:0.038462 6:0.065934 7:0.021978 8:0.043956 9:0.054945 10:0.093407 11:0.038462 12:0.021978 13:0.071429 14:0.032967 15:0.049451 16:0.071429 17:0.082418 18:0.065934 19:0.021978 20:0.043956 
512 0 0 0 0 0 0 0 0 0 0 1:0.091384 2:0.013055 3:0.028721 4:0.08094 5:0.02611 6:0.096606 7:0.005222 8:0.073107 9:0.075718 10:0.078329 11:0.033943 12:0.046997 13:0.060052 14:0.020888 15:0.033943 16:0.086162 17:0.049608 18:0.075718 19:0.002611 20:0.020888 
512 0 0 0 0 0 512 512 405.4285914735775 512 0 1:0.051136 2:0 3:0.034091 4:0.068182 5:0.022727 6:0.022727 7:0 8:0.164773 9:0.102273 10:0.130682 11:0.011364 12:0.102273 13:0 14:0.090909 15:0.045455 16:0.0625 17:0.045455 18:0.022727 19:0 20:0.022727 
512 0 0 0 0 0 512 0 0 512 0 1:0.084956 2:0.015929 3:0.051327 4:0.056637 5:0.051327 6:0.090265 7:0.023009 8:0.058407 9:0.067257 10:0.076106 11:0.014159 12:0.031858 13:0.053097 14:0.017699 15:0.044248 16:0.090265 17:0.069027 18:0.074336 19:0.00531 20:0.024779 
512 0 0 512 0 0 512 0 0 0 0 1:0.114504 2:0.022901 3:0.053435 4:0.058524 5:0.048346 6:0.094148 7:0.012723 8:0.038168 9:0.058524 10:0.07888 11:0.022901 12:0.025445 13:0.040712 14:0.022901 15:0.045802 16:0.071247 17:0.081425 18:0.071247 19:0.005089 20:0.033079 
512 0 0 512 0 0 512 512 340.2043808691957 0 0 1:0.100671 2:0.006711 3:0.033557 4:0.033557 5:0.026846 6:0.040268 7:0.026846 8:0.026846 9:0.09396 10:0.09396 11:0.033557 12:0.020134 13:0.087248 14:0.040268 15:0.073826 16:0.107383 17:0.04698 18:0.09396 19:0 20:0.013423 
512 0 512 0 0 0 392.007489591325 0 512 0 248.7727885355442 1:0.113333 2:0.006667 3:0.053333 4:0.06 5:0.06 6:0.133333 7:0.013333 8:0.053333 9:0.06 10:0.113333 11:0.02 12:0.053333 13:0.06 14:0.026667 15:0.013333 16:0.02 17:0.013333 18:0.073333 19:0.02 20:0.033333 
512 0 0 512 0 0 512 512 0 0 0 1:0.087971 2:0.017953 3:0.043088 4:0.075404 5:0.028725 6:0.077199 7:0.037702 8:0.048474 9:0.057451 10:0.098743 11:0.041293 12:0.028725 13:0.048474 14:0.034111 15:0.039497 16:0.073609 17:0.034111 18:0.095153 19:0.010772 20:0.021544 
512 0 0 0 0 0 512 512 0 0 0 1:0.110769 2:0.012308 3:0.046154 4:0.073846 5:0.046154 6:0.095385 7:0.003077 8:0.030769 9:0.076923 10:0.067692 11:0.021538 12:0.021538 13:0.055385 14:0.033846 15:0.055385 16:0.08 17:0.076923 18:0.067692 19:0.003077 20:0.021538 
512 0 0 0 0 0 512 0 0 0 0 1:0.098532 2:0.012579 3:0.050314 4:0.062893 5:0.02935 6:0.071279 7:0.020964 8:0.067086 9:0.06499 10:0.09434 11:0.018868 12:0.035639 13:0.067086 14:0.033543 15:0.044025 16:0.067086 17:0.044025 18:0.081761 19:0.016771 20:0.018868 
0 0 0 0 0 0 0 0 0 0 116.467131319848 1:0.153846 2:0 3:0.020979 4:0.055944 5:0.034965 6:0.041958 7:0 8:0.013986 9:0.062937 10:0.027972 11:0.027972 12:0.076923 13:0.090909 14:0.006993 15:0.055944 16:0.090909 17:0.083916 18:0.111888 19:0.006993 20:0.034965 
512 0 0 0 0 0 512 0 0 0 0 1:0.134021 2:0.010309 3:0.054983 4:0.058419 5:0.044674 6:0.103093 7:0 8:0.034364 9:0.089347 10:0.085911 11:0.013746 12:0.024055 13:0.037801 14:0.034364 15:0.030928 16:0.065292 17:0.079038 18:0.072165 19:0.003436 20:0.024055 
512 0 0 0 0 0 512 512 0 0 0 1:0.070227 2:0.01088 3:0.051434 4:0.088032 5:0.037587 6:0.063304 7:0.01088 8:0.057369 9:0.064293 10:0.104847 11:0.019782 12:0.037587 13:0.035608 14:0.049456 15:0.071217 16:0.066271 17:0.052423 18:0.072206 19:0.007913 20:0.028684 
0 0 0 0 0 0 0 0 0 512 0 1:0.142857 2:0.004329 3:0.025974 4:0.030303 5:0.04329 6:0.069264 7:0.004329 8:0.030303 9:0.021645 10:0.095238 11:0.025974 12:0.021645 13:0.069264 14:0.025974 15:0.051948 16:0.121212 17:0.077922 18:0.108225 19:0.021645 20:0.008658 
512 0 0 512 0 0 0 0 0 512 0 1:0.061947 2:0.035398 3:0.044248 4:0.079646 5:0.061947 6:0.061947 7:0.00885 8:0.053097 9:0.070796 10:0.061947 11:0.026549 12:0.026549 13:0.070796 14:0.035398 15:0.044248 16:0.053097 17:0.035398 18:0.079646 19:0.026549 20:0.061947 
512 0 0 512 0 0 512 512 0 0 0 1:0.075862 2:0.011494 3:0.055172 4:0.078161 5:0.03908 6:0.082759 7:0.011494 8:0.03908 9:0.045977 10:0.091954 11:0.036782 12:0.052874 13:0.055172 14:0.022989 15:0.064368 16:0.068966 17:0.043678 18:0.068966 19:0.022989 20:0.032184 
512 0 0 0 0 0 0 0 0 0 0 1:0.078571 2:0.010714 3:0.057143 4:0.039286 5:0.035714 6:0.082143 7:0.017857 8:0.092857 9:0.060714 10:0.078571 11:0.010714 12:0.039286 13:0.053571 14:0.042857 15:0.039286 16:0.1 17:0.039286 18:0.103571 19:0.007143 20:0.010714 
512 0 0 0 0 0 512 512 0 0 0 1:0.131894 2:0.014388 3:0.069544 4:0.059952 5:0.019185 6:0.064748 7:0.019185 8:0.045564 9:0.045564 10:0.081535 11:0.026379 12:0.023981 13:0.079137 14:0.021583 15:0.067146 16:0.069544 17:0.038369 18:0.076739 19:0.009592 20:0.035971 
512 0 0 512 0 0 512 512 106.3152501355863 512 5.2050067767038 1:0.075571 2:0.022847 3:0.049209 4:0.057996 5:0.049209 6:0.070299 7:0.033392 8:0.043937 9:0.045694 10:0.093146 11:0.010545 12:0.047452 13:0.050967 14:0.029877 15:0.050967 16:0.096661 17:0.038664 18:0.101933 19:0.003515 20:0.02812 
512 0 0 450.7333774026437 0 0 512 512 0 0 0 1:0.060288 2:0.005242 3:0.058978 4:0.060288 5:0.026212 6:0.044561 7:0.02228 8:0.114024 9:0.08519 10:0.087811 11:0.007864 12:0.083879 13:0.040629 14:0.055046 15:0.026212 16:0.083879 17:0.058978 18:0.06291 19:0.003932 20:0.011796 
512 512 0 0 0 0 512 512 0 0 0 1:0.068493 2:0.018265 3:0.045662 4:0.136986 5:0.027397 6:0.050228 7:0.004566 8:0.100457 9:0.114155 10:0.082192 11:0.03653 12:0.059361 13:0.018265 14:0.03653 15:0.054795 16:0.041096 17:0.050228 18:0.041096 19:0 20:0.013699 
512 0 0 0 0 0 512 512 0 0 0 1:0.071918 2:0.013699 3:0.037671 4:0.075342 5:0.044521 6:0.075342 7:0.023973 8:0.05137 9:0.065068 10:0.089041 11:0.006849 12:0.041096 13:0.068493 14:0.020548 15:0.065068 16:0.082192 17:0.027397 18:0.106164 19:0.003425 20:0.030822 
512 0 0 512 0 0 512 512 0 0 0 1:0.068729 2:0.017182 3:0.060137 4:0.061856 5:0.044674 6:0.06701 7:0.015464 8:0.056701 9:0.070447 10:0.109966 11:0.027491 12:0.041237 13:0.058419 14:0.032646 15:0.04811 16:0.080756 17:0.02921 18:0.065292 19:0.015464 20:0.02921 
512 84.94053741039885 115.9697889255428 512 380.5600567359059 0 512 512 0 0 0 1:0.134969 2:0.01227 3:0.04908 4:0.110429 5:0.03681 6:0.042945 7:0 8:0.04908 9:0.079755 10:0.184049 11:0.02454 12:0.03681 13:0.018405 14:0.08589 15:0.01227 16:0.042945 17:0.02454 18:0.03681 19:0 20:0.018405 
512 0 0 512 0 0 512 512 352.2287730329185 0 0 1:0.040984 2:0.016393 3:0.02459 4:0.016393 5:0.008197 6:0.098361 7:0.02459 8:0.065574 9:0.090164 10:0.065574 11:0 12:0.032787 13:0.07377 14:0.04918 15:0.131148 16:0.040984 17:0.081967 18:0.106557 19:0 20:0.032787 
512 0 512 0 0 0 512 512 0 512 4.002459194973426 1:0.063707 2:0.005792 3:0.048263 4:0.073359 5:0.069498 6:0.071429 7:0.017375 8:0.052124 9:0.073359 10:0.104247 11:0.015444 12:0.034749 13:0.065637 14:0.015444 15:0.057915 16:0.071429 17:0.055985 18:0.063707 19:0.007722 20:0.032819 
512 0 228.9782835759354 0 0 0 512 0 512 0 109.0754107648579 1:0.179775 2:0.022472 3:0.089888 4:0.067416 5:0.033708 6:0.134831 7:0.022472 8:0.067416 9:0.044944 10:0.05618 11:0.011236 12:0.067416 13:0.022472 14:0.044944 15:0.011236 16:0 17:0.011236 18:0.05618 19:0.022472 20:0.033708 
512 0 0 0 0 0 512 512 512 512 0 1:0.093333 2:0.016 3:0.056 4:0.056 5:0.050667 6:0.064 7:0.04 8:0.061333 9:0.058667 10:0.064 11:0.034667 12:0.029333 13:0.048 14:0.024 15:0.053333 16:0.090667 17:0.045333 18:0.082667 19:0.005333 20:0.026667 
512 0 0 0 0 0 512 0 0 0 0 1:0.122677 2:0.007435 3:0.048327 4:0.055762 5:0.048327 6:0.115242 7:0.01487 8:0.02974 9:0.040892 10:0.096654 11:0.026022 12:0.037175 13:0.063197 14:0.018587 15:0.040892 16:0.063197 17:0.052045 18:0.070632 19:0.022305 20:0.026022 
512 0 0 512 0 0 512 512 0 0 0 1:0.066138 2:0.015873 3:0.050265 4:0.058201 5:0.031746 6:0.095238 7:0.015873 8:0.044974 9:0.089947 10:0.071429 11:0.026455 12:0.044974 13:0.063492 14:0.037037 15:0.037037 16:0.079365 17:0.047619 18:0.058201 19:0.015873 20:0.050265 
0 0 0 512 0 0 0 512 0 512 0 1:0.065274 2:0.010444 3:0.057441 4:0.05483 5:0.060052 6:0.065274 7:0.013055 8:0.057441 9:0.060052 10:0.099217 11:0.013055 12:0.049608 13:0.065274 14:0.023499 15:0.049608 16:0.122715 17:0.052219 18:0.052219 19:0.010444 20:0.018277 
512 0 512 0 512 0 512 512 203.8872176249472 0 0 1:0.101266 2:0 3:0.06962 4:0.088608 5:0.025316 6:0.018987 7:0 8:0.075949 9:0.101266 10:0.164557 11:0.031646 12:0.025316 13:0.018987 14:0.063291 15:0.025316 16:0.06962 17:0.06962 18:0.025316 19:0 20:0.025316 
512 0 146.0251628959432 0 0 0 512 512 0 0 0 1:0.051701 2:0.002721 3:0.055782 4:0.084354 5:0.034014 6:0.05034 7:0.013605 8:0.129252 9:0.102041 10:0.080272 11:0.006803 12:0.080272 13:0.023129 14:0.044898 15:0.027211 16:0.066667 17:0.065306 18:0.055782 19:0.004082 20:0.021769 
512 0 0 512 0 0 512 512 0 0 0 1:0.136364 2:0.016043 3:0.034759 4:0.061497 5:0.016043 6:0.080214 7:0.008021 8:0.040107 9:0.069519 10:0.090909 11:0.040107 12:0.034759 13:0.058824 14:0.037433 15:0.040107 16:0.064171 17:0.053476 18:0.061497 19:0.016043 20:0.040107 
512 0 0 0 0 0 0 0 0 0 0 1:0.085366 2:0.002033 3:0.046748 4:0.067073 5:0.036585 6:0.093496 7:0.00813 8:0.065041 9:0.046748 10:0.089431 11:0.028455 12:0.036585 13:0.050813 14:0.044715 15:0.04065 16:0.065041 17:0.071138 18:0.093496 19:0.002033 20:0.026423 
0 0 0 0 0 0 0 0 0 512 0 1:0.17284 2:0.012346 3:0 4:0.049383 5:0.037037 6:0.160494 7:0 8:0.135802 9:0.024691 10:0.123457 11:0.024691 12:0.024691 13:0.049383 14:0.024691 15:0.024691 16:0.037037 17:0.037037 18:0.049383 19:0 20:0.012346 
512 0 0 512 0 0 512 512 0 0 0 1:0.055422 2:0.007229 3:0.060241 4:0.060241 5:0.024096 6:0.079518 7:0.014458 8:0.045783 9:0.060241 10:0.086747 11:0.031325 12:0.050602 13:0.074699 14:0.031325 15:0.057831 16:0.084337 17:0.060241 18:0.072289 19:0.026506 20:0.016867 
512 0 0 512 0 512 512 512 0 512 0 1:0.073913 2:0.034783 3:0.052174 4:0.021739 5:0.026087 6:0.1 7:0.017391 8:0.026087 9:0.052174 10:0.095652 11:0.021739 12:0.030435 13:0.078261 14:0.030435 15:0.03913 16:0.078261 17:0.1 18:0.091304 19:0.017391 20:0.013043 
512 0 512 512 0 0 0 512 97.39446238338188 0 0 1:0.081633 2:0.05102 3:0.081633 4:0.122449 5:0.061224 6:0.081633 7:0.030612 8:0.040816 9:0.05102 10:0.061224 11:0 12:0.010204 13:0.030612 14:0.061224 15:0.010204 16:0.061224 17:0.040816 18:0.091837 19:0 20:0.030612 
512 0 512 512 0 512 512 512 512 512 0 1:0.036765 2:0.022059 3:0.036765 4:0.080882 5:0.051471 6:0.058824 7:0.014706 8:0.036765 9:0.073529 10:0.080882 11:0.022059 12:0.036765 13:0.073529 14:0.036765 15:0.051471 16:0.036765 17:0.058824 18:0.102941 19:0.029412 20:0.058824 
0 0 0 13.5684570463842 0 512 0 0 0 0 458.1090732860141 1:0.07971 2:0 3:0.050725 4:0.014493 5:0.014493 6:0.123188 7:0 8:0.036232 9:0.086957 10:0.101449 11:0.021739 12:0.028986 13:0.043478 14:0.014493 15:0.021739 16:0.123188 17:0.072464 18:0.094203 19:0.014493 20:0.057971 
512 0 0 512 0 0 512 512 0 512 0 1:0.078704 2:0.007716 3:0.04321 4:0.069444 5:0.03858 6:0.07716 7:0.023148 8:0.060185 9:0.055556 10:0.106481 11:0.020062 12:0.044753 13:0.046296 14:0.04321 15:0.046296 16:0.078704 17:0.044753 18:0.074074 19:0.007716 20:0.033951 
512 0 0 512 0 512 512 512 210.623770735766 512 512 1:0.064298 2:0.020305 3:0.059222 4:0.050761 5:0.052453 6:0.064298 7:0.027073 8:0.045685 9:0.055838 10:0.072758 11:0.027073 12:0.069374 13:0.064298 14:0.027073 15:0.050761 16:0.072758 17:0.069374 18:0.052453 19:0.015228 20:0.038917 
0 0 0 512 0 0 512 512 0 0 0 1:0.125 2:0 3:0.038793 4:0.051724 5:0.021552 6:0.068966 7:0.00431 8:0.038793 9:0.068966 10:0.107759 11:0.021552 12:0.034483 13:0.064655 14:0.051724 15:0.060345 16:0.103448 17:0.047414 18:0.060345 19:0.00431 20:0.025862 
512 0 0 0 0 0 512 0 0 0 0 1:0.121212 2:0.019481 3:0.058442 4:0.045455 5:0.045455 6:0.11039 7:0.025974 8:0.069264 9:0.036797 10:0.058442 11:0.02381 12:0.038961 13:0.054113 14:0.015152 15:0.064935 16:0.0671 17:0.045455 18:0.071429 19:0.004329 20:0.02381 
512 0 512 512 512 512 512 512 512 512 512 1:0.043818 2:0.010955 3:0.082942 4:0.053208 5:0.037559 6:0.064163 7:0.034429 8:0.043818 9:0.065728 10:0.092332 11:0.031299 12:0.065728 13:0.056338 14:0.037559 15:0.048513 16:0.062598 17:0.053208 18:0.053208 19:0.017214 20:0.045383 
512 0 0 512 0 0 512 512 266.1366213998154 512 0 1:0.050602 2:0.007229 3:0.033735 4:0.062651 5:0.048193 6:0.084337 7:0.036145 8:0.115663 9:0.06988 10:0.086747 11:0.038554 12:0.055422 13:0.040964 14:0.038554 15:0.040964 16:0.048193 17:0.055422 18:0.050602 19:0.007229 20:0.028916 
0 7.500832163523945 0 512 0 0 512 512 0 0 0 1:0.104693 2:0.01083 3:0.01444 4:0.050542 5:0.032491 6:0.097473 7:0.00722 8:0.032491 9:0.090253 10:0.101083 11:0.018051 12:0.032491 13:0.057762 14:0.054152 15:0.079422 16:0.097473 17:0.057762 18:0.043321 19:0.00361 20:0.01444 
512 0 0 0 0 0 512 0 0 0 0 1:0.098266 2:0.011561 3:0.046243 4:0.077071 5:0.030829 6:0.098266 7:0.025048 8:0.065511 9:0.067437 10:0.075145 11:0.017341 12:0.042389 13:0.04817 14:0.023121 15:0.036609 16:0.075145 17:0.04817 18:0.065511 19:0.017341 20:0.030829 
512 0 0 512 0 0 512 512 0 0 0 1:0.086911 2:0.01466 3:0.053403 4:0.068063 5:0.036649 6:0.091099 7:0.017801 8:0.048168 9:0.052356 10:0.094241 11:0.039791 12:0.039791 13:0.048168 14:0.036649 15:0.056545 16:0.055497 17:0.055497 18:0.078534 19:0.00733 20:0.018848 
512 0 0 0 0 0 512 0 0 0 0 1:0.099778 2:0.017738 3:0.077605 4:0.035477 5:0.033259 6:0.079823 7:0.017738 8:0.053215 9:0.066519 10:0.08204 11:0.011086 12:0.042129 13:0.046563 14:0.017738 15:0.044346 16:0.077605 17:0.059867 18:0.108647 19:0.011086 20:0.017738 
512 0 0 512 112.9325810501593 315.1915657236146 512 0 391.0913921035382 512 0 1:0.039216 2:0.019608 3:0.039216 4:0.078431 5:0.04902 6:0.04902 7:0.019608 8:0.098039 9:0.068627 10:0.117647 11:0.029412 12:0.058824 13:0.058824 14:0.029412 15:0.029412 16:0.029412 17:0.058824 18:0.088235 19:0.019608 20:0.019608 
512 0 0 0 31.93754487786868 0 512 512 0 0 0 1:0.031847 2:0.019108 3:0.031847 4:0.076433 5:0.025478 6:0.038217 7:0.019108 8:0.133758 9:0.127389 10:0.070064 11:0.031847 12:0.050955 13:0.050955 14:0.050955 15:0.006369 16:0.082803 17:0.057325 18:0.082803 19:0 20:0.012739 
512 0 0 512 0 0 512 512 0 512 0 1:0.091954 2:0.011494 3:0.042146 4:0.057471 5:0.02682 6:0.076628 7:0.011494 8:0.076628 9:0.061303 10:0.1341 11:0.038314 12:0.068966 13:0.045977 14:0.030651 15:0.030651 16:0.061303 17:0.061303 18:0.049808 19:0.007663 20:0.015326 
512 0 0 0 0 0 0 0 0 0 0 1:0.06383 2:0.004255 3:0.06383 4:0.106383 5:0.021277 6:0.080851 7:0.012766 8:0.076596 9:0.06383 10:0.106383 11:0.029787 12:0.025532 13:0.046809 14:0.042553 15:0.029787 16:0.046809 17:0.059574 18:0.093617 19:0.004255 20:0.021277 
512 0 512 512 0 274.3278501603447 512 512 490.1651539183881 512 0 1:0.055749 2:0.020906 3:0.066202 4:0.067944 5:0.052265 6:0.059233 7:0.02439 8:0.045296 9:0.057491 10:0.116725 11:0.015679 12:0.050523 13:0.04878 14:0.031359 15:0.06446 16:0.076655 17:0.038328 18:0.06446 19:0.008711 20:0.034843 
512 40.88985436066343 0 512 0 0 512 512 244.6047289915392 512 0 1:0.069767 2:0.005814 3:0.040698 4:0.081395 5:0.046512 6:0.063953 7:0.011628 8:0.081395 9:0.05814 10:0.127907 11:0.023256 12:0.081395 13:0 14:0.069767 15:0.075581 16:0.052326 17:0.05814 18:0.040698 19:0 20:0.011628 
512 0 0 512 0 0 0 0 0 512 0 1:0.054863 2:0.012469 3:0.05985 4:0.052369 5:0.064838 6:0.067332 7:0.012469 8:0.05985 9:0.067332 10:0.084788 11:0.007481 12:0.0399 13:0.05985 14:0.034913 15:0.044888 16:0.112219 17:0.044888 18:0.077307 19:0.014963 20:0.027431 
512 0 512 512 0 0 512 512 512 0 0 1:0.10396 2:0 3:0.049505 4:0.079208 5:0.059406 6:0.059406 7:0.029703 8:0.034653 9:0.069307 10:0.09901 11:0.019802 12:0.054455 13:0.069307 14:0.029703 15:0.029703 16:0.049505 17:0.044554 18:0.039604 19:0.034653 20:0.044554 
512 0 0 512 33.7650101898775 0 512 512 183.3749074983969 512 0 1:0.046053 2:0.026316 3:0.032895 4:0.046053 5:0.046053 6:0.046053 7:0.019737 8:0.138158 9:0.098684 10:0.072368 11:0.026316 12:0.078947 13:0.032895 14:0.046053 15:0.013158 16:0.118421 17:0.026316 18:0.046053 19:0.006579 20:0.032895 
512 512 512 0 0 0 512 512 100.3295809603912 0 0 1:0.027624 2:0.005525 3:0.110497 4:0.077348 5:0.022099 6:0.082873 7:0.022099 8:0.060773 9:0.093923 10:0.044199 11:0.044199 12:0.027624 13:0.049724 14:0.033149 15:0.066298 16:0.066298 17:0.049724 18:0.082873 19:0.016575 20:0.016575 
0 0 0 0 0 0 0 0 0 0 288.8531988535331 1:0.155689 2:0.005988 3:0.041916 4:0.047904 5:0.041916 6:0.095808 7:0.011976 8:0.05988 9:0.05988 10:0.05988 11:0.023952 12:0.047904 13:0.041916 14:0.017964 15:0.005988 16:0.08982 17:0.065868 18:0.101796 19:0 20:0.023952 
512 0 0 0 0 0 512 0 0 0 0 1:0.123644 2:0.010846 3:0.058568 4:0.058568 5:0.032538 6:0.084599 7:0.010846 8:0.041215 9:0.086768 10:0.104121 11:0.021692 12:0.030369 13:0.045553 14:0.013015 15:0.043384 16:0.058568 17:0.052061 18:0.101952 19:0.008677 20:0.013015 
512 0 0 512 0 0 0 0 0 0 0 1:0.072917 2:0.041667 3:0.125 4:0.083333 5:0.010417 6:0.0625 7:0.020833 8:0.072917 9:0.041667 10:0.072917 11:0 12:0.010417 13:0.041667 14:0.0625 15:0.010417 16:0.083333 17:0.041667 18:0.09375 19:0.010417 20:0.041667 
0 0 0 0 0 0 0 0 138.375645224655 0 0 1:0.092857 2:0 3:0.05 4:0.021429 5:0.021429 6:0.142857 7:0 8:0.028571 9:0.078571 10:0.1 11:0.021429 12:0.021429 13:0.042857 14:0.014286 15:0.028571 16:0.121429 17:0.064286 18:0.092857 19:0.014286 20:0.042857 
512 0 0 512 0 0 512 512 246.9455947881142 0 0 1:0.090278 2:0.055556 3:0.076389 4:0.0625 5:0.055556 6:0.027778 7:0.020833 8:0.041667 9:0.069444 10:0.048611 11:0.041667 12:0.020833 13:0.0625 14:0.034722 15:0.076389 16:0.083333 17:0.048611 18:0.055556 19:0.006944 20:0.020833 
512 0 0 0 0 0 512 0 9.934448619498234 0 0 1:0.086053 2:0.017804 3:0.089021 4:0.026706 5:0.026706 6:0.086053 7:0.017804 8:0.062315 9:0.068249 10:0.080119 11:0.014837 12:0.04451 13:0.032641 14:0.023739 15:0.04451 16:0.062315 17:0.065282 18:0.118694 19:0.014837 20:0.017804 
512 0 0 0 0 0 512 512 0 0 0 1:0.034483 2:0.017241 3:0.090517 4:0.073276 5:0.017241 6:0.064655 7:0.012931 8:0.073276 9:0.073276 10:0.060345 11:0.034483 12:0.030172 13:0.064655 14:0.034483 15:0.086207 16:0.090517 17:0.038793 18:0.077586 19:0.012931 20:0.012931 
512 0 0 512 0 0 512 0 0 0 0 1:0.083333 2:0.017442 3:0.050388 4:0.054264 5:0.034884 6:0.083333 7:0.013566 8:0.052326 9:0.067829 10:0.093023 11:0.032946 12:0.036822 13:0.050388 14:0.02907 15:0.040698 16:0.087209 17:0.05814 18:0.087209 19:0.005814 20:0.021318 
512 0 0 0 0 0 512 0 0 0 0 1:0.086407 2:0.014752 3:0.052687 4:0.075869 5:0.040042 6:0.089568 7:0.013699 8:0.053741 9:0.057956 10:0.090622 11:0.035827 12:0.029505 13:0.045311 14:0.037935 15:0.047418 16:0.075869 17:0.046365 18:0.080084 19:0.007376 20:0.018967 
512 0 0 512 0 0 512 512 0 512 0 1:0.041667 2:0.006757 3:0.050676 4:0.076577 5:0.036036 6:0.046171 7:0.010135 8:0.084459 9:0.076577 10:0.127252 11:0.012387 12:0.063063 13:0.025901 14:0.050676 15:0.067568 16:0.056306 17:0.056306 18:0.060811 19:0.006757 20:0.043919 
512 0 0 512 0 277.0707782138472 512 512 512 512 41.96765375898529 1:0.068571 2:0.034286 3:0.068571 4:0.028571 5:0.062857 6:0.034286 7:0.011429 8:0.051429 9:0.04 10:0.057143 11:0.034286 12:0.051429 13:0.057143 14:0.051429 15:0.062857 16:0.062857 17:0.097143 18:0.062857 19:0.022857 20:0.04 
512 0 0 0 0 0 0 0 0 0 0 1:0.05625 2:0.00625 3:0.040625 4:0.059375 5:0.05 6:0.08125 7:0.009375 8:0.10625 9:0.08125 10:0.078125 11:0.01875 12:0.06875 13:0.06875 14:0.046875 15:0.028125 16:0.05625 17:0.025 18:0.08125 19:0.00625 20:0.03125 
512 0 0 0 0 0 512 512 0 512 0 1:0.025641 2:0.012821 3:0.051282 4:0.051282 5:0.012821 6:0.064103 7:0.012821 8:0.102564 9:0.076923 10:0.102564 11:0.025641 12:0.064103 13:0.038462 14:0.012821 15:0.102564 16:0.064103 17:0.051282 18:0.076923 19:0 20:0.051282 
512 0 0 0 0 0 512 0 0 0 0 1:0.103158 2:0.014737 3:0.052632 4:0.065263 5:0.035789 6:0.061053 7:0.021053 8:0.067368 9:0.075789 10:0.098947 11:0.025263 12:0.029474 13:0.065263 14:0.025263 15:0.037895 16:0.071579 17:0.044211 18:0.069474 19:0.016842 20:0.018947 
23.38445381583506 0 0 0 0 338.6560889778317 0 512 303.2598690728731 0 512 1:0.115385 2:0 3:0.076923 4:0.038462 5:0 6:0.192308 7:0 8:0.038462 9:0.038462 10:0.076923 11:0 12:0.038462 13:0.038462 14:0.038462 15:0.038462 16:0.076923 17:0.076923 18:0.038462 19:0 20:0.076923 
512 0 0 512 0 0 512 512 239.6593586558786 0 0 1:0.085526 2:0.039474 3:0.072368 4:0.065789 5:0.032895 6:0.072368 7:0.019737 8:0.019737 9:0.065789 10:0.072368 11:0.013158 12:0.006579 13:0.039474 14:0.039474 15:0.013158 16:0.131579 17:0.085526 18:0.085526 19:0 20:0.039474 
0 0 0 512 0 0 0 0 0 0 0 1:0.089947 2:0.026455 3:0.015873 4:0.074074 5:0.042328 6:0.05291 7:0.005291 8:0.031746 9:0.068783 10:0.058201 11:0.037037 12:0.063492 13:0.058201 14:0.037037 15:0.037037 16:0.089947 17:0.047619 18:0.089947 19:0.026455 20:0.047619 
512 0 512 512 0 0 512 512 0 512 0 1:0.085859 2:0.007576 3:0.068182 4:0.073232 5:0.04798 6:0.063131 7:0.017677 8:0.04798 9:0.063131 10:0.093434 11:0.027778 12:0.030303 13:0.045455 14:0.027778 15:0.060606 16:0.068182 17:0.075758 18:0.045455 19:0.020202 20:0.030303 
512 288.2186482177713 0 512 0 0 512 512 0 0 0 1:0.08284 2:0.029586 3:0.023669 4:0.053254 5:0.005917 6:0.059172 7:0.017751 8:0.094675 9:0.094675 10:0.094675 11:0.035503 12:0.059172 13:0.035503 14:0.047337 15:0.094675 16:0.059172 17:0.035503 18:0.047337 19:0.005917 20:0.023669 
0 0 0 512 0 0 0 512 0 512 0 1:0.074468 2:0.021277 3:0.053191 4:0.071809 5:0.037234 6:0.042553 7:0.00266 8:0.06117 9:0.06383 10:0.114362 11:0.013298 12:0.047872 13:0.050532 14:0.037234 15:0.053191 16:0.095745 17:0.058511 18:0.079787 19:0.00266 20:0.018617 
512 0 0 512 0 0 429.7064589599191 0 0 87.84532928233985 0 1:0.065421 2:0.009346 3:0.031153 4:0.056075 5:0.05919 6:0.065421 7:0.009346 8:0.065421 9:0.077882 10:0.093458 11:0.006231 12:0.05919 13:0.074766 14:0.05919 15:0.018692 16:0.046729 17:0.05919 18:0.115265 19:0 20:0.028037 
512 0 0 512 0 512 512 0 0 512 0 1:0.089552 2:0.014925 3:0.033582 4:0.05597 5:0.05597 6:0.093284 7:0.018657 8:0.052239 9:0.052239 10:0.11194 11:0.026119 12:0.041045 13:0.052239 14:0.014925 15:0.037313 16:0.085821 17:0.048507 18:0.063433 19:0.018657 20:0.033582 
512 0 0 512 0 0 512 0 0 512 0 1:0.066298 2:0.027624 3:0.033149 4:0.060773 5:0.055249 6:0.066298 7:0.01105 8:0.044199 9:0.066298 10:0.066298 11:0.027624 12:0.038674 13:0.066298 14:0.027624 15:0.038674 16:0.088398 17:0.066298 18:0.082873 19:0.022099 20:0.044199 
0 0 0 512 0 0 0 0 0 0 0 1:0.092262 2:0.020833 3:0.03869 4:0.074405 5:0.050595 6:0.071429 7:0.008929 8:0.047619 9:0.074405 10:0.092262 11:0.014881 12:0.026786 13:0.056548 14:0.02381 15:0.02381 16:0.119048 17:0.047619 18:0.077381 19:0.008929 20:0.029762 
512 0 0 512 0 0 0 512 0 512 0 1:0.102041 2:0.034014 3:0.07483 4:0.061224 5:0.027211 6:0.081633 7:0.006803 8:0.027211 9:0.040816 10:0.07483 11:0.054422 12:0.020408 13:0.061224 14:0.034014 15:0.027211 16:0.068027 17:0.115646 18:0.054422 19:0.006803 20:0.027211 
512 74.08510796930224 0 0 0 0 512 512 0 0 0 1:0.072082 2:0.003432 3:0.044622 4:0.113272 5:0.028604 6:0.086957 7:0.014874 8:0.065217 9:0.066362 10:0.099542 11:0.025172 12:0.030892 13:0.035469 14:0.033181 15:0.078947 16:0.050343 17:0.051487 18:0.077803 19:0.001144 20:0.020595 
378.3333601501956 0 512 512 190.6884344062947 0 512 512 474.6984835332711 0 0 1:0.077253 2:0.004292 3:0.042918 4:0.06867 5:0.038627 6:0.051502 7:0.008584 8:0.038627 9:0.090129 10:0.150215 11:0.008584 12:0.072961 13:0.012876 14:0.034335 15:0.034335 16:0.120172 17:0.055794 18:0.064378 19:0.012876 20:0.012876 
0 0 0 0 0 0 0 0 0 512 0 1:0.101167 2:0 3:0.050584 4:0.058366 5:0.038911 6:0.042802 7:0.007782 8:0.07393 9:0.062257 10:0.093385 11:0.015564 12:0.050584 13:0.035019 14:0.027237 15:0.038911 16:0.093385 17:0.101167 18:0.093385 19:0 20:0.015564 
512 0 0 512 0 0 512 512 0 0 0 1:0.092971 2:0.022676 3:0.052154 4:0.061224 5:0.034014 6:0.068027 7:0.020408 8:0.056689 9:0.063492 10:0.102041 11:0.015873 12:0.047619 13:0.054422 14:0.040816 15:0.043084 16:0.070295 17:0.052154 18:0.068027 19:0.013605 20:0.020408 
512 0 0 0 0 0 512 0 0 0 0 1:0.080717 2:0.014948 3:0.064275 4:0.059791 5:0.040359 6:0.100149 7:0.017937 8:0.055306 9:0.052317 10:0.091181 11:0.019432 12:0.03139 13:0.044843 14:0.025411 15:0.064275 16:0.070254 17:0.049327 18:0.077728 19:0.011958 20:0.028401 
512 0 0 0 0 0 512 0 0 0 0 1:0.12766 2:0 3:0.021277 4:0.099291 5:0.028369 6:0.078014 7:0.007092 8:0.078014 9:0.092199 10:0.070922 11:0.028369 12:0.070922 13:0.035461 14:0.042553 15:0.028369 16:0.042553 17:0.042553 18:0.070922 19:0.014184 20:0.021277 
512 0 0 0 0 0 0 0 0 0 0 1:0.160839 2:0.027972 3:0.06993 4:0.090909 5:0.013986 6:0.048951 7:0.013986 8:0.034965 9:0.041958 10:0.104895 11:0.013986 12:0 13:0.062937 14:0.041958 15:0.048951 16:0.076923 17:0.034965 18:0.076923 19:0.006993 20:0.027972 
512 0 0 0 0 0 512 0 0 0 0 1:0.07598 2:0.007353 3:0.056373 4:0.083333 5:0.034314 6:0.085784 7:0.02451 8:0.088235 9:0.058824 10:0.066176 11:0.034314 12:0.029412 13:0.04902 14:0.031863 15:0.061275 16:0.026961 17:0.066176 18:0.088235 19:0.002451 20:0.029412 
512 0 0 0 0 0 512 0 0 0 0 1:0.103914 2:0.009447 3:0.043185 4:0.070175 5:0.041835 6:0.090418 7:0.02834 8:0.055331 9:0.060729 10:0.075574 11:0.020243 12:0.037787 13:0.049933 14:0.022942 15:0.035088 16:0.090418 17:0.05668 18:0.063428 19:0.014845 20:0.02969 
512 0 0 0 0 0 512 297.1497513712112 0 0 0 1:0.08658 2:0.021645 3:0.030303 4:0.077922 5:0.047619 6:0.077922 7:0.017316 8:0.051948 9:0.060606 10:0.08658 11:0.021645 12:0.030303 13:0.060606 14:0.021645 15:0.073593 16:0.090909 17:0.038961 18:0.069264 19:0.021645 20:0.012987 
512 0 0 512 0 0 512 512 37.77696637794791 512 0 1:0.048837 2:0.011628 3:0.074419 4:0.055814 5:0.037209 6:0.053488 7:0.018605 8:0.102326 9:0.07907 10:0.1 11:0.018605 12:0.067442 13:0.023256 14:0.062791 15:0.055814 16:0.060465 17:0.044186 18:0.030233 19:0.006977 20:0.048837 
0 410.5802080470724 0 504.4897655318704 371.6545897501264 0 365.4328701681338 512 0 512 0 1:0.071038 2:0 3:0.027322 4:0.087432 5:0.027322 6:0.032787 7:0.010929 8:0.147541 9:0.060109 10:0.131148 11:0.010929 12:0.060109 13:0.005464 14:0.10929 15:0.043716 16:0.092896 17:0.043716 18:0.032787 19:0 20:0.005464 
512 0 0 0 0 0 512 512 0 0 0 1:0.063361 2:0.002755 3:0.07438 4:0.082645 5:0.022039 6:0.088154 7:0.019284 8:0.066116 9:0.057851 10:0.077135 11:0.038567 12:0.019284 13:0.046832 14:0.038567 15:0.041322 16:0.046832 17:0.093664 18:0.093664 19:0.002755 20:0.024793 
512 0 0 0 0 0 0 0 0 0 0 1:0.090909 2:0 3:0.060606 4:0.060606 5:0.022727 6:0.068182 7:0.007576 8:0.143939 9:0.106061 10:0.113636 11:0.007576 12:0.015152 13:0.030303 14:0.015152 15:0.015152 16:0.075758 17:0.068182 18:0.075758 19:0.015152 20:0.007576 
512 0 0 512 0 0 512 512 0 0 0 1:0.097674 2:0.018605 3:0.044186 4:0.053488 5:0.048837 6:0.062791 7:0.013953 8:0.051163 9:0.074419 10:0.074419 11:0.032558 12:0.060465 13:0.051163 14:0.039535 15:0.030233 16:0.076744 17:0.053488 18:0.074419 19:0.006977 20:0.034884 
512 0 0 0 0 0 512 512 0 0 0 1:0.116505 2:0.012136 3:0.06068 4:0.058252 5:0.031553 6:0.063107 7:0.014563 8:0.046117 9:0.041262 10:0.082524 11:0.031553 12:0.031553 13:0.084951 14:0.029126 15:0.075243 16:0.075243 17:0.029126 18:0.075243 19:0.002427 20:0.038835 
512 0 512 0 70.34185464285861 0 512 512 0.7222008422271151 512 0 1:0.061433 2:0 3:0.068259 4:0.075085 5:0.030717 6:0.05802 7:0.020478 8:0.068259 9:0.071672 10:0.129693 11:0.03413 12:0.037543 13:0.03413 14:0.03413 15:0.075085 16:0.044369 17:0.054608 18:0.061433 19:0 20:0.040956 
512 0 0 0 0 0 0 0 0 512 0 1:0.092593 2:0.003704 3:0.044444 4:0.081481 5:0.059259 6:0.096296 7:0.011111 8:0.048148 9:0.040741 10:0.096296 11:0.014815 12:0.025926 13:0.055556 14:0.044444 15:0.044444 16:0.066667 17:0.062963 18:0.081481 19:0.014815 20:0.014815 
512 0 0 0 0 0 512 512 0 0 0 1:0.08216 2:0.011737 3:0.068075 4:0.068075 5:0.030516 6:0.070423 7:0.014085 8:0.06338 9:0.058685 10:0.105634 11:0.016432 12:0.039906 13:0.046948 14:0.030516 15:0.075117 16:0.077465 17:0.037559 18:0.089202 19:0.002347 20:0.011737 
512 140.3916987619695 0 0 0 0 512 512 340.7347360766796 0 0 1:0.125 2:0 3:0 4:0.0625 5:0.0625 6:0.125 7:0 8:0 9:0.1875 10:0 11:0 12:0 13:0.0625 14:0.0625 15:0 16:0.0625 17:0.125 18:0.125 19:0 20:0 
512 0 0 512 0 292.9512504116498 512 512 251.4583361523181 512 0 1:0.056452 2:0.016129 3:0.03629 4:0.048387 5:0.060484 6:0.112903 7:0.028226 8:0.060484 9:0.068548 10:0.064516 11:0.012097 12:0.03629 13:0.048387 14:0.052419 15:0.028226 16:0.112903 17:0.056452 18:0.076613 19:0.004032 20:0.020161 
512 0 0 512 0 0 512 512 0 512 0 1:0.070826 2:0.011804 3:0.057336 4:0.060708 5:0.048904 6:0.057336 7:0.023609 8:0.062395 9:0.067454 10:0.10118 11:0.016863 12:0.05059 13:0.048904 14:0.030354 15:0.062395 16:0.079258 17:0.040472 18:0.053963 19:0.010118 20:0.045531 
512 0 0 512 0 0 512 512 0 0 0 1:0.070218 2:0.012107 3:0.060533 4:0.05569 5:0.026634 6:0.058111 7:0.016949 8:0.050847 9:0.058111 10:0.079903 11:0.031477 12:0.050847 13:0.053269 14:0.03632 15:0.053269 16:0.099274 17:0.067797 18:0.082324 19:0.026634 20:0.009685 
512 0 0 0 0 0 512 0 0 0 0 1:0.086957 2:0.01087 3:0.054348 4:0.092391 5:0.035326 6:0.07337 7:0.013587 8:0.070652 9:0.07337 10:0.100543 11:0.016304 12:0.035326 13:0.046196 14:0.032609 15:0.0625 16:0.0625 17:0.024457 18:0.078804 19:0.008152 20:0.021739 
512 0 0 0 0 0 512 512 175.0244630190937 512 0 1:0.04918 2:0.010929 3:0.038251 4:0.04918 5:0.04918 6:0.021858 7:0.005464 8:0.131148 9:0.15847 10:0.10929 11:0.016393 12:0.071038 13:0.005464 14:0.021858 15:0.04918 16:0.087432 17:0.065574 18:0.032787 19:0 20:0.027322 
0 0 0 0 0 0 0 0 0 512 0 1:0.074766 2:0.018692 3:0.056075 4:0.065421 5:0.028037 6:0.037383 7:0 8:0.093458 9:0.056075 10:0.046729 11:0.028037 12:0.056075 13:0.065421 14:0.018692 15:0.028037 16:0.093458 17:0.065421 18:0.121495 19:0.018692 20:0.028037 
512 512 512 0 341.5660764971861 0 512 512 437.5754437420264 0 0 1:0.068966 2:0 3:0.137931 4:0.172414 5:0 6:0.034483 7:0 8:0.034483 9:0.137931 10:0.172414 11:0 12:0 13:0.034483 14:0.034483 15:0.137931 16:0 17:0 18:0.034483 19:0 20:0 
512 0 0 0 0 0 512 0 0 0 0 1:0.137209 2:0.02093 3:0.05814 4:0.051163 5:0.018605 6:0.067442 7:0.013953 8:0.053488 9:0.037209 10:0.07907 11:0.032558 12:0.030233 13:0.081395 14:0.032558 15:0.069767 16:0.062791 17:0.032558 18:0.086047 19:0.004651 20:0.030233 
0 0 0 512 0 0 512 0 0 512 0 1:0.119048 2:0.029762 3:0.035714 4:0.029762 5:0.047619 6:0.035714 7:0 8:0.029762 9:0.041667 10:0.059524 11:0.02381 12:0.065476 13:0.071429 14:0.059524 15:0.071429 16:0.065476 17:0.041667 18:0.10119 19:0.02381 20:0.047619 
512 0 0 0 0 0 512 0 0 512 0 1:0.08871 2:0.012097 3:0.050403 4:0.072581 5:0.040323 6:0.092742 7:0.022177 8:0.056452 9:0.058468 10:0.106855 11:0.034274 12:0.02621 13:0.032258 14:0.020161 15:0.046371 16:0.076613 17:0.054435 18:0.082661 19:0.008065 20:0.018145 
512 0 0 512 0 0 512 512 0 512 0 1:0.067285 2:0.020882 3:0.046404 4:0.058005 5:0.039443 6:0.092807 7:0.020882 8:0.051044 9:0.044084 10:0.064965 11:0.030162 12:0.034803 13:0.058005 14:0.046404 15:0.067285 16:0.081206 17:0.074246 18:0.078886 19:0 20:0.023202 
512 0 0 0 0 0 512 0 0 0 0 1:0.116531 2:0.01897 3:0.051491 4:0.075881 5:0.03523 6:0.062331 7:0.02168 8:0.059621 9:0.075881 10:0.108401 11:0.02439 12:0.04607 13:0.03252 14:0.02439 15:0.04065 16:0.054201 17:0.051491 18:0.078591 19:0.00271 20:0.01897 
512 0 0 512 0 0 0 512 29.01488428598921 512 136.8293449179362 1:0.072917 2:0.072917 3:0.125 4:0.072917 5:0.03125 6:0.072917 7:0.010417 8:0.0625 9:0.041667 10:0.0625 11:0.010417 12:0.020833 13:0.03125 14:0.041667 15:0.010417 16:0.072917 17:0.104167 18:0.041667 19:0 20:0.041667 
0 0 0 0 0 0 360.4473738550008 0 0 0 0 1:0.108696 2:0 3:0.028986 4:0.086957 5:0.021739 6:0.057971 7:0.007246 8:0.094203 9:0.065217 10:0.115942 11:0.014493 12:0.07971 13:0.021739 14:0.028986 15:0.043478 16:0.057971 17:0.072464 18:0.072464 19:0.014493 20:0.007246 
512 0 0 512 0 0 512 512 512 0 0 1:0.117381 2:0.011287 3:0.063205 4:0.065463 5:0.027088 6:0.110609 7:0.040632 8:0.03386 9:0.045147 10:0.088036 11:0.024831 12:0.020316 13:0.047404 14:0.03386 15:0.069977 16:0.038375 17:0.051919 18:0.076749 19:0.004515 20:0.029345 
512 238.6951213517837 0 0 0 0 512 512 0 0 0 1:0.071429 2:0.005495 3:0.065934 4:0.06044 5:0.027473 6:0.038462 7:0.016484 8:0.082418 9:0.131868 10:0.087912 11:0.021978 12:0.049451 13:0.038462 14:0.06044 15:0.065934 16:0.06044 17:0.027473 18:0.06044 19:0 20:0.027473 
512 0 0 0 0 0 0 0 0 159.3577606925857 0 1:0.082692 2:0.021154 3:0.053846 4:0.055769 5:0.021154 6:0.082692 7:0.009615 8:0.053846 9:0.057692 10:0.096154 11:0.032692 12:0.038462 13:0.048077 14:0.021154 15:0.048077 16:0.092308 17:0.065385 18:0.088462 19:0.007692 20:0.023077 
512 0 0 512 0 0 0 512 0 0 0 1:0.091837 2:0.061224 3:0.102041 4:0.081633 5:0.030612 6:0.061224 7:0.010204 8:0.05102 9:0.040816 10:0.081633 11:0.010204 12:0.030612 13:0.030612 14:0.061224 15:0.010204 16:0.071429 17:0.071429 18:0.061224 19:0 20:0.040816 
512 0 272.9558776333523 512 0 0 512 512 0 0 0 1:0.11985 2:0.011236 3:0.06367 4:0.041199 5:0.048689 6:0.086142 7:0.014981 8:0.029963 9:0.089888 10:0.059925 11:0.007491 12:0.041199 13:0.041199 14:0.044944 15:0.026217 16:0.097378 17:0.048689 18:0.086142 19:0.007491 20:0.033708 
0 0 0 0 0 0 0 0 0 512 0 1:0.086735 2:0.005102 3:0.015306 4:0.045918 5:0.05102 6:0.076531 7:0 8:0.05102 9:0.045918 10:0.076531 11:0.05102 12:0.035714 13:0.066327 14:0.035714 15:0.045918 16:0.142857 17:0.066327 18:0.081633 19:0.010204 20:0.010204 
512 0 0 512 0 0 512 512 512 0 154.5503939073821 1:0.146919 2:0.009479 3:0.042654 4:0.042654 5:0.033175 6:0.118483 7:0.042654 8:0.023697 9:0.023697 10:0.104265 11:0.009479 12:0.042654 13:0.061611 14:0.033175 15:0.033175 16:0.056872 17:0.080569 18:0.094787 19:0 20:0 
512 0 512 512 0 0 512 512 347.7721628970901 512 0 1:0.047511 2:0.005656 3:0.053167 4:0.076923 5:0.061086 6:0.047511 7:0.010181 8:0.088235 9:0.089367 10:0.095023 11:0.014706 12:0.059955 13:0.020362 14:0.047511 15:0.052036 16:0.058824 17:0.066742 18:0.049774 19:0.006787 20:0.048643 
512 0 0 0 0 0 0 0 0 0 0 1:0.117647 2:0 3:0.029412 4:0.058824 5:0 6:0.147059 7:0 8:0.058824 9:0.058824 10:0.029412 11:0.029412 12:0.058824 13:0.029412 14:0.058824 15:0.029412 16:0.029412 17:0.147059 18:0.117647 19:0 20:0 
0 0 0 0 0 1.184449250530779 0 0 0 0 495.2903038292114 1:0.1 2:0 3:0.033333 4:0.133333 5:0 6:0.2 7:0 8:0.033333 9:0 10:0.066667 11:0 12:0 13:0.1 14:0 15:0 16:0.1 17:0.066667 18:0.1 19:0 20:0.066667 
512 0 0 0 313.5152019610043 0 512 0 0 512 0 1:0.105263 2:0.015038 3:0.045113 4:0.097744 5:0 6:0.06015 7:0.007519 8:0.067669 9:0.045113 10:0.157895 11:0.022556 12:0.052632 13:0.022556 14:0 15:0.052632 16:0.030075 17:0.097744 18:0.105263 19:0.007519 20:0.007519 
512 0 512 512 512 512 512 512 512 512 0 1:0.04698 2:0.011186 3:0.049217 4:0.049217 5:0.038031 6:0.073826 7:0.06264 8:0.040268 9:0.053691 10:0.116331 11:0.011186 12:0.038031 13:0.073826 14:0.017897 15:0.049217 16:0.069351 17:0.042506 18:0.076063 19:0.035794 20:0.044743 
0 0 0 512 0 0 512 512 0 512 0 1:0.076503 2:0.021858 3:0.032787 4:0.054645 5:0.04918 6:0.060109 7:0.010929 8:0.043716 9:0.060109 10:0.076503 11:0.032787 12:0.027322 13:0.071038 14:0.038251 15:0.054645 16:0.10929 17:0.04918 18:0.065574 19:0.021858 20:0.043716 
512 0 0 512 0 0 512 512 0 0 0 1:0.10566 2:0.011321 3:0.056604 4:0.045283 5:0.045283 6:0.075472 7:0.015094 8:0.033962 9:0.071698 10:0.075472 11:0.003774 12:0.049057 13:0.049057 14:0.049057 15:0.033962 16:0.086792 17:0.071698 18:0.079245 19:0.007547 20:0.033962 
0 0 0 0 0 0 512 512 0 0 0 1:0.135838 2:0.011561 3:0.034682 4:0.052023 5:0.011561 6:0.060694 7:0.014451 8:0.043353 9:0.046243 10:0.089595 11:0.031792 12:0.023121 13:0.078035 14:0.031792 15:0.075145 16:0.080925 17:0.063584 18:0.086705 19:0.00578 20:0.023121 
512 0 0 0 0 0 0 0 0 0 0 1:0.090909 2:0 3:0.045455 4:0.073232 5:0.037879 6:0.098485 7:0.010101 8:0.063131 9:0.042929 10:0.093434 11:0.022727 12:0.032828 13:0.055556 14:0.042929 15:0.04798 16:0.060606 17:0.073232 18:0.078283 19:0.002525 20:0.027778 
512 0 0 0 0 0 0 0 0 0 0 1:0.13198 2:0 3:0.055838 4:0.071066 5:0.071066 6:0.101523 7:0.010152 8:0.055838 9:0.040609 10:0.106599 11:0.030457 12:0.020305 13:0.040609 14:0.045685 15:0.045685 16:0.040609 17:0.040609 18:0.071066 19:0.005076 20:0.015228 
512 0 512 512 0 0 512 512 512 512 0 1:0.052786 2:0.01173 3:0.070381 4:0.064516 5:0.041056 6:0.061584 7:0.026393 8:0.049853 9:0.055718 10:0.076246 11:0.01173 12:0.049853 13:0.052786 14:0.032258 15:0.052786 16:0.090909 17:0.064516 18:0.090909 19:0.014663 20:0.029326 
512 0 0 0 0 0 512 0 0 512 0 1:0.084381 2:0.012567 3:0.050269 4:0.055655 5:0.052065 6:0.089767 7:0.025135 8:0.059246 9:0.062837 10:0.078995 11:0.014363 12:0.032316 13:0.055655 14:0.014363 15:0.050269 16:0.089767 17:0.070018 18:0.075404 19:0.005386 20:0.021544 
512 0 0 512 221.6910831655855 0 512 512 0 512 0 1:0.052174 2:0.017391 3:0.03913 4:0.065217 5:0.021739 6:0.047826 7:0.008696 8:0.03913 9:0.069565 10:0.082609 11:0.026087 12:0.056522 13:0.086957 14:0.034783 15:0.052174 16:0.095652 17:0.1 18:0.03913 19:0.008696 20:0.056522 
512 0 0 512 0 0 512 512 0 512 0 1:0.065217 2:0.009317 3:0.065217 4:0.055901 5:0.02795 6:0.090062 7:0.024845 8:0.090062 9:0.071429 10:0.136646 11:0.021739 12:0.037267 13:0.034161 14:0.031056 15:0.049689 16:0.052795 17:0.055901 18:0.046584 19:0.009317 20:0.024845 
512 0 0 512 0 0 512 0 512 512 456.9033373449752 1:0.076289 2:0.024742 3:0.049485 4:0.065979 5:0.051546 6:0.076289 7:0.030928 8:0.045361 9:0.047423 10:0.084536 11:0.010309 12:0.039175 13:0.045361 14:0.026804 15:0.05567 16:0.072165 17:0.047423 18:0.117526 19:0.002062 20:0.030928 
512 0 0 0 0 0 0 0 0 0 0 1:0.096463 2:0.012862 3:0.045016 4:0.093248 5:0.032154 6:0.118971 7:0.006431 8:0.048232 9:0.051447 10:0.080386 11:0.03537 12:0.025723 13:0.045016 14:0.028939 15:0.03537 16:0.07074 17:0.038585 18:0.096463 19:0.009646 20:0.028939 
512 0 0 0 0 0 512 0 0 0 0 1:0.099502 2:0.017413 3:0.077114 4:0.044776 5:0.027363 6:0.087065 7:0.017413 8:0.057214 9:0.067164 10:0.074627 11:0.0199 12:0.044776 13:0.044776 14:0.014925 15:0.037313 16:0.064677 17:0.059701 18:0.114428 19:0.012438 20:0.017413 
512 0 512 0 0 0 0 0 0 0 0 1:0.080952 2:0.009524 3:0.071429 4:0.066667 5:0.066667 6:0.071429 7:0.014286 8:0.071429 9:0.080952 10:0.080952 11:0.004762 12:0.02381 13:0.052381 14:0.02381 15:0.042857 16:0.071429 17:0.042857 18:0.080952 19:0.009524 20:0.033333 
512 0 0 0 0 0 512 0 0 0 0 1:0.13242 2:0.013699 3:0.045662 4:0.082192 5:0.022831 6:0.041096 7:0.004566 8:0.050228 9:0.100457 10:0.109589 11:0.027397 12:0.027397 13:0.022831 14:0.050228 15:0.045662 16:0.068493 17:0.03653 18:0.09589 19:0.004566 20:0.018265 
512 0 0 311.7836348448953 0 0 0 0 0 0 0 1:0.139535 2:0.023256 3:0.069767 4:0.069767 5:0.023256 6:0.093023 7:0.011628 8:0.05814 9:0.046512 10:0.046512 11:0.034884 12:0.104651 13:0.023256 14:0.034884 15:0.023256 16:0.05814 17:0.046512 18:0.05814 19:0.011628 20:0.023256 
512 0 0 512 0 0 512 0 0 512 0 1:0.061111 2:0.016667 3:0.033333 4:0.055556 5:0.05 6:0.066667 7:0.011111 8:0.044444 9:0.072222 10:0.072222 11:0.033333 12:0.022222 13:0.061111 14:0.038889 15:0.044444 16:0.083333 17:0.072222 18:0.094444 19:0.022222 20:0.044444 
512 0 0 0 0 0 512 512 380.161041500412 0 0 1:0.056818 2:0.011364 3:0.056818 4:0.056818 5:0.056818 6:0.045455 7:0 8:0.056818 9:0.102273 10:0.090909 11:0.011364 12:0.034091 13:0.034091 14:0.056818 15:0.125 16:0.022727 17:0.045455 18:0.090909 19:0 20:0.045455 
512 0 0 512 0 512 512 512 0 512 512 1:0.057047 2:0.018456 3:0.058725 4:0.052013 5:0.048658 6:0.067114 7:0.02349 8:0.050336 9:0.060403 10:0.080537 11:0.025168 12:0.075503 13:0.072148 14:0.02349 15:0.048658 16:0.058725 17:0.063758 18:0.058725 19:0.015101 20:0.041946 
512 0 0 512 0 0 0 0 0 0 0 1:0.073314 2:0.008798 3:0.026393 4:0.061584 5:0.064516 6:0.082111 7:0.005865 8:0.067449 9:0.087977 10:0.087977 11:0.01173 12:0.064516 13:0.073314 14:0.043988 15:0.017595 16:0.046921 17:0.041056 18:0.096774 19:0.002933 20:0.035191 
512 0 0 0 0 0 512 0 0 512 0 1:0.085714 2:0.008403 3:0.055462 4:0.067227 5:0.047059 6:0.077311 7:0.016807 8:0.063866 9:0.062185 10:0.097479 11:0.026891 12:0.052101 13:0.043697 14:0.028571 15:0.033613 16:0.063866 17:0.058824 18:0.078992 19:0.001681 20:0.030252 
512 0 512 0 0 0 512 512 0 0 0 1:0.078675 2:0.011387 3:0.055901 4:0.092133 5:0.049689 6:0.059006 7:0.022774 8:0.065217 9:0.073499 10:0.07764 11:0.016563 12:0.049689 13:0.038302 14:0.02588 15:0.046584 16:0.063147 17:0.055901 18:0.064182 19:0.017598 20:0.036232 
512 0 0 512 0 0 0 512 0 512 0 1:0.07839 2:0.016949 3:0.052966 4:0.069915 5:0.038136 6:0.052966 7:0.021186 8:0.057203 9:0.052966 10:0.091102 11:0.025424 12:0.044492 13:0.052966 14:0.021186 15:0.050847 16:0.127119 17:0.027542 18:0.072034 19:0.006356 20:0.040254 
512 0 0 512 0 0 512 512 0 0 0 1:0.077311 2:0.018487 3:0.058824 4:0.072269 5:0.033613 6:0.057143 7:0.018487 8:0.042017 9:0.065546 10:0.080672 11:0.028571 12:0.038655 13:0.052101 14:0.031933 15:0.055462 16:0.085714 17:0.042017 18:0.094118 19:0.008403 20:0.038655 
512 0 0 0 0 0 512 0 0 512 0 1:0.073218 2:0.021195 3:0.063584 4:0.050096 5:0.05973 6:0.080925 7:0.013487 8:0.080925 9:0.065511 10:0.061657 11:0.030829 12:0.05395 13:0.044316 14:0.034682 15:0.044316 16:0.061657 17:0.05395 18:0.071291 19:0.007707 20:0.026975 
512 0 0 512 0 142.372878089694 512 512 0 512 0 1:0.064202 2:0.013619 3:0.050584 4:0.075875 5:0.044747 6:0.083658 7:0.015564 8:0.029183 9:0.058366 10:0.105058 11:0.040856 12:0.029183 13:0.052529 14:0.031128 15:0.060311 16:0.054475 17:0.066148 18:0.070039 19:0.01751 20:0.036965 
512 0 0 512 0 0 512 512 0 0 0 1:0.082725 2:0.019465 3:0.051095 4:0.068127 5:0.026764 6:0.090024 7:0.019465 8:0.058394 9:0.058394 10:0.085158 11:0.021898 12:0.038929 13:0.046229 14:0.034063 15:0.036496 16:0.097324 17:0.043796 18:0.072993 19:0.004866 20:0.043796 
512 0 0 512 0 0 0 0 0 0 0 1:0.096273 2:0.021739 3:0.040373 4:0.062112 5:0.040373 6:0.093168 7:0.012422 8:0.049689 9:0.062112 10:0.068323 11:0.006211 12:0.046584 13:0.024845 14:0.046584 15:0.037267 16:0.099379 17:0.043478 18:0.114907 19:0.018634 20:0.015528 
512 0 512 512 38.23710371060557 0 512 512 331.1147580144123 0 0 1:0.041237 2:0.010309 3:0.020619 4:0.07732 5:0.015464 6:0.056701 7:0.036082 8:0.06701 9:0.14433 10:0.087629 11:0.030928 12:0.051546 13:0.041237 14:0.030928 15:0.025773 16:0.108247 17:0.046392 18:0.087629 19:0.010309 20:0.010309 
512 0 0 512 0 0 0 0 0 0 0 1:0.094637 2:0.006309 3:0.028391 4:0.063091 5:0.037855 6:0.082019 7:0.003155 8:0.053628 9:0.078864 10:0.088328 11:0.015773 12:0.066246 13:0.07571 14:0.063091 15:0.022082 16:0.0347 17:0.031546 18:0.116719 19:0 20:0.037855 
512 0 0 512 0 0 512 512 0 512 0 1:0.069098 2:0.03071 3:0.055662 4:0.053743 5:0.046065 6:0.078695 7:0.023033 8:0.067179 9:0.051823 10:0.076775 11:0.03071 12:0.042226 13:0.051823 14:0.024952 15:0.067179 16:0.074856 17:0.051823 18:0.06142 19:0.007678 20:0.034549 
512 0 0 0 0 0 0 0 352.5963145853965 0 0 1:0.137931 2:0 3:0.059113 4:0.059113 5:0.064039 6:0.123153 7:0.019704 8:0.064039 9:0.029557 10:0.103448 11:0.039409 12:0.039409 13:0.044335 14:0.034483 15:0.039409 16:0.049261 17:0.024631 18:0.049261 19:0.009852 20:0.009852 
512 0 0 0 0 0 512 512 0 0 0 1:0.045643 2:0.016598 3:0.087137 4:0.058091 5:0.024896 6:0.058091 7:0.008299 8:0.029046 9:0.095436 10:0.058091 11:0.045643 12:0.058091 13:0.053942 14:0.016598 15:0.06639 16:0.095436 17:0.070539 18:0.091286 19:0.008299 20:0.012448 
512 0 512 512 0 0 512 0 308.8811364305251 0 38.18083965937623 1:0.108108 2:0.011583 3:0.069498 4:0.03861 5:0.046332 6:0.07722 7:0.015444 8:0.034749 9:0.081081 10:0.065637 11:0.003861 12:0.03861 13:0.034749 14:0.050193 15:0.034749 16:0.073359 17:0.07722 18:0.092664 19:0.007722 20:0.03861 
512 0 0 512 0 0 512 512 106.3627796899223 512 0 1:0.056667 2:0.023333 3:0.036667 4:0.093333 5:0.026667 6:0.06 7:0.03 8:0.05 9:0.06 10:0.106667 11:0.02 12:0.033333 13:0.026667 14:0.03 15:0.073333 16:0.083333 17:0.06 18:0.1 19:0.013333 20:0.016667 
512 0 0 512 0 0 0 0 0 0 0 1:0.122449 2:0.05102 3:0.081633 4:0.081633 5:0.020408 6:0.071429 7:0.010204 8:0.020408 9:0.040816 10:0.061224 11:0.010204 12:0.010204 13:0.040816 14:0.020408 15:0.010204 16:0.091837 17:0.122449 18:0.081633 19:0.010204 20:0.040816 
512 0 0 512 0 0 512 512 0 512 0 1:0.074818 2:0.012774 3:0.041971 4:0.051095 5:0.038321 6:0.096715 7:0.010949 8:0.04562 9:0.056569 10:0.09854 11:0.020073 12:0.036496 13:0.072993 14:0.023723 15:0.058394 16:0.089416 17:0.05292 18:0.078467 19:0.010949 20:0.029197 
512 0 0 512 290.3592500837395 0 0 0 0 512 0 1:0.05102 2:0.061224 3:0.122449 4:0.122449 5:0.030612 6:0.081633 7:0.010204 8:0.071429 9:0.030612 10:0.061224 11:0.020408 12:0 13:0.020408 14:0.040816 15:0.010204 16:0.091837 17:0.081633 18:0.061224 19:0 20:0.030612 
512 0 0 512 0 0 512 512 0 0 0 1:0.078498 2:0.03413 3:0.064846 4:0.05802 5:0.03413 6:0.081911 7:0.023891 8:0.05802 9:0.061433 10:0.09215 11:0.010239 12:0.037543 13:0.051195 14:0.023891 15:0.068259 16:0.09215 17:0.037543 18:0.064846 19:0.006826 20:0.020478 
512 0 0 0 0 0 512 0 203.8182392978102 0 0 1:0.142857 2:0 3:0.047619 4:0 5:0 6:0.047619 7:0 8:0.047619 9:0.142857 10:0.095238 11:0 12:0 13:0.095238 14:0 15:0.047619 16:0 17:0.095238 18:0.190476 19:0 20:0.047619 
512 0 0 512 509.0553094903312 512 0 512 23.91896582401935 512 0 1:0.061856 2:0.051546 3:0.113402 4:0.082474 5:0.020619 6:0.072165 7:0.010309 8:0.041237 9:0.030928 10:0.082474 11:0 12:0.010309 13:0.030928 14:0.061856 15:0.010309 16:0.082474 17:0.103093 18:0.082474 19:0 20:0.051546 
512 0 0 0 269.2933576854834 0 0 0 0 512 0 1:0.066327 2:0.005102 3:0.056122 4:0.081633 5:0.05102 6:0.076531 7:0.015306 8:0.076531 9:0.030612 10:0.096939 11:0.040816 12:0.015306 13:0.05102 14:0.040816 15:0.05102 16:0.05102 17:0.040816 18:0.096939 19:0.015306 20:0.040816 
512 0 512 0 154.9208653844981 0 0 0 472.2084632856794 0 69.38304663817435 1:0.15625 2:0.03125 3:0.15625 4:0.125 5:0 6:0.03125 7:0 8:0.09375 9:0.03125 10:0.09375 11:0 12:0 13:0 14:0 15:0.03125 16:0.03125 17:0.0625 18:0.09375 19:0 20:0.0625 
512 0 0 0 0 0 512 512 0 0 0 1:0.078947 2:0.021053 3:0.047368 4:0.068421 5:0.031579 6:0.068421 7:0.015789 8:0.042105 9:0.089474 10:0.084211 11:0.031579 12:0.026316 13:0.047368 14:0.031579 15:0.057895 16:0.073684 17:0.057895 18:0.094737 19:0.015789 20:0.015789 
512 0 282.3850954064051 512 512 0 512 512 0 0 0 1:0.094595 2:0 3:0.045045 4:0.081081 5:0.036036 6:0.018018 7:0.004505 8:0.054054 9:0.103604 10:0.157658 11:0.031532 12:0.022523 13:0.067568 14:0.040541 15:0.018018 16:0.09009 17:0.076577 18:0.045045 19:0 20:0.013514 
512 0 0 0 0 0 0 512 0 0 0 1:0.083569 2:0.002833 3:0.070822 4:0.072238 5:0.038244 6:0.086402 7:0.005666 8:0.053824 9:0.07932 10:0.084986 11:0.009915 12:0.036827 13:0.043909 14:0.036827 15:0.043909 16:0.082153 17:0.072238 18:0.086402 19:0.001416 20:0.008499 
512 0 512 0 0 0 512 0 0 0 0 1:0.063889 2:0.013889 3:0.05 4:0.075 5:0.041667 6:0.075 7:0.011111 8:0.052778 9:0.1 10:0.075 11:0.033333 12:0.041667 13:0.047222 14:0.022222 15:0.036111 16:0.066667 17:0.055556 18:0.088889 19:0.016667 20:0.033333 
512 0 0 512 0 0 512 512 20.8074438420818 0 0 1:0.104 2:0.013333 3:0.056 4:0.050667 5:0.050667 6:0.061333 7:0.029333 8:0.045333 9:0.058667 10:0.077333 11:0.04 12:0.032 13:0.050667 14:0.032 15:0.048 16:0.098667 17:0.04 18:0.082667 19:0.005333 20:0.024 
512 0 0 512 0 0 0 0 0 512 0 1:0.087248 2:0.033557 3:0.073826 4:0.067114 5:0.040268 6:0.080537 7:0.013423 8:0.026846 9:0.04698 10:0.080537 11:0.026846 12:0.006711 13:0.04698 14:0.026846 15:0.020134 16:0.09396 17:0.100671 18:0.09396 19:0 20:0.033557 
512 512 0 512 0 0 512 512 512 512 0 1:0.050725 2:0.014493 3:0.050725 4:0.072464 5:0.050725 6:0.043478 7:0.021739 8:0.065217 9:0.043478 10:0.050725 11:0.021739 12:0.050725 13:0.065217 14:0.065217 15:0.072464 16:0.057971 17:0.057971 18:0.065217 19:0.021739 20:0.057971 
512 0 512 512 420.3384235871886 512 512 512 0.05201374434775715 512 512 1:0.059406 2:0.011881 3:0.055446 4:0.060396 5:0.038614 6:0.054455 7:0.016832 8:0.055446 9:0.060396 10:0.089109 11:0.021782 12:0.093069 13:0.030693 14:0.052475 15:0.038614 16:0.079208 17:0.076238 18:0.045545 19:0.016832 20:0.043564 
512 512 512 512 486.3649698844958 0 0 512 498.5268999577306 0 287.7626793807794 1:0.065574 2:0 3:0.081967 4:0.098361 5:0.016393 6:0.016393 7:0.016393 8:0.098361 9:0.065574 10:0 11:0 12:0.131148 13:0.081967 14:0.081967 15:0.016393 16:0.065574 17:0.04918 18:0.016393 19:0.016393 20:0.081967 
512 0 0 512 0 0 512 512 0 0 0 1:0.082005 2:0.018223 3:0.05467 4:0.072893 5:0.036446 6:0.084282 7:0.013667 8:0.045558 9:0.059226 10:0.107062 11:0.029613 12:0.025057 13:0.038724 14:0.036446 15:0.059226 16:0.116173 17:0.029613 18:0.063781 19:0.002278 20:0.025057 
512 0 512 512 0 184.7943502608359 512 0 46.13950028399738 512 0 1:0.04878 2:0.00813 3:0.04878 4:0.081301 5:0.065041 6:0.073171 7:0.00813 8:0.03252 9:0.081301 10:0.089431 11:0.02439 12:0.02439 13:0.097561 14:0.03252 15:0.03252 16:0.02439 17:0.04065 18:0.089431 19:0.03252 20:0.065041 
512 0 0 512 0 0 512 512 0 0 0 1:0.093506 2:0.015584 3:0.072727 4:0.05974 5:0.036364 6:0.049351 7:0.020779 8:0.05974 9:0.072727 10:0.07013 11:0.049351 12:0.036364 13:0.038961 14:0.041558 15:0.051948 16:0.054545 17:0.05974 18:0.05974 19:0.020779 20:0.036364 
0 0 0 512 0 512 512 512 0 512 0 1:0.095238 2:0.02381 3:0.02381 4:0.053571 5:0.041667 6:0.053571 7:0 8:0.029762 9:0.053571 10:0.10119 11:0.029762 12:0.035714 13:0.059524 14:0.053571 15:0.053571 16:0.083333 17:0.071429 18:0.047619 19:0.029762 20:0.059524 
512 0 0 512 0 512 0 512 0 0 0 1:0.072165 2:0.061856 3:0.082474 4:0.072165 5:0.020619 6:0.072165 7:0.010309 8:0.061856 9:0.041237 10:0.072165 11:0.010309 12:0.041237 13:0.030928 14:0.092784 15:0.010309 16:0.061856 17:0.051546 18:0.082474 19:0 20:0.051546 
512 0 0 512 0 512 0 512 64.96817517400665 512 378.5955249748296 1:0.043478 2:0.014493 3:0.057971 4:0.07971 5:0.057971 6:0.050725 7:0.014493 8:0.07971 9:0.043478 10:0.072464 11:0.014493 12:0.065217 13:0.050725 14:0.043478 15:0.065217 16:0.086957 17:0.043478 18:0.036232 19:0.021739 20:0.057971 
0 0 0 512 0 0 355.3390014855064 0 0 512 0 1:0.09901 2:0.029703 3:0.066832 4:0.032178 5:0.042079 6:0.084158 7:0.019802 8:0.056931 9:0.039604 10:0.079208 11:0.009901 12:0.037129 13:0.04703 14:0.027228 15:0.056931 16:0.118812 17:0.042079 18:0.089109 19:0.012376 20:0.009901 
512 0 0 0 0 0 0 0 0 0 0 1:0.062745 2:0.003922 3:0.054902 4:0.058824 5:0.023529 6:0.090196 7:0.007843 8:0.058824 9:0.090196 10:0.090196 11:0.011765 12:0.027451 13:0.043137 14:0.007843 15:0.031373 16:0.113725 17:0.082353 18:0.113725 19:0 20:0.027451 
512 0 0 0 0 0 0 0 0 0 0 1:0.097222 2:0.003968 3:0.065476 4:0.059524 5:0.02381 6:0.089286 7:0.001984 8:0.095238 9:0.05754 10:0.087302 11:0.019841 12:0.03373 13:0.039683 14:0.061508 15:0.047619 16:0.065476 17:0.045635 18:0.075397 19:0 20:0.029762 
0 0 0 512 0 512 0 512 0 512 0 1:0.095238 2:0.039683 3:0.079365 4:0.02381 5:0.047619 6:0.039683 7:0.007937 8:0.047619 9:0.02381 10:0.071429 11:0.02381 12:0.039683 13:0.071429 14:0.071429 15:0.055556 16:0.071429 17:0.055556 18:0.055556 19:0.02381 20:0.055556 
512 512 0 0 388.5862634968263 0 512 512 0 0 0 1:0.068627 2:0 3:0.078431 4:0.098039 5:0.044118 6:0.053922 7:0.009804 8:0.039216 9:0.063725 10:0.073529 11:0.053922 12:0.044118 13:0.039216 14:0.02451 15:0.102941 16:0.083333 17:0.029412 18:0.078431 19:0.004902 20:0.009804 
512 0 512 512 44.58931437376401 0 0 512 279.7995996717723 343.881176168005 30.29045321964203 1:0.091837 2:0.061224 3:0.132653 4:0.091837 5:0.030612 6:0.061224 7:0.020408 8:0.05102 9:0.030612 10:0.091837 11:0 12:0.010204 13:0.020408 14:0.05102 15:0.010204 16:0.05102 17:0.081633 18:0.071429 19:0 20:0.040816 
512 0 0 0 0 0 512 0 0 512 0 1:0.099291 2:0.01182 3:0.061466 4:0.061466 5:0.035461 6:0.049645 7:0.004728 8:0.044917 9:0.061466 10:0.106383 11:0.023641 12:0.030733 13:0.042553 14:0.023641 15:0.07565 16:0.078014 17:0.044917 18:0.07565 19:0.016548 20:0.052009 
0 0 0 424.8284873229751 0 0 0 0 0 0 0 1:0.151351 2:0.021622 3:0.043243 4:0.032432 5:0.043243 6:0.021622 7:0 8:0.037838 9:0.054054 10:0.048649 11:0.048649 12:0.043243 13:0.075676 14:0.054054 15:0.059459 16:0.075676 17:0.021622 18:0.102703 19:0.027027 20:0.037838 
512 0 512 512 0 0 0 0 0 0 0 1:0.092784 2:0.041237 3:0.103093 4:0.103093 5:0.010309 6:0.072165 7:0.020619 8:0.030928 9:0.041237 10:0.061856 11:0.010309 12:0 13:0.041237 14:0.030928 15:0.010309 16:0.082474 17:0.092784 18:0.092784 19:0.010309 20:0.051546 
512 0 512 512 0 0 512 512 247.4632262340328 512 512 1:0.072727 2:0 3:0.054545 4:0.04 5:0.036364 6:0.076364 7:0.021818 8:0.069091 9:0.098182 10:0.101818 11:0 12:0.058182 13:0.036364 14:0.018182 15:0.014545 16:0.101818 17:0.101818 18:0.065455 19:0.003636 20:0.029091 
512 0 0 0 0 0 512 0 0 0 0 1:0.104167 2:0.020833 3:0.05787 4:0.060185 5:0.034722 6:0.087963 7:0.009259 8:0.050926 9:0.0625 10:0.090278 11:0.018519 12:0.041667 13:0.046296 14:0.032407 15:0.048611 16:0.0625 17:0.053241 18:0.083333 19:0.016204 20:0.018519 
512 0 0 411.2146529775588 0 0 512 512 8.455513264952433 512 0 1:0.044693 2:0.008939 3:0.041341 4:0.068156 5:0.03352 6:0.044693 7:0.018994 8:0.129609 9:0.092737 10:0.10838 11:0.021229 12:0.061453 13:0.023464 14:0.042458 15:0.053631 16:0.067039 17:0.054749 18:0.030168 19:0.006704 20:0.048045 
512 0 512 0 0 0 512 0 0 0 512 1:0.048387 2:0 3:0.048387 4:0.080645 5:0.032258 6:0.064516 7:0 8:0.064516 9:0.112903 10:0.064516 11:0.032258 12:0.096774 13:0.016129 14:0.016129 15:0.048387 16:0.064516 17:0.032258 18:0.096774 19:0.016129 20:0.064516 
512 0 512 512 101.5783691646243 0 0 512 0 512 0 1:0.071429 2:0.061224 3:0.102041 4:0.122449 5:0.020408 6:0.061224 7:0.020408 8:0.061224 9:0.040816 10:0.081633 11:0.010204 12:0 13:0.020408 14:0.040816 15:0.010204 16:0.071429 17:0.081633 18:0.061224 19:0 20:0.061224 
512 0 0 512 0 0 512 512 0 512 0 1:0.082024 2:0.008726 3:0.04014 4:0.073298 5:0.04363 6:0.082024 7:0.024433 8:0.061082 9:0.059337 10:0.097731 11:0.029668 12:0.034904 13:0.045375 14:0.04014 15:0.041885 16:0.069808 17:0.045375 18:0.069808 19:0.010471 20:0.04014 
512 0 0 0 0 0 512 0 0 0 0 1:0.116631 2:0.021598 3:0.036717 4:0.062635 5:0.051836 6:0.116631 7:0.019438 8:0.049676 9:0.058315 10:0.066955 11:0.034557 12:0.030238 13:0.047516 14:0.021598 15:0.049676 16:0.047516 17:0.056156 18:0.086393 19:0.00432 20:0.021598 
512 0 0 0 0 0 512 512 0 0 0 1:0.133758 2:0 3:0.050955 4:0.070064 5:0.038217 6:0.082803 7:0.025478 8:0.031847 9:0.057325 10:0.050955 11:0.044586 12:0.044586 13:0.082803 14:0.006369 15:0.050955 16:0.057325 17:0.070064 18:0.082803 19:0.006369 20:0.012739 
512 0 512 512 164.0067202066433 0 512 512 512 25.44848641434001 0 1:0.065934 2:0 3:0.021978 4:0.054945 5:0.032967 6:0.054945 7:0.065934 8:0.10989 9:0.10989 10:0.076923 11:0.021978 12:0.076923 13:0.043956 14:0 15:0.087912 16:0.043956 17:0.076923 18:0.032967 19:0.010989 20:0.010989 
512 0 512 512 275.1053948124113 0 512 512 512 0 509.9591835305586 1:0.076923 2:0 3:0.038462 4:0.038462 5:0.038462 6:0.076923 7:0 8:0 9:0.153846 10:0.038462 11:0.038462 12:0 13:0.038462 14:0.076923 15:0 16:0.038462 17:0.153846 18:0.076923 19:0 20:0.115385 
512 0 0 512 0 0 512 512 0 0 0 1:0.121134 2:0.010309 3:0.043814 4:0.043814 5:0.041237 6:0.085052 7:0.020619 8:0.020619 9:0.06701 10:0.097938 11:0.030928 12:0.020619 13:0.046392 14:0.025773 15:0.046392 16:0.10567 17:0.064433 18:0.079897 19:0.010309 20:0.018041 
512 0 0 512 0 0 512 512 512 0 0 1:0.167742 2:0.032258 3:0.051613 4:0.070968 5:0.032258 6:0.077419 7:0.03871 8:0.019355 9:0.025806 10:0.070968 11:0.019355 12:0.006452 13:0.058065 14:0.025806 15:0.051613 16:0.096774 17:0.070968 18:0.045161 19:0 20:0.03871 
512 0 0 0 0 0 512 0 0 0 0 1:0.081933 2:0.010504 3:0.056723 4:0.071429 5:0.027311 6:0.081933 7:0.018908 8:0.065126 9:0.060924 10:0.079832 11:0.029412 12:0.021008 13:0.046218 14:0.02521 15:0.052521 16:0.071429 17:0.079832 18:0.090336 19:0.002101 20:0.027311 
512 0 0 0 0 0 512 512 0 0 0 1:0.067797 2:0.00452 3:0.056497 4:0.108475 5:0.029379 6:0.068927 7:0.021469 8:0.079096 9:0.076836 10:0.110734 11:0.021469 12:0.030508 13:0.038418 14:0.030508 15:0.071186 16:0.038418 17:0.055367 18:0.066667 19:0.00339 20:0.020339 
512 0 0 0 0 0 512 512 0 0 0 1:0.08642 2:0.006173 3:0.04321 4:0.07716 5:0.033951 6:0.092593 7:0.018519 8:0.095679 9:0.074074 10:0.101852 11:0.027778 12:0.040123 13:0.046296 14:0.033951 15:0.058642 16:0.046296 17:0.04321 18:0.04321 19:0.009259 20:0.021605 
512 0 0 512 0 0 512 512 0 0 0 1:0.117216 2:0.014652 3:0.058608 4:0.065934 5:0.047619 6:0.113553 7:0.018315 8:0.032967 9:0.051282 10:0.098901 11:0.018315 12:0.047619 13:0.069597 14:0.040293 15:0.025641 16:0.043956 17:0.051282 18:0.043956 19:0.010989 20:0.029304 
512 0 512 0 0 0 0 0 0 0 0 1:0.07234 2:0.004255 3:0.085106 4:0.080851 5:0.029787 6:0.089362 7:0.012766 8:0.055319 9:0.06383 10:0.093617 11:0.034043 12:0.021277 13:0.042553 14:0.029787 15:0.034043 16:0.042553 17:0.07234 18:0.119149 19:0.004255 20:0.012766 
512 0 0 0 0 0 0 512 0 512 347.0234765075319 1:0.065217 2:0.003623 3:0.061594 4:0.086957 5:0.057971 6:0.068841 7:0.003623 8:0.039855 9:0.025362 10:0.083333 11:0.014493 12:0.039855 13:0.054348 14:0.043478 15:0.072464 16:0.094203 17:0.076087 18:0.072464 19:0.003623 20:0.032609 
512 0 0 0 0 0 512 512 0 0 0 1:0.065 2:0.01 3:0.09 4:0.07 5:0.015 6:0.045 7:0.005 8:0.045 9:0.08 10:0.1 11:0.04 12:0.04 13:0.035 14:0.025 15:0.085 16:0.065 17:0.045 18:0.105 19:0.015 20:0.02 
512 0 512 512 11.11478714304421 0 0 0 0 0 0 1:0.094737 2:0.042105 3:0.126316 4:0.094737 5:0.021053 6:0.063158 7:0.010526 8:0.052632 9:0.021053 10:0.084211 11:0.010526 12:0.010526 13:0.031579 14:0.042105 15:0.010526 16:0.084211 17:0.094737 18:0.063158 19:0 20:0.042105 
512 0 0 0 0 0 512 0 0 512 0 1:0.064067 2:0.011142 3:0.047354 4:0.061281 5:0.036212 6:0.091922 7:0.027855 8:0.075209 9:0.038997 10:0.077994 11:0.030641 12:0.052925 13:0.05571 14:0.022284 15:0.061281 16:0.061281 17:0.061281 18:0.083565 19:0.013928 20:0.02507 
512 0 0 0 0 0 512 0 0 512 0 1:0.106572 2:0.017762 3:0.044405 4:0.053286 5:0.046181 6:0.076377 7:0.024867 8:0.065719 9:0.046181 10:0.081705 11:0.015986 12:0.030195 13:0.049734 14:0.023091 15:0.044405 16:0.108348 17:0.055062 18:0.087034 19:0.003552 20:0.019538 
512 0 0 512 0 0 512 0 127.0788040564431 0 0 1:0.111821 2:0.01278 3:0.054313 4:0.054313 5:0.047923 6:0.089457 7:0.022364 8:0.025559 9:0.060703 10:0.105431 11:0.025559 12:0.028754 13:0.038339 14:0.022364 15:0.051118 16:0.083067 17:0.054313 18:0.076677 19:0.01278 20:0.022364 
512 0 0 512 0 0 512 86.11453140480569 0 512 0 1:0.073077 2:0.023077 3:0.026923 4:0.065385 5:0.057692 6:0.107692 7:0.023077 8:0.061538 9:0.069231 10:0.046154 11:0.030769 12:0.034615 13:0.026923 14:0.042308 15:0.042308 16:0.088462 17:0.069231 18:0.080769 19:0.003846 20:0.026923 
0 0 0 512 253.8675389625773 0 0 512 468.7009508534254 512 512 1:0.064516 2:0.007168 3:0.060932 4:0.082437 5:0.071685 6:0.082437 7:0.003584 8:0.017921 9:0.028674 10:0.089606 11:0.010753 12:0.046595 13:0.050179 14:0.028674 15:0.075269 16:0.143369 17:0.035842 18:0.078853 19:0.003584 20:0.017921 
512 0 0 0 0 0 0 0 377.3255956534714 0 0 1:0.085575 2:0.002445 3:0.07335 4:0.08313 5:0.03912 6:0.095355 7:0.02445 8:0.08313 9:0.03912 10:0.05379 11:0.031785 12:0.02445 13:0.04401 14:0.026895 15:0.051345 16:0.026895 17:0.095355 18:0.09291 19:0.002445 20:0.02445 
512 0 0 512 0 0 0 0 0 0 0 1:0.076433 2:0.012739 3:0.031847 4:0.05414 5:0.050955 6:0.085987 7:0.006369 8:0.085987 9:0.079618 10:0.082803 11:0.003185 12:0.066879 13:0.05414 14:0.06051 15:0.015924 16:0.063694 17:0.057325 18:0.082803 19:0 20:0.028662 
512 0 0 0 0 0 512 0 0 512 0 1:0.063452 2:0.007614 3:0.045685 4:0.063452 5:0.045685 6:0.06599 7:0.015228 8:0.058376 9:0.053299 10:0.093909 11:0.015228 12:0.027919 13:0.055838 14:0.040609 15:0.060914 16:0.098985 17:0.053299 18:0.098985 19:0.010152 20:0.025381 
512 512 0 512 0 0 512 512 512 512 0 1:0.055794 2:0.025751 3:0.030043 4:0.064378 5:0.038627 6:0.072961 7:0.04721 8:0.060086 9:0.077253 10:0.090129 11:0.025751 12:0.025751 13:0.064378 14:0.04721 15:0.04721 16:0.094421 17:0.042918 18:0.051502 19:0.017167 20:0.021459 
512 0 0 512 0 0 512 0 0 512 0 1:0.080402 2:0.01005 3:0.035176 4:0.055276 5:0.060302 6:0.090452 7:0.005025 8:0.045226 9:0.035176 10:0.085427 11:0.035176 12:0.060302 13:0.045226 14:0.050251 15:0.065327 16:0.060302 17:0.075377 18:0.070352 19:0.015075 20:0.020101 
0 0 0 0 0 0 512 0 0 0 0 1:0.158915 2:0.011628 3:0.050388 4:0.050388 5:0.050388 6:0.081395 7:0.007752 8:0.027132 9:0.077519 10:0.062016 11:0.007752 12:0.034884 13:0.034884 14:0.03876 15:0.03876 16:0.085271 17:0.065891 18:0.077519 19:0.007752 20:0.031008 
512 0 0 0 0 0 512 0 0 0 512 1:0.096154 2:0.016827 3:0.069712 4:0.033654 5:0.038462 6:0.088942 7:0.014423 8:0.043269 9:0.060096 10:0.057692 11:0.036058 12:0.050481 13:0.028846 14:0.019231 15:0.043269 16:0.086538 17:0.069712 18:0.117788 19:0.012019 20:0.016827 
512 0 0 512 420.1104385012423 0 512 512 25.97317827693672 512 0 1:0.069767 2:0.003322 3:0.056478 4:0.086379 5:0.0299 6:0.053156 7:0.016611 8:0.066445 9:0.063123 10:0.116279 11:0.036545 12:0.053156 13:0.026578 14:0.046512 15:0.066445 16:0.043189 17:0.063123 18:0.059801 19:0 20:0.043189 
512 0 512 512 512 512 512 512 512 512 512 1:0.057471 2:0.011494 3:0.043678 4:0.034483 5:0.055172 6:0.05977 7:0.064368 8:0.034483 9:0.050575 10:0.108046 11:0.025287 12:0.045977 13:0.087356 14:0.02069 15:0.03908 16:0.068966 17:0.052874 18:0.052874 19:0.036782 20:0.050575 
512 0 0 512 0 0 512 512 406.0932808765179 0 0 1:0.089744 2:0.010256 3:0.069231 4:0.064103 5:0.035897 6:0.053846 7:0.023077 8:0.035897 9:0.061538 10:0.087179 11:0.035897 12:0.030769 13:0.051282 14:0.04359 15:0.066667 16:0.048718 17:0.069231 18:0.061538 19:0.017949 20:0.04359 
0 0 73.05432797863058 0 172.003307011078 0 0 0 501.8155555742163 0 0 1:0.461538 2:0 3:0.076923 4:0.153846 5:0 6:0 7:0 8:0 9:0 10:0 11:0 12:0 13:0.076923 14:0 15:0 16:0.153846 17:0.076923 18:0 19:0 20:0 
512 0 0 512 0 512 512 512 0 512 0 1:0.073034 2:0.022472 3:0.039326 4:0.050562 5:0.050562 6:0.078652 7:0.011236 8:0.050562 9:0.061798 10:0.078652 11:0.039326 12:0.039326 13:0.061798 14:0.039326 15:0.050562 16:0.067416 17:0.05618 18:0.061798 19:0.022472 20:0.044944 
512 0 0 512 0 0 69.23062301438378 512 0 512 0 1:0.069652 2:0.014925 3:0.049751 4:0.069652 5:0.0199 6:0.084577 7:0.00995 8:0.064677 9:0.029851 10:0.084577 11:0.034826 12:0.034826 13:0.039801 14:0.059701 15:0.079602 16:0.079602 17:0.039801 18:0.079602 19:0.00995 20:0.044776 
512 0 0 512 0 0 512 512 0 0 0 1:0.097264 2:0.012158 3:0.045593 4:0.069909 5:0.048632 6:0.094225 7:0.006079 8:0.030395 9:0.091185 10:0.085106 11:0.009119 12:0.027356 13:0.048632 14:0.042553 15:0.021277 16:0.097264 17:0.079027 18:0.066869 19:0.00304 20:0.024316 
512 0 0 512 0 0 512 512 3.916831282865065 512 0 1:0.067901 2:0.012346 3:0.052469 4:0.058642 5:0.037037 6:0.070988 7:0.024691 8:0.074074 9:0.089506 10:0.12037 11:0.024691 12:0.033951 13:0.037037 14:0.021605 15:0.058642 16:0.064815 17:0.052469 18:0.049383 19:0.006173 20:0.04321 
0 0 0 512 0 0 512 512 0 512 0 1:0.096774 2:0.021505 3:0.026882 4:0.05914 5:0.048387 6:0.064516 7:0.010753 8:0.021505 9:0.05914 10:0.075269 11:0.032258 12:0.037634 13:0.075269 14:0.037634 15:0.032258 16:0.096774 17:0.053763 18:0.080645 19:0.021505 20:0.048387 
512 0 0 512 0 0 512 512 0 512 0 1:0.078431 2:0.02521 3:0.042017 4:0.072829 5:0.02521 6:0.072829 7:0.028011 8:0.067227 9:0.053221 10:0.103641 11:0.019608 12:0.053221 13:0.044818 14:0.016807 15:0.070028 16:0.061625 17:0.047619 18:0.072829 19:0.011204 20:0.033613 
512 512 0 512 512 0 512 512 512 0 0 1:0.102857 2:0 3:0.017143 4:0.085714 5:0.045714 6:0.028571 7:0.011429 8:0.045714 9:0.074286 10:0.154286 11:0.005714 12:0.074286 13:0 14:0.12 15:0.057143 16:0.045714 17:0.068571 18:0.057143 19:0 20:0.005714 
512 0 0 512 0 512 512 0 512 512 0 1:0.068396 2:0.023585 3:0.040094 4:0.042453 5:0.051887 6:0.042453 7:0.042453 8:0.073113 9:0.061321 10:0.087264 11:0.028302 12:0.033019 13:0.063679 14:0.025943 15:0.056604 16:0.058962 17:0.04717 18:0.063679 19:0.04717 20:0.042453 
512 0 0 512 512 0 0 512 0 512 0 1:0.051282 2:0.00641 3:0.032051 4:0.102564 5:0.012821 6:0.019231 7:0.00641 8:0.128205 9:0.057692 10:0.179487 11:0.012821 12:0.089744 13:0.019231 14:0.057692 15:0.019231 16:0.076923 17:0.051282 18:0.051282 19:0 20:0.025641 
512 0 0 336.6922083489716 0 0 512 512 0 512 0 1:0.069486 2:0.009063 3:0.060423 4:0.066465 5:0.030211 6:0.072508 7:0.02719 8:0.081571 9:0.05136 10:0.111782 11:0.02719 12:0.045317 13:0.048338 14:0.030211 15:0.039275 16:0.060423 17:0.057402 18:0.07855 19:0 20:0.033233 
512 0 0 512 0 0 512 512 0 0 0 1:0.107769 2:0.010025 3:0.045113 4:0.055138 5:0.042607 6:0.082707 7:0.017544 8:0.037594 9:0.075188 10:0.107769 11:0.02005 12:0.0401 13:0.037594 14:0.02005 15:0.045113 16:0.105263 17:0.06015 18:0.055138 19:0.010025 20:0.025063 
512 0 512 512 0 0 215.2621425598308 0 0.3288926174533573 0 512 1:0.136364 2:0.027273 3:0.072727 4:0.045455 5:0.063636 6:0.081818 7:0.009091 8:0.045455 9:0.072727 10:0.063636 11:0.036364 12:0.081818 13:0.018182 14:0.027273 15:0.009091 16:0.054545 17:0.054545 18:0.072727 19:0.009091 20:0.018182 
512 0 0 0 0 0 512 0 160.6608137835132 0 0 1:0.07561 2:0.002439 3:0.046341 4:0.082927 5:0.02439 6:0.082927 7:0.031707 8:0.095122 9:0.068293 10:0.065854 11:0.036585 12:0.02439 13:0.039024 14:0.041463 15:0.04878 16:0.021951 17:0.090244 18:0.087805 19:0.002439 20:0.031707 
512 0 0 0 0 0 512 512 0 0 0 1:0.088916 2:0.001218 3:0.045067 4:0.112058 5:0.028015 6:0.076736 7:0.013398 8:0.0743 9:0.059683 10:0.108404 11:0.020706 12:0.035323 13:0.034105 14:0.034105 15:0.071864 16:0.047503 17:0.049939 18:0.075518 19:0.001218 20:0.021924 
512 137.4615322694129 0 512 64.06141841750241 0 512 512 0 0 0 1:0.122699 2:0 3:0.042945 4:0.09816 5:0.02454 6:0.01227 7:0 8:0.079755 9:0.07362 10:0.147239 11:0.018405 12:0.055215 13:0.01227 14:0.09816 15:0.02454 16:0.055215 17:0.04908 18:0.055215 19:0 20:0.030675 
512 0 56.26131253619489 0 0 0 0 0 0 0 494.3328642602624 1:0.114943 2:0.022989 3:0.057471 4:0.08046 5:0.011494 6:0.137931 7:0.011494 8:0.045977 9:0.045977 10:0.034483 11:0.011494 12:0.057471 13:0.022989 14:0.022989 15:0.011494 16:0.057471 17:0.057471 18:0.114943 19:0.022989 20:0.057471 
512 0 0 512 0 0 0 0 0 0 0 1:0.141892 2:0.033784 3:0.067568 4:0.067568 5:0.02027 6:0.081081 7:0.006757 8:0.027027 9:0.047297 10:0.074324 11:0.027027 12:0.013514 13:0.054054 14:0.02027 15:0.027027 16:0.081081 17:0.108108 18:0.067568 19:0.006757 20:0.027027 
512 0 0 0 0 0 512 512 0 0 0 1:0.09596 2:0.010101 3:0.05303 4:0.083333 5:0.040404 6:0.055556 7:0.025253 8:0.070707 9:0.05303 10:0.093434 11:0.020202 12:0.04798 13:0.063131 14:0.032828 15:0.04798 16:0.083333 17:0.032828 18:0.055556 19:0.007576 20:0.027778 
0 0 0 0 0 0 512 0 0 0 0 1:0.113402 2:0 3:0.020619 4:0.061856 5:0.020619 6:0.051546 7:0 8:0.020619 9:0.082474 10:0.051546 11:0.010309 12:0.061856 13:0.051546 14:0.061856 15:0.082474 16:0.061856 17:0.020619 18:0.175258 19:0.010309 20:0.041237 
0 0 0 0 0 0 0 0 511.9166368122961 512 0 1:0.194444 2:0 3:0.027778 4:0 5:0.027778 6:0.027778 7:0 8:0.111111 9:0 10:0.194444 11:0.027778 12:0.027778 13:0.027778 14:0.083333 15:0.083333 16:0.083333 17:0 18:0.055556 19:0.027778 20:0 
512 0 0 512 0 0 0 0 0 0 0 1:0.105691 2:0.01626 3:0.036585 4:0.056911 5:0.04878 6:0.097561 7:0.01626 8:0.056911 9:0.056911 10:0.093496 11:0.03252 12:0.036585 13:0.085366 14:0.028455 15:0.02439 16:0.069106 17:0.03252 18:0.052846 19:0.02439 20:0.028455 
512 0 0 512 0 0 0 0 0 512 0 1:0.064748 2:0.021583 3:0.057554 4:0.071942 5:0.043165 6:0.064748 7:0.007194 8:0.057554 9:0.035971 10:0.057554 11:0.028777 12:0.043165 13:0.064748 14:0.05036 15:0.057554 16:0.079137 17:0.028777 18:0.079137 19:0.028777 20:0.057554 
0 0 0 0 0 0 0 0 0 512 0 1:0.08776 2:0.006928 3:0.053118 4:0.039261 5:0.036952 6:0.092379 7:0.009238 8:0.073903 9:0.046189 10:0.092379 11:0.020785 12:0.036952 13:0.034642 14:0.055427 15:0.046189 16:0.12933 17:0.060046 18:0.066975 19:0 20:0.011547 
512 0 0 512 0 512 512 0 512 512 0 1:0.066265 2:0.009036 3:0.057229 4:0.048193 5:0.042169 6:0.096386 7:0.033133 8:0.072289 9:0.039157 10:0.090361 11:0.03012 12:0.057229 13:0.057229 14:0.027108 15:0.045181 16:0.045181 17:0.054217 18:0.093373 19:0.012048 20:0.024096 
512 0 0 512 0 0 512 512 0 0 0 1:0.063616 2:0.011161 3:0.05692 4:0.083705 5:0.03683 6:0.061384 7:0.021205 8:0.060268 9:0.058036 10:0.098214 11:0.008929 12:0.039063 13:0.06808 14:0.039063 15:0.055804 16:0.055804 17:0.061384 18:0.055804 19:0.022321 20:0.042411 
512 0 0 512 0 0 512 512 0 512 0 1:0.073555 2:0.017513 3:0.052539 4:0.061296 5:0.045534 6:0.063047 7:0.021016 8:0.056042 9:0.064799 10:0.098074 11:0.02627 12:0.038529 13:0.064799 14:0.038529 15:0.054291 16:0.075306 17:0.038529 18:0.063047 19:0.015762 20:0.031524 
512 0 512 512 0 0 512 512 0 0 0 1:0.079258 2:0.011804 3:0.077572 4:0.042159 5:0.048904 6:0.060708 7:0.021922 8:0.040472 9:0.084317 10:0.080944 11:0.016863 12:0.047218 13:0.086003 14:0.026981 15:0.038786 16:0.06914 17:0.048904 18:0.072513 19:0.013491 20:0.03204 
512 0 0 512 0 0 512 0 0 512 0 1:0.074169 2:0.01023 3:0.046036 4:0.053708 5:0.056266 6:0.074169 7:0.012788 8:0.058824 9:0.066496 10:0.102302 11:0.017903 12:0.043478 13:0.066496 14:0.028133 15:0.048593 16:0.076726 17:0.040921 18:0.084399 19:0.01023 20:0.028133 
512 0 0 0 0 0 512 512 0 0 0 1:0.090426 2:0.008865 3:0.049645 4:0.070922 5:0.028369 6:0.092199 7:0.003546 8:0.046099 9:0.085106 10:0.086879 11:0.046099 12:0.02305 13:0.039007 14:0.042553 15:0.065603 16:0.067376 17:0.046099 18:0.093972 19:0.005319 20:0.008865 
512 0 0 512 0 0 512 512 0 512 0 1:0.078947 2:0.010526 3:0.044737 4:0.055263 5:0.023684 6:0.089474 7:0.031579 8:0.068421 9:0.042105 10:0.084211 11:0.031579 12:0.044737 13:0.063158 14:0.018421 15:0.055263 16:0.076316 17:0.065789 18:0.076316 19:0.010526 20:0.028947 
0 0 0 0 0 0 512 512 0 0 0 1:0.148148 2:0 3:0.047619 4:0.079365 5:0.026455 6:0.042328 7:0.010582 8:0.042328 9:0.074074 10:0.10582 11:0.010582 12:0.021164 13:0.079365 14:0.031746 15:0.037037 16:0.084656 17:0.084656 18:0.068783 19:0.005291 20:0 
512 0 0 512 0 512 512 512 0 508.7170519037488 0 1:0.087719 2:0.030702 3:0.052632 4:0.026316 5:0.026316 6:0.100877 7:0.02193 8:0.026316 9:0.057018 10:0.109649 11:0.030702 12:0.048246 13:0.078947 14:0.02193 15:0.030702 16:0.074561 17:0.065789 18:0.074561 19:0.017544 20:0.017544 
512 0 0 512 0 0 512 512 0 512 0 1:0.059273 2:0.015296 3:0.057361 4:0.072658 5:0.053537 6:0.091778 7:0.01912 8:0.049713 9:0.063098 10:0.09369 11:0.038241 12:0.034417 13:0.049713 14:0.028681 15:0.059273 16:0.055449 17:0.045889 18:0.061185 19:0.017208 20:0.034417 
512 0 0 512 0 0 512 0 23.65756470157459 512 19.13894430288798 1:0.126482 2:0.003953 3:0.059289 4:0.051383 5:0.063241 6:0.106719 7:0.011858 8:0.043478 9:0.035573 10:0.114625 11:0.01581 12:0.031621 13:0.059289 14:0.043478 15:0.043478 16:0.035573 17:0.059289 18:0.051383 19:0.011858 20:0.031621 
512 0 512 512 283.4825834128465 0 512 512 512 512 512 1:0.075099 2:0.011858 3:0.035573 4:0.102767 5:0.063241 6:0.063241 7:0.043478 8:0.027668 9:0.071146 10:0.090909 11:0.01581 12:0.043478 13:0.031621 14:0.027668 15:0.047431 16:0.086957 17:0.023715 18:0.094862 19:0.007905 20:0.035573 
512 0 0 0 0 0 512 0 110.2670433650622 0 0 1:0.170854 2:0 3:0.080402 4:0.070352 5:0.035176 6:0.040201 7:0 8:0.025126 9:0.080402 10:0.120603 11:0.005025 12:0.01005 13:0.020101 14:0.035176 15:0.100503 16:0.060302 17:0.045226 18:0.085427 19:0.005025 20:0.01005 
512 0 0 512 0 0 512 512 0 512 0 1:0.066116 2:0.014463 3:0.053719 4:0.066116 5:0.039256 6:0.068182 7:0.020661 8:0.047521 9:0.061983 10:0.119835 11:0.024793 12:0.028926 13:0.047521 14:0.028926 15:0.047521 16:0.097107 17:0.051653 18:0.076446 19:0.008264 20:0.030992 
512 0 0 0 0 0 512 512 0 0 0 1:0.069444 2:0.009259 3:0.071759 4:0.053241 5:0.046296 6:0.092593 7:0.006944 8:0.05787 9:0.071759 10:0.064815 11:0.039352 12:0.055556 13:0.046296 14:0.041667 15:0.046296 16:0.0625 17:0.053241 18:0.064815 19:0.009259 20:0.037037 
0 0 0 512 0 0 0 0 0 512 0 1:0.094972 2:0.03352 3:0.022346 4:0.055866 5:0.050279 6:0.061453 7:0 8:0.03352 9:0.067039 10:0.078212 11:0.03352 12:0.027933 13:0.061453 14:0.039106 15:0.03352 16:0.089385 17:0.055866 18:0.106145 19:0.022346 20:0.03352 
512 0 0 0 0 0 0 0 0 0 0 1:0.098851 2:0.013793 3:0.052874 4:0.089655 5:0.016092 6:0.087356 7:0.002299 8:0.062069 9:0.066667 10:0.08046 11:0.034483 12:0.034483 13:0.027586 14:0.036782 15:0.052874 16:0.045977 17:0.071264 18:0.105747 19:0 20:0.02069 
512 0 0 0 0 0 512 0 0 512 0 1:0.096774 2:0.016129 3:0.077419 4:0.058065 5:0.035484 6:0.051613 7:0.003226 8:0.051613 9:0.048387 10:0.106452 11:0.029032 12:0.035484 13:0.054839 14:0.022581 15:0.080645 16:0.054839 17:0.051613 18:0.058065 19:0.019355 20:0.048387 
512 0 0 0 0 0 0 0 0 0 0 1:0.110577 2:0.009615 3:0.057692 4:0.064103 5:0.028846 6:0.078526 7:0.012821 8:0.052885 9:0.05609 10:0.086538 11:0.019231 12:0.035256 13:0.040064 14:0.027244 15:0.054487 16:0.080128 17:0.051282 18:0.115385 19:0.003205 20:0.016026 
512 0 0 512 0 0 512 512 0 0 0 1:0.093407 2:0.016484 3:0.049451 4:0.074176 5:0.032967 6:0.041209 7:0.005495 8:0.06044 9:0.068681 10:0.107143 11:0.024725 12:0.054945 13:0.046703 14:0.035714 15:0.049451 16:0.06044 17:0.085165 18:0.074176 19:0 20:0.019231 
512 0 0 0 0 0 512 512 0 0 0 1:0.078221 2:0.01227 3:0.065951 4:0.087423 5:0.033742 6:0.088957 7:0.01227 8:0.069018 9:0.082822 10:0.067485 11:0.026074 12:0.050613 13:0.03681 14:0.035276 15:0.047546 16:0.053681 17:0.058282 18:0.067485 19:0.003067 20:0.023006 
512 0 0 0 512 0 0 0 512 512 0 1:0.060185 2:0.013889 3:0.064815 4:0.083333 5:0.050926 6:0.064815 7:0.023148 8:0.074074 9:0.027778 10:0.078704 11:0.055556 12:0.018519 13:0.064815 14:0.013889 15:0.055556 16:0.046296 17:0.064815 18:0.074074 19:0.023148 20:0.041667 
0 0 0 512 0 0 0 0 0 0 0 1:0.109589 2:0.034247 3:0.075342 4:0.061644 5:0.020548 6:0.068493 7:0.006849 8:0.027397 9:0.041096 10:0.089041 11:0.027397 12:0.006849 13:0.041096 14:0.047945 15:0.020548 16:0.116438 17:0.089041 18:0.082192 19:0.006849 20:0.027397 
512 0 0 0 306.9646911638379 0 512 445.7076566562938 512 512 512 1:0 2:0.010417 3:0.0625 4:0.041667 5:0.104167 6:0.052083 7:0.020833 8:0.125 9:0.083333 10:0.114583 11:0.010417 12:0.0625 13:0.041667 14:0.020833 15:0.083333 16:0.0625 17:0.020833 18:0.052083 19:0 20:0.03125 
0 0 0 512 0 0 0 0 0 512 0 1:0.102121 2:0.025923 3:0.043205 4:0.042419 5:0.054203 6:0.05106 7:0.000786 8:0.040848 9:0.053417 10:0.052632 11:0.041634 12:0.046347 13:0.056559 14:0.047918 15:0.049489 16:0.103692 17:0.040848 18:0.081697 19:0.026709 20:0.038492 
512 0 0 512 111.956283677342 0 512 512 0.2089609614834676 512 0 1:0.078775 2:0.017505 3:0.041575 4:0.056893 5:0.039387 6:0.043764 7:0.035011 8:0.07221 9:0.067834 10:0.076586 11:0.037199 12:0.04814 13:0.063457 14:0.02407 15:0.043764 16:0.113786 17:0.045952 18:0.056893 19:0.006565 20:0.030635 
512 0 0 512 0 0 506.3347996785592 381.4841294675258 0 512 0 1:0.065934 2:0.005495 3:0.038462 4:0.076923 5:0.038462 6:0.032967 7:0.005495 8:0.120879 9:0.076923 10:0.126374 11:0.016484 12:0.06044 13:0 14:0.104396 15:0.032967 16:0.082418 17:0.038462 18:0.071429 19:0 20:0.005495 
512 0 0 512 0 0 512 0 0 512 0 1:0.072874 2:0.018219 3:0.036437 4:0.087045 5:0.034413 6:0.064777 7:0.022267 8:0.05668 9:0.050607 10:0.123482 11:0.016194 12:0.018219 13:0.05668 14:0.034413 15:0.050607 16:0.082996 17:0.048583 18:0.072874 19:0.020243 20:0.032389 
512 0 0 512 0 0 512 512 130.7265201049225 512 512 1:0.07971 2:0.014493 3:0.057971 4:0.057971 5:0.050725 6:0.050725 7:0.014493 8:0.028986 9:0.057971 10:0.072464 11:0.028986 12:0.057971 13:0.065217 14:0.043478 15:0.057971 16:0.065217 17:0.050725 18:0.057971 19:0.021739 20:0.065217 
0 0 0 0 0 0 512 0 0 0 0 1:0.222973 2:0.02027 3:0.040541 4:0.054054 5:0.02027 6:0.067568 7:0.006757 8:0.027027 9:0.054054 10:0.081081 11:0.027027 12:0.033784 13:0.02027 14:0.047297 15:0.047297 16:0.081081 17:0.040541 18:0.067568 19:0.013514 20:0.027027 
512 0 112.0636560130061 0 0 0 512 512 512 512 0 1:0.097035 2:0.016173 3:0.06469 4:0.06469 5:0.02965 6:0.061995 7:0.037736 8:0.056604 9:0.059299 10:0.115903 11:0.021563 12:0.024259 13:0.03504 14:0.013477 15:0.053908 16:0.102426 17:0.043127 18:0.086253 19:0.002695 20:0.013477 
0 0 0 0 0 0 512 512 0 0 0 1:0.094972 2:0 3:0.039106 4:0.055866 5:0.03352 6:0.055866 7:0 8:0.078212 9:0.122905 10:0.156425 11:0.01676 12:0.055866 13:0.011173 14:0.044693 15:0.03352 16:0.089385 17:0.039106 18:0.061453 19:0 20:0.011173 
512 0 512 512 0 0 512 512 0 0 0 1:0.064885 2:0.007634 3:0.051527 4:0.074427 5:0.034351 6:0.05916 7:0.019084 8:0.057252 9:0.072519 10:0.110687 11:0.024809 12:0.070611 13:0.024809 14:0.055344 15:0.045802 16:0.085878 17:0.051527 18:0.03626 19:0.01145 20:0.041985 
512 0 0 512 0 0 512 512 0 0 0 1:0.102804 2:0.021807 3:0.031153 4:0.074766 5:0.046729 6:0.074766 7:0.021807 8:0.05296 9:0.071651 10:0.087227 11:0.018692 12:0.037383 13:0.062305 14:0.024922 15:0.028037 16:0.096573 17:0.037383 18:0.077882 19:0.006231 20:0.024922 
0 0 0 512 0 0 0 0 0 0 0 1:0.169312 2:0.005291 3:0.015873 4:0.021164 5:0.010582 6:0.058201 7:0 8:0.063492 9:0.042328 10:0.137566 11:0.026455 12:0.058201 13:0.089947 14:0.05291 15:0.021164 16:0.095238 17:0.042328 18:0.058201 19:0.010582 20:0.021164 
512 0 0 0 0 0 512 512 0 0 0 1:0.092105 2:0.018421 3:0.044737 4:0.068421 5:0.034211 6:0.118421 7:0.026316 8:0.05 9:0.052632 10:0.063158 11:0.034211 12:0.031579 13:0.060526 14:0.018421 15:0.057895 16:0.05 17:0.063158 18:0.065789 19:0.018421 20:0.031579 
512 0 0 512 0 0 512 512 0 0 0 1:0.09322 2:0.010593 3:0.067797 4:0.044492 5:0.042373 6:0.084746 7:0.012712 8:0.044492 9:0.065678 10:0.074153 11:0.036017 12:0.061441 13:0.050847 14:0.044492 15:0.044492 16:0.059322 17:0.055085 18:0.072034 19:0.008475 20:0.027542 
512 0 0 0 0 0 0 512 0 0 0 1:0.123832 2:0.018692 3:0.063084 4:0.053738 5:0.037383 6:0.074766 7:0.011682 8:0.044393 9:0.03972 10:0.07243 11:0.03271 12:0.03271 13:0.077103 14:0.028037 15:0.070093 16:0.07243 17:0.037383 18:0.074766 19:0.002336 20:0.03271 
512 0 0 512 75.47339162606694 0 512 512 150.112525758585 512 0 1:0.044419 2:0.004556 3:0.052392 4:0.074032 5:0.028474 6:0.037585 7:0.009112 8:0.126424 9:0.085421 10:0.111617 11:0.018223 12:0.092255 13:0.013667 14:0.061503 15:0.042141 16:0.053531 17:0.056948 18:0.029613 19:0.005695 20:0.052392 
512 0 0 0 0 0 512 512 0 0 0 1:0.080882 2:0.009804 3:0.068627 4:0.044118 5:0.031863 6:0.095588 7:0.007353 8:0.061275 9:0.051471 10:0.068627 11:0.039216 12:0.04902 13:0.036765 14:0.058824 15:0.071078 16:0.061275 17:0.044118 18:0.078431 19:0.009804 20:0.031863 
0 0 0 0 0 0 228.3334026774776 0 0 0 0 1:0.123909 2:0.015707 3:0.04712 4:0.061082 5:0.024433 6:0.094241 7:0.012216 8:0.059337 9:0.059337 10:0.097731 11:0.019197 12:0.04363 13:0.038394 14:0.017452 15:0.04014 16:0.097731 17:0.057592 18:0.062827 19:0.012216 20:0.015707 
512 0 0 512 512 512 512 512 512 512 0 1:0.079602 2:0.014925 3:0.034826 4:0.039801 5:0.029851 6:0.084577 7:0.029851 8:0.029851 9:0.029851 10:0.104478 11:0.029851 12:0.024876 13:0.039801 14:0.079602 15:0.044776 16:0.114428 17:0.054726 18:0.109453 19:0.00995 20:0.014925 
512 0 0 0 0 0 0 0 494.1557774386799 0 1.639325353496741 1:0.12069 2:0.008621 3:0.043103 4:0.060345 5:0.060345 6:0.112069 7:0.017241 8:0.043103 9:0.043103 10:0.103448 11:0.025862 12:0.051724 13:0.068966 14:0.025862 15:0.017241 16:0.043103 17:0.017241 18:0.094828 19:0.017241 20:0.025862 
512 0 0 512 0 0 512 512 0 0 0 1:0.087571 2:0.025424 3:0.048023 4:0.070621 5:0.033898 6:0.087571 7:0.014124 8:0.045198 9:0.079096 10:0.067797 11:0.031073 12:0.036723 13:0.056497 14:0.022599 15:0.062147 16:0.053672 17:0.064972 18:0.059322 19:0.014124 20:0.039548 
512 0 0 512 0 0 512 512 0 0 0 1:0.091837 2:0.05102 3:0.112245 4:0.081633 5:0.020408 6:0.061224 7:0.020408 8:0.05102 9:0.040816 10:0.102041 11:0 12:0.020408 13:0.030612 14:0.071429 15:0.010204 16:0.071429 17:0.061224 18:0.05102 19:0 20:0.05102 
512 0 0 512 0 0 512 512 158.7385032033718 512 0 1:0.034722 2:0.006944 3:0.061111 4:0.056944 5:0.041667 6:0.038889 7:0.0125 8:0.122222 9:0.086111 10:0.105556 11:0.011111 12:0.090278 13:0.018056 14:0.043056 15:0.043056 16:0.090278 17:0.051389 18:0.044444 19:0.009722 20:0.031944 
512 512 512 512 0 0 512 512 512 0 0 1:0.122807 2:0.010526 3:0.038596 4:0.091228 5:0.042105 6:0.05614 7:0.045614 8:0.038596 9:0.05614 10:0.091228 11:0.017544 12:0.035088 13:0.066667 14:0.042105 15:0.052632 16:0.063158 17:0.031579 18:0.070175 19:0.003509 20:0.024561 
512 0 0 0 0 0 512 512 0 0 0 1:0.075377 2:0.01005 3:0.055276 4:0.100503 5:0.030151 6:0.045226 7:0.005025 8:0.115578 9:0.115578 10:0.070352 11:0.035176 12:0.055276 13:0.015075 14:0.025126 15:0.060302 16:0.050251 17:0.040201 18:0.060302 19:0 20:0.035176 
512 0 0 512 0 0 512 512 0 0 512 1:0.119231 2:0.011538 3:0.05 4:0.05 5:0.042308 6:0.080769 7:0.011538 8:0.023077 9:0.069231 10:0.065385 11:0.007692 12:0.053846 13:0.034615 14:0.046154 15:0.030769 16:0.1 17:0.069231 18:0.076923 19:0.007692 20:0.05 
512 0 0 512 0 512 512 512 0 512 0 1:0.070039 2:0.015564 3:0.048638 4:0.058366 5:0.044747 6:0.062257 7:0.015564 8:0.060311 9:0.048638 10:0.116732 11:0.023346 12:0.036965 13:0.046693 14:0.044747 15:0.048638 16:0.101167 17:0.044747 18:0.064202 19:0.009728 20:0.038911 
512 0 0 0 0 0 512 0 0 0 0 1:0.118227 2:0.007389 3:0.051724 4:0.068966 5:0.027094 6:0.091133 7:0.012315 8:0.051724 9:0.061576 10:0.105911 11:0.022167 12:0.034483 13:0.051724 14:0.027094 15:0.051724 16:0.061576 17:0.046798 18:0.081281 19:0.004926 20:0.022167 
512 0 0 0 0 0 512 512 0 0 0 1:0.091005 2:0.008466 3:0.059259 4:0.078307 5:0.035979 6:0.074074 7:0.014815 8:0.070899 9:0.059259 10:0.099471 11:0.022222 12:0.022222 13:0.042328 14:0.027513 15:0.066667 16:0.095238 17:0.049735 18:0.060317 19:0.004233 20:0.017989 
512 0 0 512 0 0 512 512 0 512 0 1:0.059955 2:0.011312 3:0.059955 4:0.075792 5:0.033937 6:0.048643 7:0.016968 8:0.087104 9:0.072398 10:0.111991 11:0.014706 12:0.053167 13:0.020362 14:0.053167 15:0.050905 16:0.067873 17:0.047511 18:0.057692 19:0.007919 20:0.048643 
512 0 512 512 0 484.2788060293508 512 0 217.652926086247 0 0 1:0.076613 2:0.004032 3:0.052419 4:0.068548 5:0.056452 6:0.080645 7:0.020161 8:0.03629 9:0.076613 10:0.100806 11:0.016129 12:0.060484 13:0.064516 14:0.032258 15:0.024194 16:0.060484 17:0.028226 18:0.072581 19:0.032258 20:0.03629 
512 0 0 512 0 0 512 0 0 512 0 1:0.073034 2:0.022472 3:0.02809 4:0.061798 5:0.050562 6:0.05618 7:0.005618 8:0.050562 9:0.067416 10:0.078652 11:0.016854 12:0.044944 13:0.067416 14:0.039326 15:0.044944 16:0.067416 17:0.073034 18:0.08427 19:0.022472 20:0.044944 
512 0 0 512 0 0 512 512 0 84.80651303585719 0 1:0.089888 2:0.02809 3:0.02809 4:0.061798 5:0.050562 6:0.05618 7:0.005618 8:0.033708 9:0.073034 10:0.073034 11:0.033708 12:0.044944 13:0.067416 14:0.044944 15:0.050562 16:0.067416 17:0.050562 18:0.067416 19:0.02809 20:0.044944 
512 0 0 0 0 0 0 0 327.3136556569847 512 0 1:0.071823 2:0.016575 3:0.060773 4:0.060773 5:0.055249 6:0.071823 7:0.016575 8:0.104972 9:0.060773 10:0.066298 11:0.027624 12:0.055249 13:0.044199 14:0.016575 15:0.049724 16:0.082873 17:0.038674 18:0.044199 19:0.01105 20:0.044199 
512 0 0 512 0 287.6796963902145 512 512 0.4356638205106692 512 399.0513532938734 1:0.059783 2:0.005435 3:0.038043 4:0.076087 5:0.059783 6:0.065217 7:0.01087 8:0.070652 9:0.059783 10:0.11413 11:0.027174 12:0.103261 13:0.005435 14:0.065217 15:0.059783 16:0.048913 17:0.054348 18:0.054348 19:0.005435 20:0.016304 
512 0 0 0 0 0 512 512 356.2598446562429 0 0 1:0.033333 2:0 3:0.1 4:0.033333 5:0.033333 6:0.033333 7:0 8:0.133333 9:0.1 10:0.1 11:0 12:0.033333 13:0.033333 14:0.1 15:0.1 16:0.066667 17:0.033333 18:0.033333 19:0 20:0.033333 
512 0 0 0 0 0 0 0 0 0 0 1:0.093625 2:0.021912 3:0.051793 4:0.081673 5:0.041833 6:0.075697 7:0.013944 8:0.077689 9:0.071713 10:0.073705 11:0.015936 12:0.023904 13:0.059761 14:0.01992 15:0.037849 16:0.055777 17:0.059761 18:0.075697 19:0.027888 20:0.01992 
512 0 0 512 0 512 0 0 511.9332715531402 0 355.4104359029669 1:0 2:0 3:0.066667 4:0 5:0 6:0.266667 7:0 8:0 9:0 10:0.066667 11:0 12:0.066667 13:0.2 14:0 15:0 16:0 17:0 18:0.133333 19:0.133333 20:0.066667 
512 0 0 512 0 512 512 512 512 512 0 1:0.073826 2:0.013423 3:0.035794 4:0.040268 5:0.042506 6:0.044743 7:0.044743 8:0.082774 9:0.06264 10:0.080537 11:0.029083 12:0.042506 13:0.067114 14:0.033557 15:0.044743 16:0.071588 17:0.06264 18:0.053691 19:0.040268 20:0.033557 
512 0 0 512 0 512 512 512 512 512 0 1:0.026786 2:0.035714 3:0.071429 4:0.071429 5:0.040179 6:0.080357 7:0.035714 8:0.0625 9:0.0625 10:0.098214 11:0.008929 12:0.03125 13:0.044643 14:0.013393 15:0.080357 16:0.098214 17:0.040179 18:0.053571 19:0.013393 20:0.03125 
512 0 0 512 0 0 223.5046849036359 0 0 0 0 1:0.141509 2:0.014151 3:0.037736 4:0.056604 5:0.051887 6:0.089623 7:0.018868 8:0.070755 9:0.033019 10:0.080189 11:0.042453 12:0.051887 13:0.051887 14:0.056604 15:0.037736 16:0.066038 17:0.033019 18:0.042453 19:0.009434 20:0.014151 
512 0 0 512 75.69132743322409 0 512 512 0 512 0 1:0.086393 2:0.012959 3:0.041037 4:0.060475 5:0.047516 6:0.058315 7:0.034557 8:0.053996 9:0.038877 10:0.084233 11:0.028078 12:0.043197 13:0.079914 14:0.036717 15:0.045356 16:0.112311 17:0.041037 18:0.058315 19:0.008639 20:0.028078 
512 0 0 512 268.0103528643129 0 512 512 0 0 0 1:0.106918 2:0 3:0.069182 4:0.056604 5:0.025157 6:0.025157 7:0 8:0.08805 9:0.081761 10:0.150943 11:0.018868 12:0.081761 13:0.012579 14:0.106918 15:0.018868 16:0.069182 17:0.037736 18:0.018868 19:0 20:0.031447 
512 0 0 512 0 0 344.7194470165065 512 0 512 0 1:0.079137 2:0.028777 3:0.057554 4:0.057554 5:0.05036 6:0.043165 7:0.007194 8:0.064748 9:0.043165 10:0.064748 11:0.014388 12:0.057554 13:0.064748 14:0.05036 15:0.071942 16:0.071942 17:0.043165 18:0.057554 19:0.028777 20:0.043165 
512 0 0 0 0 0 512 0 343.9433457205399 0 0 1:0.041667 2:0 3:0.125 4:0 5:0 6:0.25 7:0 8:0.083333 9:0.166667 10:0.125 11:0 12:0 13:0.041667 14:0 15:0 16:0.041667 17:0.041667 18:0.083333 19:0 20:0 
512 0 0 512 0 0 0 0 0 512 0 1:0.082031 2:0.007813 3:0.035156 4:0.080078 5:0.035156 6:0.056641 7:0.015625 8:0.054688 9:0.044922 10:0.117188 11:0.023438 12:0.03125 13:0.070313 14:0.033203 15:0.042969 16:0.097656 17:0.046875 18:0.074219 19:0.019531 20:0.03125 
0 0 0 0 0 0 0 0 0 512 0 1:0.086331 2:0 3:0.035971 4:0.100719 5:0.035971 6:0.05036 7:0.007194 8:0.122302 9:0.064748 10:0.115108 11:0.014388 12:0.05036 13:0.05036 14:0.014388 15:0.043165 16:0.071942 17:0.064748 18:0.057554 19:0.014388 20:0 
512 0 0 0 0 0 0 0 0 0 0 1:0.064516 2:0.043011 3:0.107527 4:0.107527 5:0.021505 6:0.075269 7:0.010753 8:0.086022 9:0.053763 10:0.086022 11:0 12:0 13:0.043011 14:0.043011 15:0.010753 16:0.075269 17:0.075269 18:0.075269 19:0 20:0.021505 
512 0 0 0 0 0 491.7701903642565 0 0 0 0 1:0.08998 2:0.014315 3:0.051125 4:0.075665 5:0.038855 6:0.102249 7:0.01227 8:0.063395 9:0.059305 10:0.079755 11:0.018405 12:0.047035 13:0.042945 14:0.022495 15:0.051125 16:0.06135 17:0.05726 18:0.08589 19:0.00818 20:0.018405 
512 0 0 512 0 0 512 0 0 0 0 1:0.069652 2:0.016584 3:0.058043 4:0.056385 5:0.043118 6:0.089552 7:0.0199 8:0.064677 9:0.07131 10:0.086235 11:0.018242 12:0.048093 13:0.049751 14:0.028192 15:0.039801 16:0.063018 17:0.05141 18:0.079602 19:0.013267 20:0.033167 
512 0 0 0 0 0 512 512 0 0 0 1:0.070111 2:0.01476 3:0.04428 4:0.084871 5:0.01476 6:0.02952 7:0.00369 8:0.04797 9:0.099631 10:0.084871 11:0.02952 12:0.04797 13:0.02583 14:0.03321 15:0.070111 16:0.125461 17:0.055351 18:0.084871 19:0.00369 20:0.02952 
512 0 0 0 0 0 512 0 0 0 0 1:0.129808 2:0 3:0.052885 4:0.072115 5:0.052885 6:0.115385 7:0.014423 8:0.043269 9:0.043269 10:0.105769 11:0.033654 12:0.019231 13:0.067308 14:0.033654 15:0.043269 16:0.043269 17:0.043269 18:0.038462 19:0.024038 20:0.024038 
0 0 0 296.3441486076392 102.7503145405383 0 0 512 0 0 0 1:0.114504 2:0.007634 3:0.030534 4:0.053435 5:0.022901 6:0.022901 7:0.007634 8:0.034351 9:0.083969 10:0.080153 11:0.022901 12:0.026718 13:0.145038 14:0.038168 15:0.030534 16:0.110687 17:0.068702 18:0.091603 19:0 20:0.007634 
512 512 0 512 320.8106405242726 0 512 512 135.7347059838725 512 0 1:0.070652 2:0 3:0.048913 4:0.086957 5:0.027174 6:0.048913 7:0.01087 8:0.076087 9:0.065217 10:0.146739 11:0.021739 12:0.081522 13:0 14:0.059783 15:0.076087 16:0.059783 17:0.059783 18:0.032609 19:0.005435 20:0.021739 
0 0 0 0 0 0 0 0 0 512 0 1:0.076923 2:0.002481 3:0.049628 4:0.057072 5:0.042184 6:0.099256 7:0.004963 8:0.049628 9:0.037221 10:0.091811 11:0.009926 12:0.039702 13:0.057072 14:0.027295 15:0.069479 16:0.119107 17:0.042184 18:0.062035 19:0.027295 20:0.034739 
512 163.6501010263496 512 0 0 0 512 512 8.044012821662076 0 0 1:0.04712 2:0.010471 3:0.036649 4:0.078534 5:0.020942 6:0.057592 7:0.041885 8:0.089005 9:0.13089 10:0.073298 11:0.020942 12:0.031414 13:0.031414 14:0.036649 15:0.04712 16:0.089005 17:0.052356 18:0.089005 19:0.010471 20:0.005236 
512 0 512 512 0 0 512 512 512 0 0 1:0.077889 2:0.007538 3:0.055276 4:0.075377 5:0.035176 6:0.057789 7:0.037688 8:0.052764 9:0.070352 10:0.092965 11:0.037688 12:0.035176 13:0.052764 14:0.037688 15:0.047739 16:0.060302 17:0.055276 18:0.060302 19:0.017588 20:0.032663 
512 0 512 512 0 512 512 512 512 512 512 1:0.054701 2:0.018803 3:0.071795 4:0.049573 5:0.054701 6:0.063248 7:0.032479 8:0.042735 9:0.05812 10:0.082051 11:0.023932 12:0.059829 13:0.080342 14:0.025641 15:0.051282 16:0.071795 17:0.052991 18:0.052991 19:0.015385 20:0.037607 
512 0 0 0 0 0 0 0 0 0 0 1:0.08871 2:0 3:0.044355 4:0.068548 5:0.032258 6:0.064516 7:0.008065 8:0.084677 9:0.084677 10:0.092742 11:0.016129 12:0.03629 13:0.032258 14:0.048387 15:0.040323 16:0.096774 17:0.064516 18:0.084677 19:0 20:0.012097 
512 0 512 512 0 512 512 512 512 512 512 1:0.063604 2:0.010601 3:0.061837 4:0.056537 5:0.04947 6:0.077739 7:0.026502 8:0.04947 9:0.060071 10:0.079505 11:0.026502 12:0.067138 13:0.065371 14:0.021201 15:0.047703 16:0.074205 17:0.045936 18:0.038869 19:0.021201 20:0.056537 
512 0 0 0 0 0 512 0 0 512 0 1:0.074534 2:0.010352 3:0.066253 4:0.047619 5:0.047619 6:0.076605 7:0.020704 8:0.082816 9:0.068323 10:0.074534 11:0.020704 12:0.045549 13:0.039337 14:0.020704 15:0.060041 16:0.076605 17:0.060041 18:0.066253 19:0.008282 20:0.033126 
512 0 0 0 0 0 512 512 0 0 0 1:0.107692 2:0.005128 3:0.05641 4:0.064103 5:0.023077 6:0.066667 7:0.015385 8:0.046154 9:0.041026 10:0.061538 11:0.033333 12:0.048718 13:0.069231 14:0.030769 15:0.082051 16:0.064103 17:0.04359 18:0.092308 19:0.005128 20:0.04359 
512 0 0 512 0 0 512 512 0 0 0 1:0.096998 2:0.018476 3:0.060046 4:0.057737 5:0.032333 6:0.073903 7:0.011547 8:0.055427 9:0.04157 10:0.080831 11:0.025404 12:0.050808 13:0.069284 14:0.030023 15:0.066975 16:0.071594 17:0.046189 18:0.069284 19:0.002309 20:0.039261 
512 0 512 512 0 0 512 512 0 512 0 1:0.085366 2:0.015244 3:0.033537 4:0.070122 5:0.057927 6:0.07622 7:0.018293 8:0.042683 9:0.079268 10:0.094512 11:0.009146 12:0.027439 13:0.054878 14:0.02439 15:0.02439 16:0.118902 17:0.064024 18:0.067073 19:0.006098 20:0.030488 
512 512 0 512 0 0 512 512 0 0 0 1:0.068702 2:0.015267 3:0.05598 4:0.086514 5:0.043257 6:0.05598 7:0.02799 8:0.058524 9:0.063613 10:0.071247 11:0.033079 12:0.022901 13:0.061069 14:0.038168 15:0.063613 16:0.063613 17:0.066158 18:0.05598 19:0.017812 20:0.030534 
512 0 74.31319315611151 0 0 0 512 512 0 0 0 1:0.060284 2:0 3:0.06383 4:0.085106 5:0.042553 6:0.06383 7:0.007092 8:0.049645 9:0.074468 10:0.099291 11:0.014184 12:0.049645 13:0.046099 14:0.01773 15:0.070922 16:0.109929 17:0.074468 18:0.053191 19:0.010638 20:0.007092 
512 0 0 0 0 0 512 512 0 0 0 1:0.095745 2:0 3:0.053191 4:0.078014 5:0.035461 6:0.078014 7:0.010638 8:0.042553 9:0.078014 10:0.095745 11:0.01773 12:0.031915 13:0.049645 14:0.01773 15:0.06383 16:0.102837 17:0.06383 18:0.06383 19:0.007092 20:0.014184 
512 0 0 0 0 0 512 0 0 512 0 1:0.10142 2:0.006085 3:0.054767 4:0.06288 5:0.03854 6:0.081136 7:0.020284 8:0.056795 9:0.054767 10:0.091278 11:0.034483 12:0.044625 13:0.036511 14:0.032454 15:0.056795 16:0.03854 17:0.064909 18:0.066937 19:0.016227 20:0.040568 
512 0 0 512 0 0 512 512 164.4010037800156 0 0 1:0.111842 2:0.059211 3:0.065789 4:0.052632 5:0.052632 6:0.059211 7:0.019737 8:0.019737 9:0.059211 10:0.046053 11:0.026316 12:0.026316 13:0.052632 14:0.026316 15:0.085526 16:0.052632 17:0.085526 18:0.078947 19:0.006579 20:0.013158 
512 0 0 382.7236651162464 0 0 512 0 0 512 0 1:0.087533 2:0.01061 3:0.045093 4:0.055703 5:0.029178 6:0.095491 7:0.026525 8:0.061008 9:0.039788 10:0.084881 11:0.029178 12:0.047745 13:0.061008 14:0.015915 15:0.058355 16:0.066313 17:0.066313 18:0.076923 19:0.013263 20:0.029178 
512 0 512 512 0 0 512 0 512 512 0 1:0.092551 2:0.015801 3:0.047404 4:0.038375 5:0.054176 6:0.042889 7:0.042889 8:0.065463 9:0.060948 10:0.085779 11:0.024831 12:0.03386 13:0.081264 14:0.024831 15:0.042889 16:0.049661 17:0.047404 18:0.072235 19:0.042889 20:0.03386 
