svm_type c_svc
kernel_type rbf
gamma 8
nr_class 2
total_sv 358
rho -1.07372
label -1 11
nr_sv 315 43
SV
0.1827520007296899 1:-0.623819 2:-0.988079 3:-0.345576 4:-0.443834 5:-0.66611 6:-0.637856 7:-0.93322 8:-0.63511 9:-0.692967 10:-0.266575 11:-0.781564 12:-0.769138 13:-0.795216 14:-0.673992 15:-0.886125 16:-0.6507 17:-0.598744 18:-0.257653 19:-0.949915 20:-0.906513 
1.510016227466749 1:-0.691263 2:-0.872771 3:-0.548771 4:-0.616138 5:-0.54198 6:-0.525045 7:-0.89822 8:-0.629223 9:-0.731166 10:-0.234049 11:-0.733647 12:-0.824063 13:-0.769296 14:-0.79756 15:-0.898756 16:-0.507534 17:-0.534033 18:-0.473286 19:-0.923665 20:-0.629514 
0.01977691314250955 1:-0.463918 2:-0.926364 3:-0.422678 4:-0.351987 5:-0.27835 6:-0.687951 7:-0.79381 8:-0.849776 9:-0.717615 10:-0.580642 11:-0.86511 12:-0.935201 13:-0.670101 14:-0.776311 15:-0.7949 16:-0.946076 17:-0.882005 18:0.185564 19:-0.845365 20:-0.769067 
1.708872401679421 1:-0.583805 2:-0.798221 3:-0.736343 4:-0.644876 5:-0.60452 6:-0.743488 7:-0.88701 8:-0.711865 9:-0.756816 10:-0.402472 11:-0.556454 12:-0.609362 13:-0.668549 14:-0.795687 15:-0.8876 16:-0.556713 17:-0.70902 18:-0.350282 19:-0.661014 20:-0.493781 
0.1134119394886069 1:-0.624148 2:-0.908893 3:-0.214284 4:-0.823617 5:-0.66837 6:-0.549572 7:-0.87245 8:-0.591111 9:-0.760428 10:-0.35662 11:-0.833104 12:-0.711373 13:-0.79592 14:-0.797047 15:-0.862246 16:-0.572997 17:-0.678833 18:-0.100341 19:-0.808675 20:-0.828572 
1.209417180726088 1:-0.650768 2:-0.882521 3:-0.462718 4:-0.710524 5:-0.58882 6:-0.543645 7:-0.78618 8:-0.616539 9:-0.729691 10:-0.344335 11:-0.591102 12:-0.731204 13:-0.754384 14:-0.714502 15:-0.911184 16:-0.690281 17:-0.67057 18:-0.293863 19:-0.80263 20:-0.649999 
0.9082390857023612 1:-0.503816 2:-0.836421 3:-0.501274 4:-0.632135 5:-0.51654 6:-0.525045 7:-0.87277 8:-0.721919 9:-0.770993 10:-0.358264 11:-0.700347 12:-0.84006 13:-0.782869 14:-0.834367 15:-0.869826 16:-0.627323 17:-0.534033 18:-0.453774 19:-0.923665 20:-0.629514 
0.1053465649946855 1:-0.468399 2:-0.946893 3:-0.548949 4:-0.649496 5:-0.51673 6:-0.41863 7:-0.8513 8:-0.783323 9:-0.839988 10:-0.213661 11:-0.659509 12:-0.766329 13:-0.662949 14:-0.865568 15:-0.883781 16:-0.669431 17:-0.702164 18:-0.458489 19:-0.665424 20:-0.708553 
0.3612998875550981 1:-0.713402 2:-0.886621 3:-0.530861 4:-0.634165 5:-0.68254 6:-0.519546 7:-0.84127 8:-0.672333 9:-0.648033 10:-0.418882 11:-0.653844 12:-0.717306 13:-0.661376 14:-0.732127 15:-0.894737 16:-0.58486 17:-0.727493 18:-0.553793 19:-0.761904 20:-0.437031 
1.041785554943535 1:-0.76226 2:-0.910936 3:-0.441401 4:-0.670824 5:-0.35162 6:-0.660325 7:-0.87531 8:-0.56395 9:-0.736527 10:-0.310198 11:-0.902113 12:-0.7492 13:-0.6808 14:-0.747489 15:-0.872424 16:-0.413008 17:-0.743121 18:-0.407314 19:-0.775554 20:-0.692772 
0.03447734942418022 1:-0.597619 2:-1 3:-0.533334 4:-0.865304 5:-0.78571 6:-0.279319 7:-1 8:-0.79184 9:-0.692548 10:-0.18644 11:-0.719607 12:-0.865304 13:-0.771429 14:-0.896676 15:-0.918798 16:-0.364833 17:-0.632113 18:-0.288098 19:-0.785709 20:-0.52 
0.21346900983889 1:-0.30303 2:-0.8002 3:-0.347321 4:-0.428572 5:-0.86014 6:-0.753053 7:-0.86014 8:-0.745255 9:-0.835816 10:-0.146616 11:-0.816997 12:-1 13:-0.664336 14:-0.696536 15:-0.860876 16:-0.597634 17:-0.799907 18:-0.410258 19:-0.895105 20:-0.686713 
0.3087635539355044 1:-0.576746 2:-0.867107 3:-0.587598 4:-0.66379 5:-0.51163 6:-0.683234 7:-0.86047 8:-0.627241 9:-0.708795 10:-0.394556 11:-0.573988 12:-0.619935 13:-0.727131 14:-0.71406 15:-0.914075 16:-0.59857 17:-0.693907 18:-0.429455 19:-0.895345 20:-0.609298 
0.1292782003047052 1:-0.755374 2:-0.884793 3:-0.661294 4:-0.695853 5:-0.39516 6:-0.43043 7:-0.71774 8:-0.559331 9:-0.731769 10:-0.475123 11:-0.841714 12:-0.771892 13:-0.741936 14:-0.620876 15:-0.919779 16:-0.409431 17:-0.676945 18:-0.412635 19:-0.93952 20:-0.774196 
0.1849735243776324 1:-0.480649 2:-0.919743 3:-0.405747 4:-0.741035 5:-0.51311 6:-0.565433 7:-0.85019 8:-0.781698 9:-0.648264 10:-0.512474 11:-0.901982 12:-0.741035 13:-0.780272 14:-0.67494 15:-0.925489 16:-0.490638 17:-0.72137 18:-0.339579 19:-0.887635 20:-0.622469 
0.1419585720665437 1:-0.77126 2:-0.916214 3:-0.343112 4:-0.594471 5:-0.58944 6:-0.689323 7:-0.73607 8:-0.636786 9:-0.781973 10:-0.379693 11:-0.846516 12:-0.686638 13:-0.718475 14:-0.766692 15:-0.849977 16:-0.524476 17:-0.630797 18:-0.303032 19:-0.780054 20:-0.671548 
0.3733101918902907 1:-0.669414 2:-0.823271 3:-0.538141 4:-0.585275 5:-0.48454 6:-0.615139 7:-0.69072 8:-0.669513 9:-0.814432 10:-0.312249 11:-0.86511 12:-0.753757 13:-0.758075 14:-0.806138 15:-0.84178 16:-0.622522 17:-0.728614 18:-0.0989688 19:-0.96907 20:-0.653606 
0.07446312477737392 1:-0.581993 2:-0.908129 3:-0.579851 4:-0.41387 5:-0.67846 6:-0.399818 7:-0.93569 8:-0.648596 9:-0.798686 10:-0.346011 11:-0.537193 12:-0.838313 13:-0.759915 14:-0.790697 15:-0.899475 16:-0.629975 17:-0.779191 18:-0.260452 19:-0.85531 20:-0.675882 
0.4684019706090906 1:-0.752796 2:-0.868171 3:-0.451901 4:-0.673061 5:-0.51342 6:-0.661425 7:-0.7651 8:-0.633267 9:-0.76364 10:-0.344783 11:-0.670684 12:-0.52541 13:-0.615211 14:-0.830107 15:-0.861709 16:-0.692823 17:-0.635135 18:-0.549776 19:-0.773484 20:-0.530204 
0.3784171448886604 1:-0.582817 2:-0.844721 3:-0.623186 4:-0.609582 5:-0.59627 6:-0.529989 7:-0.87578 8:-0.63798 9:-0.756953 10:-0.444151 11:-0.918731 12:-0.707186 13:-0.867493 14:-0.663078 15:-0.894083 16:-0.480171 17:-0.75119 18:-0.119048 19:-0.720489 20:-0.826086 
0.0510797428744308 1:-0.621925 2:-0.760307 3:-0.310958 4:-0.578141 5:-0.59732 6:-0.593709 7:-0.86577 8:-0.804408 9:-0.816165 10:-0.344783 11:-0.648728 12:-0.957817 13:-0.74944 14:-0.805835 15:-0.942777 16:-0.508517 17:-0.423894 18:-0.279641 19:-1 20:-0.624161 
0.6188922550133091 1:-0.811595 2:-0.896479 3:-0.458938 4:-0.498966 5:-0.42029 6:-0.744104 7:-0.85507 8:-0.419256 9:-0.829869 10:-0.410462 11:-0.810363 12:-0.590065 13:-0.729467 14:-0.685542 15:-0.814646 16:-0.545148 17:-0.75119 18:-0.722222 19:-0.673914 20:-0.350723 
0.05229924640701956 1:-0.409089 2:-0.805193 3:-0.321216 4:-0.714283 5:-0.36364 6:-0.587247 7:-0.90909 8:-0.668828 9:-0.715416 10:-0.482283 11:-0.524187 12:-0.485716 13:-0.903029 14:-0.802746 15:-0.974162 16:-0.714688 17:-0.687858 18:-0.442427 19:-0.863635 20:-0.796361 
0.0924972809217869 1:-0.719425 2:-0.845836 3:-0.46283 4:-0.547793 5:-0.56835 6:-0.673361 7:-0.92806 8:-0.580678 9:-0.859244 10:-0.531763 11:-0.623461 12:-0.728677 13:-0.654677 14:-0.635768 15:-0.836426 16:-0.586053 17:-0.835319 18:-0.393284 19:-0.568344 20:-0.355394 
0.4880824401002573 1:-0.358025 2:-1 3:-0.555557 4:-0.501135 5:-0.73545 6:-0.786465 7:-0.89418 8:-0.691611 9:-0.710145 10:-0.13909 11:-0.861537 12:-0.866969 13:-0.57672 14:-0.770395 15:-0.894737 16:-0.557184 17:-0.515543 18:-0.472665 19:-0.920635 20:-1 
0.1047891941878662 1:-0.451911 2:-0.971764 3:-0.446637 4:-0.677021 5:-0.36759 6:-0.461627 7:-0.88142 8:-0.683232 9:-0.860801 10:-0.0674564 11:-0.793131 12:-0.80124 13:-0.683792 14:-0.685542 15:-0.876431 16:-0.813926 17:-0.660709 18:-0.606064 19:-0.82213 20:-0.645844 
0.09016916886163261 1:-0.259632 2:-1 3:-0.249582 4:-0.557788 5:-0.64824 6:-0.797195 7:-1 8:-0.816939 9:-0.685383 10:-0.0188217 11:-0.934249 12:-0.936829 13:-0.892795 14:-0.745587 15:-0.71436 16:-0.684574 17:-0.741187 18:-0.345061 19:-0.924625 20:-0.88744 
0.04686837301181865 1:-0.525114 2:-0.755379 3:-0.296809 4:-0.612524 5:-0.79452 6:-0.654468 7:-0.93151 8:-0.800393 9:-0.83919 10:-0.275598 11:-0.641518 12:-0.956949 13:-0.780821 14:-0.653235 15:-0.9416 16:-0.39094 17:-0.490449 18:-0.369862 19:-0.897265 20:-0.693153 
1.151237754393479 1:-0.65459 2:-0.896479 3:-0.458938 4:-0.635611 5:-0.49275 6:-0.744104 7:-0.85507 8:-0.788816 9:-0.773157 10:-0.410462 11:-0.620726 12:-0.635611 13:-0.652176 14:-0.685542 15:-0.83524 16:-0.658865 17:-0.709718 18:-0.555556 19:-0.673914 20:-0.269568 
0.03975598963473066 1:-0.477009 2:-0.938421 3:-0.597706 4:-0.620689 5:-0.39655 6:-0.434637 7:-0.82759 8:-0.685964 9:-0.831336 10:-0.158388 11:-0.661603 12:-0.674878 13:-0.632181 14:-0.812951 15:-0.950999 16:-0.774538 17:-0.901336 18:-0.272987 19:-0.741384 20:-0.710345 
0.0998254138979757 1:-0.483332 2:-0.917586 3:-0.533334 4:-0.685714 5:-0.57692 6:-0.592539 7:-0.88462 8:-0.831868 9:-0.729096 10:-0.468054 11:-0.899352 12:-0.66154 13:-0.815387 14:-0.666188 15:-0.912551 16:-0.476923 17:-0.603815 18:-0.410258 19:-0.88462 20:-0.439999 
0.4403418566884894 1:-0.666667 2:-0.982279 3:-0.536806 4:-0.641262 5:-0.57816 6:-0.499276 7:-0.95037 8:-0.638425 9:-0.854353 10:-0.253062 11:-0.870121 12:-0.750445 13:-0.695616 14:-0.802587 15:-0.802533 16:-0.376979 17:-0.758595 18:-0.524399 19:-0.590574 20:-0.610922 
1.042836263336962 1:-0.563026 2:-0.915964 3:-0.529414 4:-0.683074 5:-0.56303 6:-0.559112 7:-0.84874 8:-0.59592 9:-0.789549 10:-0.288989 11:-0.69213 12:-0.788718 13:-0.775909 14:-0.756892 15:-0.875809 16:-0.393409 17:-0.749937 18:-0.458826 19:-0.873955 20:-0.680004 
2.714204383990709 1:-0.724382 2:-0.924279 3:-0.422855 4:-0.644625 5:-0.5053 6:-0.607824 7:-0.73498 8:-0.639576 9:-0.76494 10:-0.353179 11:-0.653229 12:-0.57799 13:-0.651355 14:-0.846662 15:-0.864423 16:-0.611851 17:-0.737124 18:-0.702005 19:-0.681984 20:-0.366784 
0.00341822165230748 1:-0.388237 2:-0.831936 3:-0.121567 4:-0.630249 5:-0.76471 6:-0.584548 7:-0.88235 8:-0.657142 9:-0.723786 10:-0.521431 11:-0.538188 12:-0.334456 13:-0.874512 14:-0.744734 15:-0.966563 16:-0.753845 17:-0.798025 18:-0.549017 19:-0.823525 20:-0.736475 
0.2682705867125318 1:-0.628039 2:-0.938686 3:-0.399139 4:-0.217655 5:-0.57082 6:-0.458716 7:-0.95708 8:-0.874926 9:-0.91603 10:-0.581 11:-0.831521 12:-0.78418 13:-0.771104 14:-0.782712 15:-0.780439 16:-0.551007 17:-0.729833 18:-0.144493 19:-0.80686 20:-0.807729 
0.05016844833725777 1:-0.624048 2:-0.853229 3:-0.339425 4:-0.784733 5:-0.6347 6:-0.631434 7:-0.79452 8:-0.66732 9:-0.72305 10:-0.405621 11:-0.701263 12:-0.712982 13:-0.805173 14:-0.867897 15:-0.857247 16:-0.546189 17:-0.673362 18:-0.0898072 19:-0.760269 20:-0.821001 
0.1785603785790886 1:-0.608435 2:-0.913943 3:-0.493975 4:-0.583477 5:-0.39759 6:-0.483365 7:-0.96988 8:-0.802499 9:-0.669986 10:-0.460894 11:-0.881766 12:-0.867472 13:-0.726907 14:-0.738579 15:-0.922956 16:-0.464317 17:-0.500132 18:-0.445785 19:-0.95482 20:-0.730124 
0.05425671565110989 1:-0.650768 2:-0.800279 3:-0.524122 4:-0.648497 5:-0.58882 6:-0.527053 7:-0.80263 8:-0.628524 9:-0.742565 10:-0.304194 11:-0.548067 12:-0.772558 13:-0.745616 14:-0.738297 15:-0.878463 16:-0.759107 17:-0.708219 18:-0.356906 19:-0.777954 20:-0.613162 
0.06285394629465141 1:-0.617648 2:-0.864943 3:-0.431377 4:-0.630249 5:-0.60084 6:-0.406498 7:-0.81092 8:-0.647962 9:-0.827364 10:-0.213783 11:-0.862558 12:-0.854744 13:-0.731093 14:-0.802471 15:-0.820876 16:-0.615387 17:-0.759551 18:-0.35574 19:-0.905455 20:-0.694116 
0.1315046231701474 1:-0.705658 2:-0.919136 3:-0.436482 4:-0.715364 5:-0.35849 6:-0.695412 7:-0.84906 8:-0.5876 9:-0.748974 10:-0.263191 11:-0.851868 12:-0.857679 13:-0.71824 14:-0.808952 15:-0.871301 16:-0.210452 17:-0.697672 18:-0.450316 19:-0.886795 20:-0.746409 
0.5740431654194408 1:-0.666667 2:-0.764521 3:-0.692308 4:-0.654632 5:-0.50549 6:-0.750531 7:-0.94505 8:-0.639714 9:-0.720495 10:-0.32948 11:-0.568636 12:-0.723705 13:-0.648352 14:-0.721821 15:-0.890687 16:-0.540153 17:-0.685569 18:-0.536627 19:-0.670329 20:-0.446147 
0.02965308020942574 1:-0.657549 2:-1 3:-0.489365 4:-0.273988 5:-0.57447 6:-0.616658 7:-0.90881 8:-0.778551 9:-0.892955 10:-0.431248 11:-0.801138 12:-0.751626 13:-0.789259 14:-0.846113 15:-0.792674 16:-0.268644 17:-0.739087 18:-0.27761 19:-0.908815 20:-0.761697 
0.1614701808112098 1:-0.780898 2:-0.759229 3:-0.632958 4:-0.682182 5:-0.4382 6:-0.688243 7:-0.88764 8:-0.754413 9:-0.780165 10:-0.497236 11:-0.48543 12:-0.752808 13:-0.610485 14:-0.715572 15:-0.840331 16:-0.50043 17:-0.710651 18:-0.440074 19:-0.662919 20:-0.370782 
0.5283925370141277 1:-0.743878 2:-0.817436 3:-0.358894 4:-0.738929 5:-0.45687 6:-0.677649 7:-0.74441 8:-0.68576 9:-0.756217 10:-0.298207 11:-0.749179 12:-0.568235 13:-0.676251 14:-0.780484 15:-0.881956 16:-0.674123 17:-0.634334 18:-0.461126 19:-0.760389 20:-0.5885 
0.1367794529445694 1:-0.66096 2:-0.842821 3:-0.520781 4:-0.646523 5:-0.73105 6:-0.580628 7:-0.9022 8:-0.608102 9:-0.81822 10:-0.36347 11:-0.648086 12:-0.800209 13:-0.75224 14:-0.646327 15:-0.888817 16:-0.437279 17:-0.664194 18:-0.362671 19:-0.889975 20:-0.507087 
0.4224501429479001 1:-0.677517 2:-0.867107 3:-0.609307 4:-0.576079 5:-0.48837 6:-0.648041 7:-0.83721 8:-0.69502 9:-0.654196 10:-0.337802 11:-0.634845 12:-0.678404 13:-0.751936 14:-0.697245 15:-0.920685 16:-0.562075 17:-0.733828 18:-0.322482 19:-0.895345 20:-0.687441 
0.2214481873758614 1:-0.78862 2:-0.738679 3:-0.544721 4:-0.540068 5:-0.26829 6:-0.630869 7:-0.7561 8:-0.555747 9:-0.761398 10:-0.603145 11:-0.840432 12:-0.770037 13:-0.674795 14:-0.647195 15:-0.861362 16:-0.744843 17:-0.720849 18:-0.626021 19:-0.634149 20:-0.180483 
0.3855234559604486 1:-0.691549 2:-0.9628 3:-0.319442 4:-0.628967 5:-0.47917 6:-0.640908 7:-0.82639 8:-0.494051 9:-0.789404 10:-0.237287 11:-0.795551 12:-0.738093 13:-0.620368 14:-0.723759 15:-0.851975 16:-0.609507 17:-0.791363 18:-0.640626 19:-0.531249 20:-0.708329 
0.01312129575125909 1:-0.509666 2:-0.858557 3:-0.524757 4:-0.11093 5:-0.73126 6:-0.76453 7:-0.84441 8:-0.793895 9:-0.867168 10:-0.470665 11:-0.851946 12:-0.857748 13:-0.471947 14:-0.580569 15:-0.835181 16:-0.533891 17:-0.724792 18:-0.631303 19:-0.872695 20:-0.825739 
0.05630793343515104 1:-0.560938 2:-0.9528 3:-0.116004 4:-0.404655 5:-0.40529 6:-0.688869 7:-0.75771 8:-0.582755 9:-0.853476 10:-0.444485 11:-0.855898 12:-0.806168 13:-0.694565 14:-0.888481 15:-0.793416 16:-0.677398 17:-0.684876 18:-0.560938 19:-0.90088 20:-0.703961 
0.3764064018296595 1:-0.596631 2:-0.715043 3:-0.528369 4:-0.648937 5:-0.62766 6:-0.42307 7:-0.78723 8:-0.612466 9:-0.760639 10:-0.437431 11:-0.617206 12:-0.899699 13:-0.702128 14:-0.846113 15:-0.894177 16:-0.652211 17:-0.710823 18:-0.245571 19:-0.84043 20:-0.791489 
0.1734770704605211 1:-0.472663 2:-0.924414 3:-0.111113 4:-0.534392 5:-0.57672 6:-0.546238 7:-0.94709 8:-0.884354 9:-0.89648 10:-0.0529994 11:-0.723075 12:-0.900227 13:-0.915344 14:-0.69386 15:-0.699249 16:-0.612536 17:-0.78805 18:-0.553793 19:-0.761904 20:-0.822222 
0.18338787100576 1:-0.652068 2:-0.895721 3:-0.250609 4:-0.541187 5:-0.56204 6:-0.742237 7:-0.78102 8:-0.574558 9:-0.600126 10:-0.703083 11:-0.713471 12:-0.770597 13:-0.844283 14:-0.630452 15:-0.896275 16:-0.618191 17:-0.707601 18:-0.272504 19:-0.890515 20:-0.591244 
0.1115952567652711 1:-0.769185 2:-0.926364 3:-0.390609 4:-0.567989 5:-0.69072 6:-0.765963 7:-0.86254 8:-0.449193 9:-0.751232 10:-0.287085 11:-0.820137 12:-0.621996 13:-0.761739 14:-0.62719 15:-0.853501 16:-0.451758 17:-0.764015 18:-0.578464 19:-0.690714 20:-0.538144 
0.06483614991012032 1:-0.830436 2:-0.875779 3:-0.14783 4:-0.617389 5:-0.30435 6:-0.64906 7:-0.73913 8:-0.461491 9:-0.693761 10:-0.292552 11:-0.772444 12:-0.808694 13:-0.768117 14:-0.905666 15:-0.839359 16:-0.681603 17:-0.75119 18:-0.466669 19:-0.93478 20:-0.464348 
0.1102409450143302 1:-0.789642 2:-0.93065 3:-0.365698 4:-0.755894 5:-0.2233 6:-0.608173 7:-0.90291 8:-0.646323 9:-0.734066 10:-0.605065 11:-0.87296 12:-0.450761 13:-0.896443 14:-0.859565 15:-0.889627 16:-0.390589 17:-0.666644 18:-0.0323609 19:-0.854365 20:-0.782529 
0.2288057906852956 1:-0.632442 2:-0.713007 3:-0.66667 4:-0.607143 5:-0.55357 6:-0.594617 7:-0.86607 8:-0.707267 9:-0.772903 10:-0.455207 11:-0.532692 12:-0.803572 13:-0.738096 14:-0.612544 15:-0.784304 16:-0.719783 17:-0.718977 18:-0.315475 19:-1 20:-0.600002 
0.2056848054731072 1:-0.691167 2:-0.912507 3:-0.417965 4:-0.650018 5:-0.61024 6:-0.556196 7:-0.79955 8:-0.651131 9:-0.751623 10:-0.302404 11:-0.650298 12:-0.706011 13:-0.691168 14:-0.798645 15:-0.892392 16:-0.609732 17:-0.713232 18:-0.317001 19:-0.84967 20:-0.62583 
0.0965197964180223 1:-0.518519 2:-0.9142 3:-0.411413 4:-0.679108 5:-0.45946 6:-0.424321 7:-0.84985 8:-0.606178 9:-0.753232 10:-0.438082 11:-0.803533 12:-0.81124 13:-0.807808 14:-0.782806 15:-0.889047 16:-0.670132 17:-0.587557 18:-0.401403 19:-0.864865 20:-0.764564 
0.5729566023535511 1:-0.923707 2:-0.92455 3:-0.507042 4:-0.557341 5:-0.3662 6:-0.715788 7:-0.96479 8:-0.486919 9:-0.572872 10:-0.513011 11:-0.631416 12:-0.623744 13:-0.699531 14:-0.7708 15:-0.929948 16:-0.613216 17:-0.697746 18:-0.487093 19:-0.735909 20:-0.171825 
0.6960093219703221 1:-0.702989 2:-0.924679 3:-0.40949 4:-0.61336 5:-0.49033 6:-0.538968 7:-0.80668 8:-0.436603 9:-0.663024 10:-0.456672 11:-0.816029 12:-0.690686 13:-0.746923 14:-0.834758 15:-0.915086 16:-0.650668 17:-0.668109 18:-0.568835 19:-0.81547 20:-0.468536 
0.04004493012316607 1:-0.832798 2:-0.839229 3:-0.459806 4:-0.41387 5:-0.42122 6:-0.805347 7:-0.61415 8:-0.484609 9:-0.572206 10:-0.267535 11:-0.747556 12:-0.818098 13:-0.725616 14:-0.813957 15:-0.908615 16:-0.629975 17:-0.705586 18:-0.704182 19:-0.710604 20:-0.49582 
0.1794734449424037 1:-0.547522 2:-0.971314 3:-0.362786 4:-0.520369 5:-0.43775 6:-0.513755 7:-0.67871 8:-0.678139 9:-0.701415 10:-0.183169 11:-0.947452 12:-0.899026 13:-0.614459 14:-0.825724 15:-0.897272 16:-0.7059 17:-0.724208 18:-0.630521 19:-0.87952 20:-0.685145 
0.208838969561693 1:-0.682111 2:-1 3:-0.315317 4:-0.70877 5:-0.53668 6:-0.668876 7:-0.57529 8:-0.91561 9:-0.728051 10:-0.151888 11:-0.84844 12:-0.684501 13:-0.608752 14:-0.664901 15:-0.890266 16:-0.636472 17:-0.756953 18:-0.37838 19:-0.594594 20:-0.697297 
1.769342216154969 1:-0.728443 2:-0.904764 3:-0.440001 4:-0.572572 5:-0.57333 6:-0.751126 7:-0.70667 8:-0.601712 9:-0.67652 10:-0.18644 11:-0.842983 12:-0.547429 13:-0.758224 14:-0.739628 15:-0.909053 16:-0.623385 17:-0.755831 18:-0.529781 19:-0.740004 20:-0.477328 
0.2336072934001637 1:-0.639826 2:-0.833021 3:-0.539391 4:-0.444896 5:-0.55844 6:-0.515177 7:-0.84416 8:-0.564752 9:-0.776397 10:-0.42945 11:-0.694118 12:-0.738778 13:-0.792208 14:-0.793358 15:-0.852358 16:-0.728272 17:-0.762178 18:-0.183547 19:-0.88312 20:-0.767275 
0.119154811860044 1:-0.800766 2:-0.9179 3:-0.463605 4:-0.6821 5:-0.51724 6:-0.640489 7:-0.77011 8:-0.732017 9:-0.730133 10:-0.364113 11:-0.548799 12:-0.5665 13:-0.791573 14:-0.717351 15:-0.803991 16:-0.482933 17:-0.815822 18:-0.506513 19:-0.862075 20:-0.40781 
1.022003383671785 1:-0.791445 2:-0.885407 3:-0.251337 4:-0.663865 5:-0.7861 6:-0.595339 7:-0.7861 8:-0.844159 9:-0.748896 10:-0.216891 11:-0.790082 12:-0.798317 13:-0.572192 14:-0.690584 15:-0.893612 16:-0.580419 17:-0.72458 18:-0.344033 19:-0.598929 20:-0.460965 
0.04112574297609831 1:-0.348877 2:-0.925979 3:-0.564769 4:-0.60918 5:-0.37824 6:-0.451088 7:-0.84456 8:-0.962253 9:-0.918902 10:-0.283392 11:-0.728819 12:-0.902295 13:-0.778928 14:-0.662731 15:-0.808562 16:-0.756079 17:-0.644188 18:-0.364419 19:-0.611394 20:-0.767879 
0.2396564251810709 1:-0.84111 2:-0.904764 3:-0.657775 4:-0.706665 5:-0.6 6:-0.630052 7:-0.73333 8:-0.49 9:-0.726087 10:-0.213556 11:-0.563847 12:-0.476193 13:-0.822224 14:-0.758917 15:-0.886316 16:-0.721027 17:-0.618488 18:-0.412221 19:-0.800005 20:-0.365328 
0.1470439563883126 1:-0.66538 2:-0.944843 3:-0.387389 4:-0.70877 5:-0.53668 6:-0.629921 7:-0.45946 8:-0.718699 9:-0.712943 10:-0.277534 11:-0.89896 12:-0.635963 13:-0.670528 14:-0.692826 15:-0.923186 16:-0.575884 17:-0.756953 18:-0.615188 19:-0.594594 20:-0.654054 
0.04881803306429118 1:-0.636936 2:-0.864864 3:-0.344148 4:-0.558303 5:-0.51351 6:-0.536426 7:-0.75676 8:-0.488033 9:-0.587546 10:-0.38433 11:-0.787818 12:-0.728187 13:-0.754955 14:-0.706785 15:-0.907825 16:-0.759667 17:-0.798934 18:-0.585587 19:-0.87838 20:-0.788107 
0.1246530706755783 1:-0.67633 2:-0.928336 3:-0.26124 4:-0.418377 5:-0.54292 6:-0.786288 7:-0.88852 8:-0.7807 9:-0.733897 10:-0.22907 11:-0.839542 12:-0.747729 13:-0.613525 14:-0.612971 15:-0.923957 16:-0.376037 17:-0.706531 18:-0.572653 19:-0.866215 20:-0.875142 
0.1153469068483634 1:-0.659174 2:-0.759229 3:-0.475654 4:-0.505616 5:-0.4382 6:-0.773268 7:-0.55056 8:-0.426964 9:-0.56033 10:-0.634353 11:-0.55894 12:-0.717495 13:-0.940075 14:-0.67494 15:-0.936132 16:-0.764908 17:-0.742801 18:-0.569287 19:-0.83146 20:-0.370782 
0.1186029023568188 1:-0.867799 2:-0.878936 3:-0.525429 4:-0.339466 5:-0.38983 6:-0.846094 7:-0.83051 8:-0.604845 9:-0.615328 10:-0.50359 11:-0.201609 12:-0.74431 13:-0.710736 14:-0.80386 15:-0.845853 16:-0.716299 17:-0.786614 18:-0.506214 19:-0.644064 20:-0.354576 
0.007910973286420708 1:-0.619884 2:-0.812029 3:-0.672512 4:-0.834585 5:-0.73684 6:-0.557478 7:-0.82456 8:-0.616539 9:-0.897024 10:-0.143622 11:-0.655662 12:-0.614032 13:-0.672512 14:-0.619336 15:-0.875345 16:-0.541162 17:-0.698805 18:-0.461993 19:-0.86842 20:-0.508767 
0.01785999535361501 1:-0.769505 2:-0.905014 3:-0.553195 4:-0.515196 5:-0.62766 6:-0.63774 7:-0.78723 8:-0.593086 9:-0.781453 10:-0.459072 11:-0.338803 12:-0.648937 13:-0.702128 14:-0.788411 15:-0.87906 16:-0.596561 17:-0.665162 18:-0.347522 19:-0.84043 20:-0.61277 
0.02161894011155871 1:-0.765766 2:-0.862107 3:-0.423425 4:-0.635963 5:-0.53668 6:-0.649398 7:-0.53668 8:-0.690569 9:-0.728051 10:-0.308946 11:-0.84844 12:-0.70877 13:-0.567568 14:-0.7766 15:-0.86832 16:-0.616276 17:-0.734858 18:-0.615188 19:-0.536679 20:-0.654054 
0.134351727613132 1:-0.558546 2:-0.94145 3:-0.377047 4:-0.514221 5:-0.71897 6:-0.580588 7:-0.87119 8:-0.692871 9:-0.784646 10:-0.504623 11:-0.708891 12:-0.735026 13:-0.675253 14:-0.762866 15:-0.846913 16:-0.418124 17:-0.75206 18:-0.389543 19:-0.912175 20:-0.868848 
0.2874088488933127 1:-0.739129 2:-0.761107 3:-0.250833 4:-0.663639 5:-0.63211 6:-0.578196 7:-0.89967 8:-0.610127 9:-0.751346 10:-0.455809 11:-0.693674 12:-0.768755 13:-0.785952 14:-0.7823 15:-0.847913 16:-0.597634 17:-0.732048 18:-0.358976 19:-0.749169 20:-0.438128 
0.1152680874844445 1:-0.475506 2:-0.979414 3:-0.0854932 4:-0.474684 5:-0.79827 6:-0.578393 7:-0.82709 8:-0.622068 9:-0.954894 10:-0.460756 11:-0.547504 12:-0.909429 13:-0.723344 14:-0.833253 15:-0.83619 16:-0.638219 17:-0.52174 18:-0.248798 19:-1 20:-0.870897 
0.2190022951462683 1:-0.649832 2:-0.819621 3:-0.292926 4:-0.841267 5:-0.39394 6:-0.363032 7:-0.89899 8:-0.742421 9:-0.881423 10:-0.465841 11:-0.537403 12:-0.809524 13:-0.703701 14:-0.525131 15:-0.842104 16:-0.73582 17:-0.653173 18:-0.612796 19:-0.848485 20:-0.434343 
1.585760602707825 1:-0.742803 2:-0.845836 3:-0.496402 4:-0.559095 5:-0.31655 6:-0.537258 7:-0.80216 8:-0.711719 9:-0.739599 10:-0.429336 11:-0.694066 12:-0.728677 13:-0.693045 14:-0.778857 15:-0.877321 16:-0.651908 17:-0.711807 18:-0.503599 19:-0.81115 20:-0.476253 
0.6163425753655979 1:-0.558745 2:-0.90675 3:-0.512623 4:-0.671766 5:-0.42559 6:-0.473129 7:-0.86945 8:-0.562479 9:-0.754797 10:-0.468957 11:-0.760851 12:-0.803056 13:-0.818971 14:-0.811158 15:-0.89611 16:-0.494676 17:-0.596576 18:-0.419496 19:-0.84334 20:-0.795297 
0.5270694320300701 1:-0.74172 2:-0.842321 3:-0.320086 4:-0.528226 5:-0.4702 6:-0.743862 7:-0.6468 8:-0.517504 9:-0.758135 10:-0.46122 11:-0.682264 12:-0.639232 13:-0.823397 14:-0.856303 15:-0.805506 16:-0.515029 17:-0.747345 18:-0.610741 19:-0.768204 20:-0.653863 
0.3852557225989904 1:-0.795813 2:-0.887807 3:-0.446189 4:-0.616056 5:-0.40663 6:-0.700658 7:-0.72077 8:-0.682125 9:-0.740495 10:-0.474668 11:-0.840157 12:-0.627025 13:-0.655616 14:-0.570841 15:-0.880958 16:-0.643978 17:-0.680412 18:-0.491563 19:-0.81676 20:-0.374523 
0.03330986530047846 1:-0.515043 2:-0.845279 3:-0.629364 4:-0.455387 5:-0.53069 6:-0.526483 7:-0.74729 8:-0.76328 9:-0.703344 10:-0.383224 11:-0.763808 12:-0.841154 13:-0.730443 14:-0.686678 15:-0.887137 16:-0.773398 17:-0.772748 18:-0.225032 19:-0.8917 20:-0.757396 
0.02213077826923484 1:-0.328333 2:-0.982143 3:-0.0900012 4:-0.402857 5:-0.7 6:-0.508135 7:-0.8 8:-0.562857 9:-0.911957 10:-0.410169 11:-0.901865 12:-0.764286 13:-0.826667 14:-0.837267 15:-0.893421 16:-0.777692 17:-0.656641 18:-0.405834 19:-0.9625 20:-0.691999 
0.05847282110226621 1:-0.679753 2:-0.967007 3:-0.245578 4:-0.230616 5:-0.49192 6:-0.580573 7:-0.67667 8:-0.697133 9:-0.87348 10:-0.323598 11:-0.63737 12:-0.869352 13:-0.729024 14:-0.766149 15:-0.803088 16:-0.830874 17:-0.629944 18:-0.451114 19:-0.89608 20:-0.793068 
0.8766766940843439 1:-0.779394 2:-0.844157 3:-0.456969 4:-0.759999 5:-0.49091 6:-0.77069 7:-0.78182 8:-0.589348 9:-0.765217 10:-0.423112 11:-0.833471 12:-0.61143 13:-0.699392 14:-0.723846 15:-0.875982 16:-0.324755 17:-0.708665 18:-0.400606 19:-0.781824 20:-0.551999 
0.7647546907542723 1:-0.784624 2:-0.786993 3:-0.536115 4:-0.475149 5:-0.56262 6:-0.669033 7:-0.76143 8:-0.536498 9:-0.704381 10:-0.320685 11:-0.557776 12:-0.687588 13:-0.734923 14:-0.827453 15:-0.881342 16:-0.698425 17:-0.761079 18:-0.573228 19:-0.791244 20:-0.287477 
1.185418757286043 1:-0.622016 2:-0.821986 3:-0.418487 4:-0.510456 5:-0.50156 6:-0.55996 7:-0.93769 8:-0.568759 9:-0.768387 10:-0.417076 11:-0.592372 12:-0.706275 13:-0.784011 14:-0.842279 15:-0.938022 16:-0.674097 17:-0.71476 18:-0.28349 19:-0.85981 20:-0.581309 
0.4437815771126105 1:-0.733335 2:-0.972529 3:-0.533334 4:-0.685714 5:-0.57692 6:-0.689555 7:-0.61538 8:-0.663735 9:-0.729096 10:-0.374185 11:-0.949676 12:-0.589009 13:-0.65128 14:-0.777461 15:-0.912551 16:-0.315978 17:-0.735876 18:-0.46923 19:-0.653844 20:-0.612311 
0.1320894955698435 1:-0.715512 2:-0.974879 3:-0.409145 4:-0.550496 5:-0.55451 6:-0.639238 7:-0.78898 8:-0.470438 9:-0.697232 10:-0.256064 11:-0.815924 12:-0.727351 13:-0.693632 14:-0.796505 15:-0.890048 16:-0.699524 17:-0.691394 18:-0.568582 19:-0.718644 20:-0.448533 
0.025963569905418 1:-0.711109 2:-1 3:-0.511111 4:-0.640816 5:-0.61905 6:-0.567592 7:-0.61905 8:-0.444902 9:-0.664597 10:-0.18644 11:-0.875381 12:-0.551018 13:-0.796827 14:-0.621151 15:-0.945864 16:-0.850552 17:-0.754744 18:-0.67143 19:-0.642849 20:-0.199993 
0.04814107607732256 1:-0.697676 2:-0.833886 3:-0.674416 4:-0.634549 5:-0.36047 6:-0.296078 7:-0.82558 8:-0.788204 9:-0.704248 10:-0.716198 11:-0.543553 12:-0.707639 13:-0.68992 14:-0.789749 15:-0.884332 16:-0.756706 17:-0.634019 18:-0.153103 19:-0.91279 20:-0.804649 
0.2953839782447905 1:-0.583332 2:-0.967036 3:-0.490261 4:-0.284397 5:-0.80769 6:-0.728359 7:-0.86923 8:-0.719777 9:-0.738127 10:-0.211473 11:-0.667844 12:-0.801761 13:-0.807179 14:-0.638372 15:-0.779191 16:-0.553371 17:-0.665442 18:-0.575382 19:-0.85 20:-0.86215 
0.04530495295507404 1:-0.746751 2:-0.930429 3:-0.696966 4:-0.510205 5:-0.48052 6:-0.606901 7:-0.74026 8:-0.574209 9:-0.758612 10:-0.471715 11:-0.277789 12:-0.714283 13:-0.619045 14:-0.694728 15:-0.898497 16:-0.796204 17:-0.758458 18:-0.377705 19:-0.659094 20:-0.490903 
0.2124000302228916 1:-0.646738 2:-0.689443 3:-0.670291 4:-0.624221 5:-0.53804 6:-0.479072 7:-0.86413 8:-0.524848 9:-0.659733 10:-0.270448 11:-0.751102 12:-0.812114 13:-0.797104 14:-0.783811 15:-0.953662 16:-0.644648 17:-0.642334 18:-0.3125 19:-0.87772 20:-0.847825 
3.648281067880932 1:-0.780282 2:-0.839036 3:-0.316437 4:-0.628169 5:-0.49296 6:-0.594996 7:-0.67606 8:-0.599796 9:-0.740968 10:-0.278112 11:-0.778855 12:-0.760967 13:-0.767136 14:-0.72496 15:-0.899927 16:-0.720044 17:-0.693718 18:-0.481688 19:-0.746484 20:-0.353243 
1.265320634154175 1:-0.682925 2:-0.904971 3:-0.254986 4:-0.65157 5:-0.57871 6:-0.664427 7:-0.66741 8:-0.596139 9:-0.731033 10:-0.314518 11:-0.825921 12:-0.763066 13:-0.798965 14:-0.759452 15:-0.861362 16:-0.559271 17:-0.708156 18:-0.456028 19:-0.80044 20:-0.577826 
1.249581256579798 1:-0.855878 2:-0.920814 3:-0.317072 4:-0.637629 5:-0.46785 6:-0.742727 7:-0.80044 8:-0.644603 9:-0.644269 10:-0.116091 11:-0.796912 12:-0.637629 13:-0.716187 14:-0.759452 15:-0.918076 16:-0.640458 17:-0.632022 18:-0.507019 19:-0.733929 20:-0.453663 
2.203167937809676 1:-0.811331 2:-0.959871 3:-0.305246 4:-0.611556 5:-0.4382 6:-0.766185 7:-0.76124 8:-0.570223 9:-0.670248 10:-0.14302 11:-0.70596 12:-0.549761 13:-0.790261 14:-0.74605 15:-0.924158 16:-0.551859 17:-0.710651 18:-0.644666 19:-0.747189 20:-0.496626 
0.3004021126849833 1:-0.77978 2:-0.94145 3:-0.204372 4:-0.515692 5:-0.57377 6:-0.685736 7:-0.78689 8:-0.498364 9:-0.621526 10:-0.37316 11:-0.785502 12:-0.814521 13:-0.763936 14:-0.679872 15:-0.906816 16:-0.485496 17:-0.643507 18:-0.597815 19:-0.901645 20:-0.742948 
0.02766919716118054 1:-0.496431 2:-0.868936 3:-0.514779 4:-0.557888 5:-0.60245 6:-0.506324 7:-0.78593 8:-0.910881 9:-0.892301 10:0.044937 11:-0.759908 12:-0.903885 13:-0.673803 14:-0.823055 15:-0.800098 16:-0.696071 17:-0.71999 18:-0.249749 19:-0.95413 20:-0.794491 
0.003081813021551518 1:-0.706213 2:-0.939464 3:-0.0508479 4:-0.227606 5:-0.57627 6:-0.593855 7:-0.74576 8:-0.876515 9:-0.933678 10:-0.345019 11:-0.611894 12:-0.866831 13:-0.683616 14:-0.693534 15:-0.903658 16:-0.534551 17:-0.660521 18:-0.577682 19:-0.936445 20:-0.525421 
0.1906162718174403 1:-0.631809 2:-0.906629 3:-0.450977 4:-0.589172 5:-0.60784 6:-0.274607 7:-0.60784 8:-0.714284 9:-0.744247 10:-0.680954 11:-0.914478 12:-0.671333 13:-0.721131 14:-0.858184 15:-0.925696 16:-0.623934 17:-0.625973 18:-0.14815 19:-1 20:-0.926797 
0.5647001913401001 1:-0.643834 2:-0.951079 3:-0.424657 4:-0.560861 5:-0.56164 6:-0.523163 7:-0.82192 8:-0.760468 9:-0.774867 10:-0.387047 11:-0.784913 12:-0.767517 13:-0.72968 14:-0.59379 15:-0.848161 16:-0.648895 17:-0.725627 18:-0.401372 19:-0.691779 20:-0.662465 
0.3545911627402973 1:-0.741092 2:-0.730457 3:-0.412999 4:-0.703503 5:-0.59119 6:-0.635127 7:-0.65409 8:-0.725066 9:-0.90156 10:-0.28366 11:-0.958849 12:-0.822102 13:-0.748427 14:-0.681586 15:-0.865938 16:-0.555876 17:-0.550108 18:-0.300839 19:-0.433959 20:-0.647793 
0.8506316478017211 1:-0.61851 2:-0.983879 3:-0.557563 4:-0.616899 5:-0.41309 6:-0.521715 7:-0.63883 8:-0.605289 9:-0.761508 10:-0.35723 11:-0.970468 12:-0.687845 13:-0.735141 14:-0.706126 15:-0.923013 16:-0.657578 17:-0.689969 18:-0.428896 19:-0.864565 20:-0.494352 
1.772989281715799 1:-0.558788 2:-0.961036 3:-0.321216 4:-0.725717 5:-0.56364 6:-0.523042 7:-0.81818 8:-0.748315 9:-0.758103 10:-0.289981 11:-0.785882 12:-0.645712 13:-0.776971 14:-0.802746 15:-0.89665 16:-0.724197 17:-0.771094 18:-0.330908 19:-0.536364 20:-0.470541 
0.5200018103004297 1:-0.760587 2:-0.861879 3:-0.458565 4:-0.565903 5:-0.61326 6:-0.554052 7:-0.66851 8:-0.738356 9:-0.697334 10:-0.483096 11:-0.602395 12:-0.565903 13:-0.867403 14:-0.760248 15:-0.92149 16:-0.523163 17:-0.715447 18:-0.364641 19:-0.668514 20:-0.659665 
0.5595403179447543 1:-0.591557 2:-0.989479 3:-0.230244 4:-0.453822 5:-0.58763 6:-0.650806 7:-0.88218 8:-0.560067 9:-0.677276 10:-0.364967 11:-0.788027 12:-0.694508 13:-0.866469 14:-0.755011 15:-0.903729 16:-0.676446 17:-0.646019 18:-0.3677 19:-0.95581 20:-0.719585 
0.17900931210521 1:-0.730128 2:-0.93645 3:-0.385531 4:-0.519068 5:-0.48399 6:-0.640943 7:-0.82206 8:-0.455517 9:-0.763269 10:-0.478858 11:-0.650769 12:-0.709204 13:-0.677344 14:-0.781222 15:-0.888743 16:-0.637011 17:-0.775981 18:-0.481612 19:-0.599649 20:-0.541639 
2.081934120939343 1:-0.698551 2:-0.958593 3:-0.364252 4:-0.617389 5:-0.46377 6:-0.685615 7:-0.82609 8:-0.609318 9:-0.750473 10:-0.221813 11:-0.772444 12:-0.599173 13:-0.721739 14:-0.769397 15:-0.913501 16:-0.590635 17:-0.684842 18:-0.433335 19:-0.89131 20:-0.561743 
1.035256565026439 1:-0.72245 2:-0.867179 3:-0.32507 4:-0.623379 5:-0.42149 6:-0.749845 7:-0.83471 8:-0.713992 9:-0.6281 10:-0.294017 11:-0.810756 12:-0.610393 13:-0.724517 14:-0.895395 15:-0.911918 16:-0.524476 17:-0.775351 18:-0.35055 19:-0.87604 20:-0.514053 
0.8964670625224208 1:-0.725981 2:-0.957986 3:-0.272552 4:-0.510085 5:-0.35294 6:-0.666157 7:-0.80882 8:-0.635715 9:-0.723786 10:-0.282155 11:-0.903788 12:-0.639496 13:-0.811765 14:-0.776644 15:-0.874612 16:-0.661538 17:-0.638128 18:-0.458826 19:-0.84559 20:-0.637646 
0.8021889592037788 1:-0.650924 2:-0.861114 3:-0.507406 4:-0.563495 5:-0.55556 6:-0.551575 7:-0.80556 8:-0.575003 9:-0.739129 10:-0.548018 11:-0.745581 12:-0.615874 13:-0.851851 14:-0.658464 15:-0.889473 16:-0.535042 17:-0.713867 18:-0.595369 19:-0.708339 20:-0.564442 
0.695243640845909 1:-0.556817 2:-0.853893 3:-0.363636 4:-0.614284 5:-0.54545 6:-0.50699 7:-0.86364 8:-0.685389 9:-0.644269 10:-0.352853 11:-0.821577 12:-0.785714 13:-0.806059 14:-0.720563 15:-0.922487 16:-0.572029 17:-0.817916 18:-0.494699 19:-0.659094 20:-0.719999 
0.5897210532298535 1:-0.673947 2:-0.913314 3:-0.343046 4:-0.77115 5:-0.56311 6:-0.669396 7:-0.70874 8:-0.734742 9:-0.819542 10:-0.249629 11:-0.777691 12:-0.588072 13:-0.689323 14:-0.824451 15:-0.931016 16:-0.606421 17:-0.472182 18:-0.51618 19:-0.745149 20:-0.374758 
0.01913897300697834 1:-0.548609 2:-0.925593 3:-0.222226 4:-0.672621 5:-0.6875 6:-0.842351 7:-1 8:-0.848217 9:-0.714673 10:-0.152539 11:-0.727406 12:-1 13:-0.777776 14:-0.472623 15:-0.911184 16:-0.455127 17:-0.523114 18:-0.440971 19:-0.531249 20:-0.649999 
0.3995234087524003 1:-0.750599 2:-0.948614 3:-0.328542 4:-0.698525 5:-0.4964 6:-0.600772 7:-0.80815 8:-0.755397 9:-0.859244 10:-0.18059 11:-0.811737 12:-0.532714 13:-0.731413 14:-0.8439 15:-0.918213 16:-0.623688 17:-0.42362 18:-0.632292 19:-0.640284 20:-0.301678 
0.01753466191809113 1:-0.843034 2:-0.926079 3:-0.541183 4:-0.59884 5:-0.52135 6:-0.758532 7:-0.62915 8:-0.535019 9:-0.724956 10:-0.30888 11:-0.621956 12:-0.650345 13:-0.74472 14:-0.631978 15:-0.889698 16:-0.485721 17:-0.61997 18:-0.626419 19:-0.747729 20:-0.594301 
0.08630207562722846 1:-0.76265 2:-0.787614 3:-0.371933 4:-0.59669 5:-0.59311 6:-0.605262 7:-0.43662 8:-0.657951 9:-0.706064 10:-0.452531 11:-0.877134 12:-0.695061 13:-0.674491 14:-0.660445 15:-0.893253 16:-0.648006 17:-0.614905 18:-0.592073 19:-0.9061 20:-0.754619 
0.01086780979681735 1:-0.683697 2:-0.79145 3:-0.659371 4:-0.816476 5:-0.70803 6:-0.558123 7:-1 8:-0.468194 9:-0.771502 10:-0.168623 11:-0.617965 12:-0.678832 13:-0.727493 14:-0.894412 15:-0.896275 16:-0.427288 17:-0.540516 18:-0.664231 19:-0.781014 20:-0.427735 
0.6174944605452044 1:-0.677929 2:-0.903471 3:-0.432431 4:-0.660232 5:-0.32432 6:-0.72731 7:-0.86486 8:-0.75386 9:-0.735603 10:-0.0655038 11:-0.646359 12:-0.447876 13:-0.783781 14:-0.853396 15:-0.865577 16:-0.929311 17:-0.613332 18:-0.533783 19:-0.797289 20:-0.243237 
1.509060949202538 1:-0.646989 2:-0.966264 3:-0.393941 4:-0.78479 5:-0.6222 6:-0.547343 7:-0.75207 8:-0.621522 9:-0.833684 10:-0.19316 11:-0.860962 12:-0.651206 13:-0.785909 14:-0.70967 15:-0.859069 16:-0.592408 17:-0.655422 18:-0.475011 19:-0.663519 20:-0.510738 
1.415784560983804 1:-0.703374 2:-0.978743 3:-0.472219 4:-0.738093 5:-0.46429 6:-0.60963 7:-0.82143 8:-0.479589 9:-0.755435 10:-0.176758 11:-0.766346 12:-0.476193 13:-0.650795 14:-0.677117 15:-0.906955 16:-0.688644 17:-0.77859 18:-0.657738 19:-0.91072 20:-0.400003 
0.02550531985888814 1:-0.607612 2:-0.718786 3:-0.559057 4:-0.727785 5:-0.68504 6:-0.582913 7:-0.84252 8:-0.598426 9:-0.784321 10:-0.359403 11:-0.793942 12:-0.752532 13:-0.748032 14:-0.715254 15:-0.899296 16:-0.64991 17:-0.616988 18:-0.185042 19:-0.822835 20:-0.647244 
0.2883352858418112 1:-0.658186 2:-0.981821 3:-0.430023 4:-0.904036 5:-0.49109 6:-0.499372 7:-0.87277 8:-0.758996 9:-0.820775 10:-0.316861 11:-0.900111 12:-0.728099 13:-0.796437 14:-0.687141 15:-0.942146 16:-0.374437 17:-0.534033 18:-0.297712 19:-0.84733 20:-0.316026 
0.09256979658209735 1:-0.766814 2:-0.903907 3:-0.497755 4:-0.492636 5:-0.55157 6:-0.977379 7:-0.82063 8:-0.542603 9:-0.613959 10:-0.489247 11:-0.589271 12:-0.746315 13:-0.784752 14:-0.44864 15:-0.936274 16:-0.366679 17:-0.615065 18:-0.587442 19:-0.730944 20:-0.59821 
0.1748892141107671 1:-0.671481 2:-0.819493 3:-0.427195 4:-0.682308 5:-0.71119 6:-0.453636 7:-0.60289 8:-0.868486 9:-0.943496 10:-0.236368 11:-0.763808 12:-0.818462 13:-0.711189 14:-0.660568 15:-0.866617 16:-0.565679 17:-0.73143 18:-0.142002 19:-0.729234 20:-0.676532 
0.2023413937722847 1:-0.590305 2:-0.818179 3:-0.558786 4:-0.725717 5:-0.78182 6:-0.523042 7:-0.78182 8:-0.708572 9:-0.900393 10:-0.378733 11:-0.762094 12:-0.748572 13:-0.767275 14:-0.710697 15:-0.834641 16:-0.524476 17:-0.708665 18:-0.0800015 19:-0.781824 20:-0.633457 
0.003964101130811798 1:-0.777015 2:-0.485421 3:-0.423667 4:-0.66577 5:-0.57118 6:-0.601957 7:-0.75986 8:-0.612597 9:-0.71139 10:-0.469721 11:-0.753117 12:-0.741242 13:-0.826187 14:-0.677449 15:-0.868376 16:-0.685976 17:-0.685889 18:-0.487139 19:-0.691254 20:-0.577356 
1.429099419621973 1:-0.748385 2:-0.800307 3:-0.377775 4:-0.75668 5:-0.44086 6:-0.533495 7:-0.74194 8:-0.623963 9:-0.772789 10:-0.422632 11:-0.746745 12:-0.607985 13:-0.770608 14:-0.735585 15:-0.889982 16:-0.628783 17:-0.65541 18:-0.43943 19:-0.741939 20:-0.63871 
0.05619125836727995 1:-0.720097 2:-0.93165 3:-0.240828 4:-0.789473 5:-0.49761 6:-0.589658 7:-0.97608 8:-0.477105 9:-0.737881 10:-0.377179 11:-0.906091 12:-0.6391 13:-0.783093 14:-0.844276 15:-0.870812 16:-0.486935 17:-0.644045 18:-0.376394 19:-0.892345 20:-0.544495 
0.08204530205767907 1:-0.678384 2:-0.776786 3:-0.489579 4:-0.631695 5:-0.6875 6:-0.428523 7:-0.88281 8:-0.544643 9:-0.83186 10:-0.491525 11:-0.69332 12:-0.852676 13:-0.75 14:-0.830483 15:-0.911184 16:-0.611778 17:-0.798814 18:-0.0716142 19:-0.648429 20:-0.387493 
0.2125229228611777 1:-0.755071 2:-0.798136 3:-0.472462 4:-0.685714 5:-0.58696 6:-0.550359 7:-0.6087 8:-0.778259 9:-0.804348 10:-0.274874 11:-0.857769 12:-0.75404 13:-0.652176 14:-0.7956 15:-0.851716 16:-0.590635 17:-0.688985 18:-0.500004 19:-0.380438 20:-0.610429 
0.1018915565441237 1:-0.852034 2:-0.895471 3:-0.271544 4:-0.662715 5:-0.31707 6:-0.45861 7:-0.7561 8:-0.573516 9:-0.675503 10:-0.484081 11:-0.744691 12:-0.724045 13:-0.86992 14:-0.788317 15:-0.916817 16:-0.668291 17:-0.581267 18:-0.289432 19:-0.707319 20:-0.781465 
1.793107640748449 1:-0.6293 2:-0.957857 3:-0.531962 4:-0.703327 5:-0.61652 6:-0.64285 7:-0.9115 8:-0.548672 9:-0.87303 10:-0.18404 11:-0.807013 12:-0.388117 13:-0.701083 14:-0.743982 15:-0.865858 16:-0.598821 17:-0.696144 18:-0.434615 19:-0.9115 20:-0.570501 
0.6158634391306548 1:-0.767027 2:-0.784943 3:-0.478137 4:-0.716131 5:-0.39785 6:-0.511797 7:-0.76344 8:-0.608298 9:-0.789623 10:-0.440132 11:-0.8593 12:-0.580951 13:-0.701792 14:-0.813356 15:-0.889982 16:-0.617537 17:-0.667714 18:-0.389964 19:-0.741939 20:-0.63871 
3.298567123336362 1:-0.74692 2:-0.90635 3:-0.521658 4:-0.7228 5:-0.47557 6:-0.500936 7:-0.69011 8:-0.670016 9:-0.841428 10:-0.204867 11:-0.71928 12:-0.752764 13:-0.758443 14:-0.741385 15:-0.881439 16:-0.482536 17:-0.693065 18:-0.479143 19:-0.749694 20:-0.479378 
0.005371108061089083 1:-0.520356 2:-0.591057 3:-0.679391 4:-0.904036 5:-0.54198 6:-0.67267 7:-0.8855 8:-0.749729 9:-0.970128 10:-0.472121 11:-0.85018 12:-0.448203 13:-0.674299 14:-0.475501 15:-0.848132 16:-0.62067 17:-0.563155 18:-0.326975 19:-0.82825 20:-0.786259 
0.3421625809509988 1:-0.80597 2:-0.92385 3:-0.502487 4:-0.651539 5:-0.48827 6:-0.634279 7:-0.65885 8:-0.596102 9:-0.816447 10:-0.514296 11:-0.748904 12:-0.691742 13:-0.692965 14:-0.784101 15:-0.86062 16:-0.542726 17:-0.719355 18:-0.444206 19:-0.488274 20:-0.235822 
0.03023600666571975 1:-0.690474 2:-0.939264 3:-0.317464 4:-0.775512 5:-0.54082 6:-0.545284 7:-0.82993 8:-0.603497 9:-0.800356 10:-0.446559 11:-0.866483 12:-0.59378 13:-0.773243 14:-0.729394 15:-0.980665 16:-0.288333 17:-0.659365 18:-0.426304 19:-0.897955 20:-0.485717 
0.3070129057694864 1:-0.692784 2:-0.546907 3:-0.791046 4:-0.812365 5:-0.40299 6:-0.303519 7:-0.88806 8:-0.700958 9:-0.941598 10:-0.45358 11:-0.804711 12:-0.437102 13:-0.701493 14:-0.730131 15:-0.851531 16:-0.609643 17:-0.679703 18:-0.685322 19:-0.83209 20:-0.45672 
0.667386593694389 1:-0.773574 2:-0.987129 3:-0.327329 4:-0.796142 5:-0.33333 6:-0.618232 7:-0.76577 8:-0.724323 9:-0.830788 10:-0.457624 11:-0.858541 12:-0.445047 13:-0.740539 14:-0.791492 15:-0.938548 16:-0.481636 17:-0.577244 18:-0.447449 19:-0.594594 20:-0.354229 
0.0708041620973075 1:-0.566666 2:-0.603171 3:-0.58519 4:-0.720638 5:-0.55556 6:-0.831843 7:-0.88889 8:-0.676194 9:-0.869566 10:-0.457624 11:-0.709231 12:-0.650791 13:-0.644443 14:-0.678556 15:-0.905264 16:-0.593161 17:-0.682072 18:-0.233335 19:-0.833335 20:-0.377771 
0.07136761116563707 1:-0.606061 2:-0.512986 3:-0.575754 4:-0.785714 5:-0.54545 6:-0.484056 7:-0.88636 8:-0.834418 9:-0.822133 10:-0.167947 11:-0.702623 12:-0.928569 13:-0.878789 14:-0.753435 15:-0.838517 16:-0.702798 17:-0.739877 18:-0.215908 19:-0.659094 20:-0.363637 
0.01366306713044535 1:-0.738093 2:-0.882257 3:-0.794872 4:-0.343797 5:-0.50549 6:-1 7:-0.78022 8:-0.559652 9:-0.612996 10:-0.374185 11:-0.640523 12:-0.723705 13:-0.70696 14:-0.403906 15:-0.953151 16:-0.770076 17:-0.52835 18:-0.536627 19:-0.835165 20:-0.261537 
1.770540096198202 1:-0.753788 2:-0.864721 3:-0.575754 4:-0.642858 5:-0.50758 6:-0.694257 7:-0.88636 8:-0.558442 9:-0.762846 10:-0.414481 11:-0.702623 12:-0.428572 13:-0.878789 14:-0.780832 15:-0.849283 16:-0.623542 17:-0.696527 18:-0.390156 19:-0.715914 20:-0.278785 
0.1726862681083708 1:-0.696185 2:-0.8155 3:-0.414511 4:-0.814446 5:-0.7417 6:-0.441539 7:-0.7417 8:-0.569844 9:-0.870048 10:-0.399584 11:-0.758587 12:-0.675274 13:-0.665435 14:-0.866559 15:-0.937076 16:-0.556059 17:-0.598779 18:-0.236164 19:-0.557199 20:-0.710703 
0.07575190935721948 1:-0.850574 2:-0.753693 3:-0.517243 4:-0.819374 5:-0.54023 6:-0.594098 7:-0.77011 8:-0.832509 9:-0.842578 10:-0.205143 11:-0.774406 12:-0.60263 13:-0.754789 14:-0.667468 15:-0.885662 16:-0.39876 17:-0.638225 18:-0.471262 19:-0.310343 20:-0.613789 
0.1603019418715029 1:-0.818905 2:-0.701493 3:-0.526371 4:-0.493391 5:-0.64179 6:-0.789174 7:-0.8209 8:-0.717271 9:-0.661259 10:-0.392864 11:-0.726582 12:-0.737314 13:-0.745275 14:-0.676155 15:-0.898193 16:-0.500347 17:-0.572935 18:-0.473631 19:-0.597009 20:-0.632236 
2.212739096394159 1:-0.653051 2:-0.906629 3:-0.31373 4:-0.804854 5:-0.44444 6:-0.530145 7:-0.86928 8:-0.642855 9:-0.897697 10:-0.322036 11:-0.850337 12:-0.619979 13:-0.703701 14:-0.799094 15:-0.916408 16:-0.427351 17:-0.59792 18:-0.536489 19:-0.754899 20:-0.542479 
0.01768445165266387 1:-0.66437 2:-0.88935 3:-0.502011 4:-0.751168 5:-0.51807 6:-0.609267 7:-0.82788 8:-0.774281 9:-0.885504 10:-0.173838 11:-0.707229 12:-0.697073 13:-0.522661 14:-0.663888 15:-0.83368 16:-0.630875 17:-0.763608 18:-0.472174 19:-0.586914 20:-0.595175 
1.56685124930589 1:-0.712349 2:-0.84705 3:-0.18059 4:-0.703886 5:-0.42184 6:-0.697531 7:-0.80728 8:-0.672376 9:-0.807279 10:-0.390269 11:-0.803873 12:-0.582748 13:-0.851536 14:-0.752205 15:-0.914797 16:-0.585571 17:-0.5466 18:-0.556745 19:-0.775164 20:-0.256531 
0.01714422178906773 1:-0.740741 2:-0.81685 3:-0.641022 4:-0.717948 5:-0.59402 6:-0.504144 7:-0.9359 8:-0.844319 9:-0.816052 10:-0.322036 11:-0.748368 12:-0.825396 13:-0.452992 14:-0.706372 15:-0.854251 16:-0.485863 17:-0.535337 18:-0.443018 19:-0.83974 20:-0.664951 
2.194429243511387 1:-0.787489 2:-0.862929 3:-0.283584 4:-0.651539 5:-0.57356 6:-0.677306 7:-0.82942 8:-0.627168 9:-0.858164 10:-0.236742 11:-0.804711 12:-0.477305 13:-0.772565 14:-0.676155 15:-0.939401 16:-0.542726 17:-0.646145 18:-0.49325 19:-0.808105 20:-0.331347 
0.4022973399417061 1:-0.548609 2:-0.627979 3:-0.481478 4:-0.825396 5:-0.40972 6:-0.404434 7:-0.86111 8:-0.696426 9:-0.836955 10:-0.548018 11:-0.818266 12:-0.563495 13:-0.722224 14:-0.673529 15:-0.950658 16:-0.673077 17:-0.523114 18:-0.70718 19:-0.843745 20:-0.572226 
0.012164449222508 1:-0.82313 2:-0.817786 3:-0.619051 4:-0.583088 5:-0.54082 6:-0.485226 7:-0.79592 8:-0.77697 9:-0.780392 10:-0.501906 11:-0.59945 12:-0.743442 13:-0.40136 14:-0.741696 15:-0.883997 16:-0.653059 17:-0.824818 18:-0.139456 19:-0.84694 20:-0.657145 
0.003660714162034862 1:-0.733916 2:-0.310779 3:-0.443277 4:-0.614032 5:-0.61404 6:-0.45127 7:-0.94737 8:-0.565415 9:-0.94508 10:-0.643172 11:-0.816356 12:-0.459649 13:-0.756725 14:-0.708159 15:-0.915234 16:-0.724694 17:-0.578332 18:-0.529237 19:-0.86842 20:-0.567724 
0.0903524290469376 1:-0.747275 2:-1 3:-0.349458 4:-0.642349 5:-0.08962 6:-0.799072 7:-0.7724 8:-0.740906 9:-0.699423 10:-0.421363 11:-0.739418 12:-0.642349 13:-0.726885 14:-0.701642 15:-0.898929 16:-0.702375 17:-0.877896 18:-0.389282 19:-0.80797 20:0.147084 
0.9134417602818614 1:-0.469929 2:-0.934471 3:-0.400614 4:-0.750112 5:-0.66361 6:-0.660598 7:-0.75535 8:-0.688077 9:-0.832471 10:-0.303373 11:-0.799921 12:-0.57711 13:-0.86952 14:-0.734586 15:-0.930468 16:-0.424134 17:-0.73749 18:-0.413861 19:-0.587154 20:-0.554743 
0.0778276515048255 1:-0.817757 2:-0.532707 3:-0.694707 4:-0.735648 5:-0.62617 6:-0.599248 7:-0.90654 8:-0.6255 9:-0.634295 10:-0.315698 11:-0.571999 12:-0.735648 13:-0.700933 14:-0.729625 15:-0.893754 16:-0.755571 17:-0.598882 18:-0.641745 19:-0.719619 20:-0.162619 
0.1097831579247429 1:-0.549506 2:-0.964643 3:-0.330036 4:-0.813296 5:-0.5297 6:-0.450569 7:-0.82673 8:-0.657353 9:-0.7966 10:-0.476425 11:-0.935231 12:-0.813296 13:-0.722773 14:-0.641952 15:-0.957792 16:-0.507999 17:-0.575053 18:-0.335807 19:-0.88861 20:-0.556434 
0.1327964209920451 1:-0.633434 2:-0.956843 3:-0.633434 4:-0.71515 5:-0.4864 6:-0.679939 7:-0.87915 8:-0.339667 9:-0.787205 10:-0.360948 11:-0.802342 12:-0.392316 13:-0.742197 14:-0.672242 15:-0.922723 16:-0.589123 17:-0.775243 18:-0.58308 19:-0.90937 20:-0.289425 
0.01014790651853755 1:-0.686184 2:-0.90095 3:-0.237804 4:-0.767554 5:-0.4453 6:-0.626889 7:-0.95378 8:-0.651991 9:-0.885442 10:-0.298003 11:-0.7379 12:-0.525423 13:-0.761685 14:-0.788259 15:-0.908038 16:-0.427759 17:-0.576752 18:-0.598359 19:-0.699534 20:-0.551305 
0.8861309554995868 1:-0.849633 2:-0.954936 3:-0.470035 4:-0.54394 5:-0.58991 6:-0.713548 7:-0.58991 8:-0.655248 9:-0.728431 10:-0.409721 11:-0.669781 12:-0.583597 13:-0.747632 14:-0.726211 15:-0.901379 16:-0.554475 17:-0.584793 18:-0.492115 19:-0.763404 20:-0.434701 
0.1062335478620004 1:-0.372806 2:-0.874686 3:-0.672512 4:-0.69674 5:-0.51754 6:-0.645983 7:-0.95614 8:-0.584583 9:-0.897024 10:-0.322036 11:-0.713052 12:-0.586469 13:-0.719296 14:-0.714502 15:-0.86288 16:-0.655873 17:-0.623512 18:-0.428367 19:-0.86842 20:-0.754383 
0.196515002621489 1:-0.640602 2:-0.847664 3:-0.424965 4:-0.568046 5:-0.47867 6:-0.61746 7:-0.78673 8:-0.56838 9:-0.712548 10:-0.344523 11:-0.689931 12:-0.791472 13:-0.823067 14:-0.76006 15:-0.872037 16:-0.528985 17:-0.755906 18:-0.600314 19:-0.751179 20:-0.628439 
1.038573071129085 1:-0.749581 2:-0.856421 3:-0.484091 4:-0.763104 5:-0.44724 6:-0.492985 7:-0.84925 8:-0.524046 9:-0.754206 10:-0.141466 11:-0.736984 12:-0.81048 13:-0.678389 14:-0.727419 15:-0.942871 16:-0.684574 17:-0.583024 18:-0.422111 19:-0.84925 20:-0.577893 
0.5329449116767688 1:-0.835004 2:-0.8998 3:-0.494993 4:-0.6347 5:-0.37876 6:-0.666379 7:-0.6994 8:-0.634986 9:-0.803956 10:-0.233724 11:-0.868891 12:-0.760665 13:-0.690048 14:-0.681131 15:-0.846219 16:-0.591184 17:-0.67889 18:-0.416169 19:-0.639279 20:-0.506213 
0.8762294057386945 1:-0.802807 2:-0.886236 3:-0.511569 4:-0.64245 5:-0.4198 6:-0.707302 7:-0.72696 8:-0.610433 9:-0.804125 10:-0.268813 11:-0.642735 12:-0.663903 13:-0.739099 14:-0.744929 15:-0.873899 16:-0.601295 17:-0.674478 18:-0.441791 19:-0.522189 20:-0.490332 
1.208758918641878 1:-0.796238 2:-0.843257 3:-0.561129 4:-0.605911 5:-0.59248 6:-0.573016 7:-0.78056 8:-0.680252 9:-0.754668 10:-0.285905 11:-0.712869 12:-0.5665 13:-0.832811 14:-0.750599 15:-0.919816 16:-0.590065 17:-0.677093 18:-0.447234 19:-0.529779 20:-0.368027 
0.1009038014906244 1:-0.804077 2:-0.867021 3:-0.453898 4:-0.665657 5:-0.60106 6:-0.584074 7:-0.84043 8:-0.593086 9:-0.75023 10:-0.480704 11:-0.860805 12:-0.448328 13:-0.843973 14:-0.788411 15:-0.894177 16:-0.415713 17:-0.634723 18:-0.510637 19:-0.720744 20:-0.43404 
0.02729295773241903 1:-0.674675 2:-0.8284 3:-0.579581 4:-0.452596 5:-0.51952 6:-0.515218 7:-0.78979 8:-0.803089 9:-0.753232 10:-0.560238 11:-0.410599 12:-0.641356 13:-0.807808 14:-0.717648 15:-0.889047 16:-0.638716 17:-0.759408 18:-0.562564 19:-0.594594 20:-0.461861 
0.3905303657142214 1:-0.644619 2:-0.848829 3:-0.555557 4:-0.700681 5:-0.4709 6:-0.519546 7:-0.92063 8:-0.614513 9:-0.730849 10:-0.461927 11:-0.584612 12:-0.650791 13:-0.802469 14:-0.885197 15:-0.887217 16:-0.571019 17:-0.5761 18:-0.411814 19:-0.80158 20:-0.644444 
0.2857547088479234 1:-0.771499 2:-0.878936 3:-0.507845 4:-0.63304 5:-0.32203 6:-0.629482 7:-0.67985 8:-0.560934 9:-0.823138 10:-0.387145 11:-0.753588 12:-0.775085 13:-0.718768 14:-0.727585 15:-0.834078 16:-0.546864 17:-0.719796 18:-0.552421 19:-0.576264 20:-0.557061 
0.5420393501338903 1:-0.649702 2:-0.807529 3:-0.636728 4:-0.642431 5:-0.46108 6:-0.501566 7:-0.82036 8:-0.847306 9:-0.671962 10:-0.537198 11:-0.529892 12:-0.548334 13:-0.808384 14:-0.718494 15:-0.88938 16:-0.639799 17:-0.81153 18:-0.449105 19:-0.595809 20:-0.53054 
0.1389680667056762 1:-0.640554 2:-0.70375 3:-0.483867 4:-0.710336 5:-0.67742 6:-0.442053 7:-0.81567 8:-0.731405 9:-0.729515 10:-0.512612 11:-0.758809 12:-0.594471 13:-0.827957 14:-0.766692 15:-0.934515 16:-0.566113 17:-0.815399 18:-0.434715 19:-0.723504 20:-0.225809 
0.7144590526813203 1:-0.737088 2:-0.945829 3:-0.423621 4:-0.761646 5:-0.33911 6:-0.644732 7:-0.73998 8:-0.557961 9:-0.813461 10:-0.382996 11:-0.730651 12:-0.516484 13:-0.757312 14:-0.63171 15:-0.919941 16:-0.642969 17:-0.584598 18:-0.576379 19:-0.82123 20:-0.381143 
0.1625131723762255 1:-0.753164 2:-0.834236 3:-0.468355 4:-0.694998 5:-0.53586 6:-0.659422 7:-0.81013 8:-0.800182 9:-0.834893 10:-0.00450306 11:-0.668747 12:-0.535863 13:-0.662448 14:-0.71009 15:-0.874083 16:-0.646866 17:-0.782682 18:-0.547115 19:-0.746829 20:-0.314771 
0.3263051990379426 1:-0.692125 2:-0.8985 3:-0.336886 4:-0.765543 5:-0.4849 6:-0.731184 7:-0.627 8:-0.702357 9:-0.867943 10:-0.16187 11:-0.814066 12:-0.765543 13:-0.56424 14:-0.730225 15:-0.853603 16:-0.535455 17:-0.735722 18:-0.509771 19:-0.706929 20:-0.482772 
0.3801065985519472 1:-0.566666 2:-0.746029 3:-0.647406 4:-0.650791 5:-0.62222 6:-0.562785 7:-0.84444 8:-0.659998 9:-0.843478 10:-0.548018 11:-0.65107 12:-0.650791 13:-0.620741 14:-0.694627 15:-0.892631 16:-0.628035 17:-0.643925 18:-0.420738 19:-0.766659 20:-0.651556 
0.192054885336923 1:-0.747327 2:-0.812579 3:-0.537413 4:-0.54186 5:-0.3586 6:-0.602891 7:-0.85423 8:-0.426491 9:-0.771834 10:-0.525621 11:-0.809264 12:-0.468556 13:-0.813413 14:-0.725878 15:-0.941998 16:-0.61875 17:-0.699686 18:-0.552965 19:-0.737604 20:-0.477552 
4.10279046105981 1:-0.697676 2:-0.8708 3:-0.469419 4:-0.756366 5:-0.37984 6:-0.478577 7:-0.89664 8:-0.510524 9:-0.777551 10:-0.390358 11:-0.695702 12:-0.691397 13:-0.751936 14:-0.794422 15:-0.941248 16:-0.567483 17:-0.674678 18:-0.366067 19:-0.88372 20:-0.508005 
0.1453556654438593 1:-0.707205 2:-0.927607 3:-0.558562 4:-0.681465 5:-0.45946 6:-0.45462 7:-0.89865 8:-0.75386 9:-0.669508 10:-0.120476 11:-0.867386 12:-0.554054 13:-0.891893 14:-0.780094 15:-0.932787 16:-0.646567 17:-0.439334 18:-0.611485 19:-0.746619 20:-0.583785 
0.03483458632881634 1:-0.534049 2:-1 3:-0.498213 4:-0.729645 5:-0.67742 6:-0.349063 7:-1 8:-0.843321 9:-0.663392 10:-0.300159 11:-0.577913 12:-0.729645 13:-0.598565 14:-0.68892 15:-0.938881 16:-0.718778 17:-0.692333 18:-0.505378 19:-0.838705 20:-0.518276 
0.3477798009493613 1:-0.584 2:-0.866664 3:-0.552001 4:-0.631236 5:-0.68 6:-0.44844 7:-0.84 8:-0.592 9:-0.707825 10:-0.262369 11:-0.790644 12:-0.798857 13:-0.786667 14:-0.749269 15:-0.901473 16:-0.65128 17:-0.771094 18:-0.325334 19:-0.839995 20:-0.581869 
0.05497350180489709 1:-0.588736 2:-0.867721 3:-0.675928 4:-0.563495 5:-0.49074 6:-0.591278 7:-0.83796 8:-0.544643 9:-0.728263 10:-0.303202 11:-0.606241 12:-0.767196 13:-0.851851 14:-0.648418 15:-0.881578 16:-0.648859 17:-0.66883 18:-0.538582 19:-0.861115 20:-0.585185 
0.05507126331560899 1:-0.720959 2:-0.918829 3:-0.328281 4:-0.595238 5:-0.65909 6:-0.732476 7:-0.81061 8:-0.779221 9:-0.792491 10:-0.383663 11:-0.504364 12:-0.690479 13:-0.555557 14:-0.671244 15:-0.838517 16:-0.643356 17:-0.609818 18:-0.622479 19:-0.431814 20:-0.703031 
0.04273376163440987 1:-0.703873 2:-0.918643 3:-0.447225 4:-0.742273 5:-0.61276 6:-0.655255 7:-0.43052 8:-0.286365 9:-0.848471 10:-0.110461 11:-0.73175 12:-0.684998 13:-0.793472 14:-0.835249 15:-0.928785 16:-0.511478 17:-0.582858 18:-0.615793 19:-0.82915 20:-0.719361 
0.190006019710161 1:-0.655305 2:-0.870129 3:-0.215152 4:-0.657146 5:-0.61364 6:-0.690433 7:-0.72727 8:-0.370777 9:-0.706522 10:-0.408322 11:-0.821577 12:-0.614284 13:-0.818181 14:-0.868497 15:-0.870812 16:-0.679019 17:-0.661842 18:-0.390156 19:-0.965905 20:-0.694542 
0.09749808268114647 1:-0.711109 2:-1 3:-0.502226 4:-0.748572 5:-0.33333 6:-0.596418 7:-0.86667 8:-0.805712 9:-0.582607 10:-0.24068 11:-0.825541 12:-0.497143 13:-0.502224 14:-0.807129 15:-0.92421 16:-0.721027 17:-0.9237 18:-0.488887 19:-0.599994 20:-0.402669 
0.06705520725897848 1:-0.402827 2:-1 3:-0.538281 4:-0.777888 5:-0.39929 6:-0.55435 7:-0.71731 8:-0.742552 9:-0.681979 10:-0.453792 11:-0.90753 12:-0.57799 13:-0.86808 14:-0.846662 15:-0.949786 16:-0.630336 17:-0.474242 18:-0.404002 19:-0.893995 20:-0.643817 
0.007035133206566079 1:-0.717393 2:-1 3:-0.797103 4:-0.658384 5:-0.67391 6:-0.561322 7:-0.8913 8:-0.683232 9:-0.532137 10:-0.380986 11:-0.857769 12:-0.590065 13:-0.652176 14:-0.921382 15:-0.876431 16:-0.772577 17:-0.440175 18:-0.749998 19:-0.83695 20:0.217398 
0.03241760128099053 1:-0.684849 2:-1 3:-0.456969 4:-0.862858 5:-0.23636 6:-0.669794 7:-0.96364 8:-0.576103 9:-0.558894 10:-0.437903 11:-0.904835 12:-0.360002 13:-0.844848 14:-0.815895 15:-0.958662 16:-0.638601 17:-0.41733 18:-0.386668 19:-0.94546 20:-0.67418 
0.3580532139371456 1:-0.586574 2:-0.949521 3:-0.505297 4:-0.800102 5:-0.39929 6:-0.625653 7:-0.89399 8:-0.742552 9:-0.737286 10:-0.108818 11:-0.815061 12:-0.555783 13:-0.755008 14:-0.74443 15:-0.949786 16:-0.556399 17:-0.494466 18:-0.51237 19:-0.893995 20:-0.683386 
0.9320743961183574 1:-0.835442 2:-0.909586 3:-0.409285 4:-0.562389 5:-0.43038 6:-0.71264 7:-0.74684 8:-0.677214 9:-0.727574 10:-0.17614 11:-0.834374 12:-0.801082 13:-0.763712 14:-0.771118 15:-0.82012 16:-0.536512 17:-0.637807 18:-0.611814 19:-0.715194 20:-0.362024 
3.574799595745542 1:-0.645797 2:-0.937886 3:-0.448121 4:-0.661118 5:-0.4087 6:-0.657833 7:-0.84348 8:-0.569196 9:-0.71418 10:-0.377447 11:-0.726922 12:-0.661118 13:-0.721739 14:-0.710697 15:-0.896201 16:-0.627025 17:-0.721329 18:-0.533331 19:-0.843475 20:-0.435127 
4.038584046063202 1:-0.777565 2:-0.891364 3:-0.520911 4:-0.629552 5:-0.46768 6:-0.664321 7:-0.8289 8:-0.598317 9:-0.739626 10:-0.334922 11:-0.751246 12:-0.629552 13:-0.726235 14:-0.793749 15:-0.891935 16:-0.582334 17:-0.619214 18:-0.431564 19:-0.572244 20:-0.574141 
0.2910015189482275 1:-0.653333 2:-0.942857 3:-0.104001 4:-0.648 5:-0.6 6:-0.878925 7:-0.92 8:-0.358858 9:-0.812174 10:-0.479321 11:-0.685967 12:-0.648 13:-0.829333 14:-0.710697 15:-0.818105 16:-0.372308 17:-0.771094 18:-0.325334 19:-1 20:-0.731199 
1.025166108758186 1:-0.603877 2:-0.980214 3:-0.353649 4:-0.651759 5:-0.44598 6:-0.580769 7:-0.77839 8:-0.81836 9:-0.718175 10:-0.301371 11:-0.782532 12:-0.599525 13:-0.734075 14:-0.779616 15:-0.88978 16:-0.62327 17:-0.682953 18:-0.681443 19:-0.626034 20:-0.503604 
0.3538814989981751 1:-0.606061 2:-0.885407 3:-0.625668 4:-0.647057 5:-0.73262 6:-0.406498 7:-0.7861 8:-0.610389 9:-0.717506 10:-0.412666 11:-0.755093 12:-0.714283 13:-0.757573 14:-0.825956 15:-0.916408 16:-0.650349 17:-0.709278 18:-0.180036 19:-0.799464 20:-0.640636 
0.11845615860719 1:-0.584173 2:-0.8557 3:-0.528621 4:-0.619048 5:-0.72222 6:-0.554123 7:-0.79798 8:-0.687232 9:-0.72332 10:-0.548018 11:-0.438286 12:-0.793653 13:-0.838384 14:-0.762569 15:-0.870812 16:-0.722612 17:-0.552013 18:-0.361115 19:-0.81061 20:-0.377771 
0.07473643495777305 1:-0.755374 2:-0.769586 3:-0.548389 4:-0.746541 5:-0.51613 6:-0.186329 7:-0.67742 8:-0.764978 9:-0.842214 10:-0.475123 11:-0.894472 12:-0.847924 13:-0.827957 14:-0.591707 15:-0.747877 16:-0.831266 17:-0.584644 18:-0.258067 19:-1 20:-0.63871 
0.01292949403959828 1:-0.781513 2:-0.819929 3:-0.607842 4:-0.366149 5:-0.2437 6:-0.660855 7:-0.41176 8:-0.510204 9:-0.671171 10:-0.316333 11:-0.780085 12:-0.841537 13:-0.820731 14:-0.939225 15:-0.904468 16:-0.516483 17:-0.759551 18:-0.420171 19:-1 20:-0.811761 
0.1935771400275523 1:-0.514198 2:-0.839843 3:-0.288493 4:-0.619476 5:-0.61883 6:-0.683289 7:-0.70852 8:-0.477258 9:-0.789431 10:-0.379798 11:-0.853307 12:-0.661753 13:-0.832587 14:-0.821616 15:-0.872552 16:-0.671612 17:-0.640732 18:-0.398359 19:-0.96637 20:-0.723763 
0.2051693994201234 1:-0.747574 2:-0.791957 3:-0.546923 4:-0.816922 5:-0.46602 6:-0.314304 7:-0.75728 8:-0.752424 9:-0.715068 10:-0.249629 11:-0.745934 12:-0.725384 13:-0.741099 14:-0.824451 15:-0.875831 16:-0.568336 17:-0.611082 18:-0.441745 19:-0.92719 20:-0.836894 
0.4280491823731102 1:-0.616032 2:-0.875679 3:-0.542191 4:-0.69168 5:-0.55696 6:-0.560979 7:-0.73101 8:-0.711799 9:-0.708999 10:-0.35636 11:-0.75156 12:-0.671792 13:-0.679323 14:-0.828342 15:-0.856096 16:-0.660664 17:-0.746463 18:-0.39346 19:-0.85759 20:-0.539242 
0.002790128164013981 1:-0.635514 2:-0.866486 3:-0.389405 4:-0.647529 5:-0.43925 6:-0.292788 7:-0.81308 8:-0.659546 9:-0.488013 10:-0.467761 11:-0.75542 12:-0.647529 13:-0.850469 14:-0.864809 15:-0.920316 16:-0.853345 17:-0.518656 18:-0.928347 19:-0.85981 20:-0.581309 
0.01681475242245423 1:-0.251984 2:-1 3:-0.611109 4:-0.625849 5:-0.64286 6:-0.669688 7:-0.82143 8:-0.826527 9:-0.930125 10:-0.0314726 11:-0.688453 12:-0.850337 13:-0.714288 14:-0.612544 15:-0.847746 16:-0.65751 17:-0.625303 18:-0.269843 19:-1 20:-0.866664 
0.04748192499135306 1:-0.559716 2:-0.770814 3:-0.600711 4:-0.361347 5:-0.62567 6:-0.811159 7:-0.89305 8:-0.844159 9:-0.581492 10:-0.47793 11:-0.370258 12:-0.697481 13:-0.771835 14:-0.574551 15:-0.893612 16:-0.720279 17:-0.785784 18:-0.467022 19:-0.759354 20:-0.640636 
0.039410794416396 1:-0.870533 2:-0.849357 3:-0.442297 4:-0.668592 5:-0.43761 6:-0.716287 7:-0.8594 8:-0.270147 9:-0.539239 10:-0.270798 11:-0.770036 12:-0.337184 13:-0.868773 14:-0.834758 15:-0.915086 16:-0.632282 17:-0.808909 18:-0.676628 19:-0.973645 20:-0.3898 
1.054789309136873 1:-0.798227 2:-0.8733 3:-0.524019 4:-0.749131 5:-0.46785 6:-0.697985 7:-0.80044 8:-0.612291 9:-0.705003 10:-0.152164 11:-0.709872 12:-0.526133 13:-0.73984 14:-0.615119 15:-0.886569 16:-0.617259 17:-0.78429 18:-0.524023 19:-0.700659 20:-0.478493 
0.2163159229915769 1:-0.488298 2:-0.924014 3:-0.175886 4:-0.538604 5:-0.80851 6:-0.779962 7:-0.80851 8:-0.806229 9:-0.841811 10:-0.324916 11:-0.83296 12:-0.906381 13:-0.56312 14:-0.699928 15:-0.78533 16:-0.376759 17:-0.640812 18:-0.641132 19:-0.84043 20:-0.868937 
0.009107916437584572 1:-0.751366 2:-0.824357 3:-0.0819652 4:-0.690869 5:-0.7541 6:-0.710546 7:-0.91803 8:-0.641689 9:-0.743406 10:-0.333149 11:-0.785502 12:-0.690869 13:-0.956283 14:-0.762866 15:-0.860225 16:-0.442625 17:-0.57784 18:-0.183064 19:-0.877045 20:-0.632785 
0.03714748295346278 1:-0.666667 2:-0.847371 3:-0.401706 4:-0.691089 5:-0.67949 6:-0.622722 7:-0.76496 8:-0.610805 9:-0.790969 10:-0.30465 11:-0.804292 12:-0.677656 13:-0.726496 14:-0.752733 15:-0.872469 16:-0.541748 17:-0.743213 18:-0.311964 19:-0.743589 20:-0.664951 
0.6599853807773801 1:-0.77653 2:-0.951957 3:-0.267568 4:-0.71813 5:-0.41704 6:-0.807708 7:-0.66368 8:-0.624276 9:-0.447259 10:-0.489247 11:-0.853307 12:-0.549007 13:-0.856501 14:-0.756754 15:-0.92353 16:-0.566055 17:-0.692052 18:-0.484303 19:-0.798204 20:-0.497757 
0.01477981305755919 1:-0.497853 2:-0.908029 3:-0.67954 4:-0.73023 5:-0.57082 6:-0.480368 7:-0.87124 8:-0.530961 9:-0.731291 10:-0.336582 11:-0.663055 12:-0.838137 13:-0.725323 14:-0.720628 15:-0.841428 16:-0.685704 17:-0.803513 18:-0.276107 19:-1 20:-0.615447 
0.1139453598022147 1:-0.620651 2:-0.8557 3:-0.717172 4:-0.619048 5:-0.6633 6:-0.490428 7:-0.93266 8:-0.926407 9:-0.841897 10:-0.506934 11:-0.779719 12:-0.809524 13:-0.353536 14:-0.659071 15:-0.85646 16:-0.29552 17:-0.691709 18:-0.767677 19:-0.89899 20:-0.358922 
0.005380109373891458 1:-0.774307 2:-0.925593 3:-0.611109 4:-0.410715 5:-0.6875 6:-0.947449 7:-0.79167 8:-0.848217 9:-0.429349 10:-0.322036 11:-0.454799 12:-0.607143 13:-0.833333 14:-0.698641 15:-0.703947 16:-0.78205 17:-0.642334 18:-0.680554 19:-0.687504 20:-0.533328 
0.6846753606621558 1:-0.71224 2:-0.916293 3:-0.270834 4:-0.607143 5:-0.57031 6:-0.743821 7:-0.6875 8:-0.544643 9:-0.74015 10:-0.427961 11:-0.84666 12:-0.656247 13:-0.854165 14:-0.519714 15:-0.855675 16:-0.673077 17:-0.642334 18:-0.520834 19:-0.707034 20:-0.562493 
0.02373011038601787 1:-0.682033 2:-0.979843 3:-0.19222 4:-0.550597 5:-0.78363 6:-0.482709 7:-0.85889 8:-0.623037 9:-0.731276 10:-0.586711 11:-0.803049 12:-0.657033 13:-0.804325 14:-0.673413 15:-0.83958 16:-0.55221 17:-0.601623 18:-0.560049 19:-0.788334 20:-0.757665 
0.1959670091754148 1:-0.560604 2:-0.825171 3:-0.738928 4:-0.670327 5:-0.72028 6:-0.541385 7:-0.82517 8:-0.847153 9:-0.781089 10:-0.459519 11:-0.816997 12:-0.846151 13:-0.291376 14:-0.671244 15:-0.841001 16:-0.579342 17:-0.71987 18:-0.651512 19:-0.790209 20:-0.412581 
0.02385248616930968 1:-0.403507 2:-1 3:-0.395415 4:-0.491033 5:-0.63563 6:-0.734484 7:-0.83806 8:-0.911508 9:-0.85742 10:-0.308311 11:-0.735126 12:-0.872758 13:-0.460187 14:-0.795029 15:-0.83891 16:-0.2588 17:-0.698805 18:-0.689608 19:-0.81781 20:-0.954651 
0.168539485585927 1:-0.853785 2:-0.956179 3:-0.255621 4:-0.479405 5:-0.69325 6:-0.628604 7:-0.72393 8:-0.553022 9:-0.723927 10:-0.450969 11:-0.83945 12:-0.344438 13:-0.787323 14:-0.822513 15:-0.921538 16:-0.534687 17:-0.75424 18:-0.317997 19:-0.81595 20:-0.725151 
0.5419517597091424 1:-0.656674 2:-0.892936 3:-0.440402 4:-0.582748 5:-0.63597 6:-0.621914 7:-0.95717 8:-0.672376 9:-0.798901 10:-0.425106 11:-0.747831 12:-0.703886 13:-0.805851 14:-0.643789 15:-0.793081 16:-0.652776 17:-0.669139 18:-0.228413 19:-0.743034 20:-0.664234 
0.04202135722646335 1:-0.674861 2:-0.80595 3:-0.492883 4:-0.390129 5:-0.74127 6:-0.771583 7:-0.7542 8:-0.783221 9:-0.787389 10:-0.294847 11:-0.695309 12:-0.804841 13:-0.592928 14:-0.597674 15:-0.878668 16:-0.519554 17:-0.570618 18:-0.494177 19:-0.98059 20:-0.811638 
0.1630231506669359 1:-0.627974 2:-0.96545 3:-0.164854 4:-0.543965 5:-0.60097 6:-0.823095 7:-0.77025 8:-0.665229 9:-0.796541 10:-0.498285 11:-0.762669 12:-0.505962 13:-0.696896 14:-0.737631 15:-0.84535 16:-0.544599 17:-0.577891 18:-0.601372 19:-0.96373 20:-0.661423 
0.01867586840536742 1:-0.761467 2:-0.978157 3:-0.229357 4:-0.346437 5:-0.66361 6:-0.598885 7:-0.93884 8:-0.621231 9:-0.377744 10:-0.601925 11:-0.919974 12:-0.673218 13:-0.820592 14:-0.712469 15:-0.930468 16:-0.568101 17:-0.649991 18:-0.531092 19:-0.95413 20:-0.863001 
0.09550115800591685 1:-0.751154 2:-0.985857 3:-0.242246 4:-0.340315 5:-0.62376 6:-0.750259 7:-0.74257 8:-0.697031 9:-0.721051 10:-0.516696 11:-0.740896 12:-0.514567 13:-0.757093 14:-0.584663 15:-0.921208 16:-0.564967 17:-0.671371 18:-0.514195 19:-0.762369 20:-0.756041 
0.002345886122677735 1:-0.769505 2:-0.949343 3:-0.735223 4:-0.665657 5:-0.71631 6:-0.481211 7:-0.78723 8:-0.767477 9:-0.819613 10:-0.567259 11:-0.582401 12:-0.799392 13:-0.508272 14:-0.769173 15:-0.838745 16:-0.258047 17:-0.573845 18:-0.565009 19:-0.787239 20:-0.523405 
0.2006202613848337 1:-0.579086 2:-0.965879 3:-0.435241 4:-0.489537 5:-0.68153 6:-0.775074 7:-0.84076 8:-0.651954 9:-0.825533 10:-0.132029 11:-0.708302 12:-0.769792 13:-0.67728 14:-0.596915 15:-0.900435 16:-0.400292 17:-0.608164 18:-0.548304 19:-0.904465 20:-0.928667 
0.1661055845927289 1:-0.712583 2:-0.963557 4:-0.422739 5:-0.59184 6:-0.639657 7:-0.94898 8:-0.77697 9:-0.700531 10:-0.501906 11:-0.532692 12:-0.743442 13:-0.809525 14:-0.594094 15:-0.782491 16:-0.626371 17:-0.766424 18:-0.491494 19:-1 20:-0.77143 
0.03024237894465677 1:-0.598763 2:-1 3:-0.446917 4:-0.534392 5:-0.62963 6:-0.794471 7:-0.77778 8:-0.865076 9:-0.89855 10:-0.2467 11:-0.854616 12:-0.860319 13:-0.486421 14:-0.491044 15:-0.852631 16:-0.34131 17:-0.533712 18:-0.517284 19:-0.888895 20:-0.917041 
0.2046834499575072 1:-0.515303 2:-0.916529 3:-0.407903 4:-0.0765537 5:-0.71619 6:-0.503105 7:-0.79967 8:-0.817551 9:-0.849751 10:-0.307318 11:-0.847092 12:-0.895066 13:-0.741792 14:-0.698142 15:-0.814953 16:-0.6507 17:-0.761159 18:-0.603228 19:-0.849745 20:-0.813027 
0.03566215351901435 1:-0.848689 2:-0.847579 3:-0.547362 4:-0.597614 5:-0.29195 6:-0.867888 7:-0.82541 8:-0.49827 9:-0.517987 10:-0.250353 11:-0.619261 12:-0.493975 13:-0.896539 14:-0.677305 15:-0.886978 16:-0.710812 17:-0.661413 18:-0.643064 19:-0.810865 20:-0.489424 
0.8177914266695693 1:-0.846609 2:-0.873579 3:-0.256638 4:-0.568901 5:-0.46903 6:-0.665168 7:-0.64602 8:-0.532556 9:-0.792229 10:-0.13604 11:-0.710514 12:-0.610619 13:-0.740411 14:-0.855985 15:-0.886819 16:-0.606536 17:-0.708803 18:-0.643807 19:-0.933625 20:-0.430087 
0.08624959782279748 1:-0.699076 2:-0.669314 3:-0.567905 4:-0.44709 5:-0.53704 6:-0.789799 7:-0.67593 8:-0.83135 9:-0.728263 10:-0.472691 11:-0.697115 12:-0.592592 13:-0.777776 14:-0.631674 15:-0.815789 16:-0.636755 17:-0.814546 18:-0.503086 19:-0.861115 20:-0.429627 
0.1549240986222366 1:-0.681374 2:-0.973743 3:-0.330885 4:-0.32983 5:-0.55882 6:-0.768162 7:-0.87132 8:-0.71875 9:-0.597187 10:-0.327015 11:-0.903788 12:-0.688028 13:-0.794117 14:-0.760689 15:-0.864164 16:-0.557691 17:-0.66337 18:-0.309434 19:-0.97243 20:-0.938232 
0.1512985628558908 1:-0.875001 2:-0.759614 3:-0.461542 4:-0.516484 5:-0.56731 6:-0.878734 7:-0.71154 8:-0.789836 9:-0.623745 10:-0.413301 11:-0.433837 12:-0.607143 13:-0.794869 14:-0.582739 15:-0.836033 16:-0.54734 17:-0.614819 18:-0.63141 19:-0.711534 20:-0.676924 
0.03615956816894955 1:-0.65621 2:-0.841857 3:-0.104552 4:-0.176597 5:-0.8155 6:-0.543922 7:-0.83395 8:-0.690831 9:-0.754531 10:-0.459625 11:-0.662022 12:-0.768057 13:-0.74416 14:-0.746462 15:-0.910857 16:-0.613964 17:-0.704362 18:-0.618086 19:-0.94465 20:-0.79336 
0.03477294052253288 1:-0.708444 2:-0.849229 3:-0.655236 4:-0.751224 5:-0.6438 6:-0.846926 7:-0.73615 8:-0.567469 9:-0.741884 10:-0.0769669 11:-0.723808 12:-0.30343 13:-0.781883 14:-0.627877 15:-0.917511 16:-0.427236 17:-0.682913 18:-0.757258 19:-0.90106 20:-0.468077 
0.02140803108215186 1:-0.570649 2:-0.956221 3:-0.761664 4:-0.666134 5:-0.79571 6:-0.592912 7:-0.81614 8:-0.836276 9:-0.884088 10:-0.285328 11:-0.759424 12:-0.871589 13:-0.515152 14:-0.224293 15:-0.89549 16:-0.51379 17:-0.631741 18:-0.365684 19:-0.862105 20:-0.622469 
0.07851804143457217 1:-0.670666 2:-0.857143 3:-0.738667 4:-0.698286 5:-0.72 6:-0.434985 7:-0.64 8:-0.883429 9:-0.765217 10:-0.511864 11:-0.685967 12:-0.824 13:-0.317333 14:-0.566046 15:-0.829474 16:-0.560615 17:-0.748203 18:-0.785334 19:-0.82 20:-0.462399 
0.2323435980696884 1:-0.764171 2:-0.854229 3:-0.238093 4:-0.572402 5:-0.54649 6:-0.748331 7:-0.84127 8:-0.719143 9:-0.716062 10:-0.225181 11:-0.703291 12:-0.81471 13:-0.64928 14:-0.671996 15:-0.883997 16:-0.549275 17:-0.714514 18:-0.617534 19:-0.693879 20:-0.466666 
0.1256148668885368 1:-0.542521 2:-0.916214 3:-0.726291 4:-0.797236 5:-0.82405 6:-0.556176 7:-0.64809 8:-0.572686 9:-0.862296 10:-0.498977 11:-0.808139 12:-0.76037 13:-0.452592 14:-0.681854 15:-0.849977 16:-0.447777 17:-0.748272 18:-0.460413 19:-0.82405 20:-0.540172 
0.03506631298194485 1:-0.439569 2:-0.983507 3:-0.180908 4:-0.390299 5:-0.49192 6:-0.848541 7:-0.83834 8:-0.764431 9:-0.493926 10:-0.530275 11:-0.909349 12:-0.796764 13:-0.815243 14:-0.832964 15:-0.829343 16:-0.637591 17:-0.709243 18:-0.57506 19:-0.792144 20:-0.767207 
0.1663040211942646 1:-0.883334 2:-0.766486 3:-0.371793 4:-0.637365 5:-0.38462 6:-0.660446 7:-0.75 8:-0.649725 9:-0.781773 10:-0.35854 11:-0.698044 12:-0.61319 13:-0.712821 14:-0.763553 15:-0.885222 16:-0.507099 17:-0.625824 18:-0.513459 19:-0.798069 20:-0.655386 
0.0456704943615201 1:-0.687501 2:-0.931321 3:-0.528845 4:-0.728024 5:-0.78365 6:-0.514925 7:-0.66346 8:-0.702269 9:-0.86831 10:-0.530641 11:-0.811279 12:-0.77335 13:-0.487179 14:-0.721821 15:-0.822368 16:-0.459322 17:-0.656091 18:-0.373397 19:-0.89182 20:-0.542311 
0.1241088559967757 1:-0.781309 2:-0.946593 3:-0.337073 4:-0.565287 5:-0.71963 6:-0.60396 7:-0.73832 8:-0.482511 9:-0.780576 10:-0.209252 11:-0.828799 12:-0.600537 13:-0.870405 14:-0.743143 15:-0.920316 16:-0.45248 17:-0.711195 18:-0.426795 19:-0.663549 20:-0.685985 
0.001380749742818977 1:-0.784291 2:-0.873579 3:-0.432151 4:-0.624523 5:-0.41372 6:-0.76562 7:-0.87832 8:-0.532556 9:-0.722972 10:-0.36103 11:-0.68157 12:-0.596715 13:-0.752213 14:-0.807983 15:-0.858523 16:-0.467665 17:-0.658157 18:-0.558999 19:-0.83407 20:-0.553981 
0.5806201223470725 1:-0.835546 2:-0.769586 3:-0.344717 4:-0.65411 5:-0.48767 6:-0.636242 7:-0.69639 8:-0.571425 9:-0.769819 10:-0.413374 11:-0.677226 12:-0.689888 13:-0.696395 14:-0.752964 15:-0.902925 16:-0.523571 17:-0.641653 18:-0.563568 19:-0.800755 20:-0.574948 
0.001578602509233581 1:-0.793651 2:-0.921507 3:-0.247865 4:-0.792779 5:-0.59707 6:-0.741294 7:-0.59707 8:-0.599687 9:-0.799331 10:-0.58279 11:-0.616565 12:-0.769754 13:-0.687424 14:-0.6291 15:-0.677271 16:-0.616794 17:-0.727493 18:-0.382175 19:-0.450549 20:-0.876923 
0.01821742361696967 1:-0.598945 2:-0.919379 3:-0.83145 4:-0.787166 5:-0.81941 6:-0.476166 7:-0.61625 8:-0.917766 9:-0.832173 10:-0.467419 11:-0.763703 12:-0.801353 13:-0.0609493 14:-0.55919 15:-0.903766 16:-0.42143 17:-0.677053 18:-0.809629 19:-0.932275 20:-0.469074 
0.01024694251798193 1:-0.531094 2:-0.920043 3:-0.477614 4:-0.554368 5:-0.70149 6:-0.491759 7:-0.88806 8:-0.918444 9:-0.82479 10:-0.27144 11:-0.804711 12:-0.859276 13:-0.343285 14:-0.703139 15:-0.766692 16:-0.648681 17:-0.743762 18:-0.628114 19:-0.888055 20:-0.83284 
0.821578309785865 1:-0.876192 2:-0.890107 3:-0.241024 4:-0.640816 5:-0.56044 6:-0.678466 7:-0.53846 8:-0.567659 9:-0.673198 10:-0.463587 11:-0.913732 12:-0.682264 13:-0.753845 14:-0.745667 15:-0.862579 16:-0.402196 17:-0.710725 18:-0.663005 19:-0.736269 20:-0.532309 
0.1801539403333913 1:-0.885102 2:-0.918829 3:-0.593431 4:-0.666669 5:-0.67803 6:-0.722921 7:-0.79167 8:-0.641237 9:-0.659092 10:-0.291218 11:-0.702623 12:-0.321426 13:-0.747477 14:-0.671244 15:-0.849283 16:-0.494755 17:-0.653173 18:-0.666033 19:-0.88636 20:-0.448488 
0.02371133261448691 1:-0.412235 2:-0.943007 3:-0.702127 4:-0.832825 5:-0.84043 6:-0.691411 7:-0.57447 8:-0.883742 9:-0.854302 10:-0.480704 11:-0.4084 12:-0.849545 13:-0.205675 14:-0.730703 15:-0.863943 16:-0.471358 17:-0.649945 18:-0.653368 19:-0.920215 20:-0.493613 
0.1572756159369304 1:-0.764938 2:-0.865229 3:-0.207545 4:-0.451484 5:-0.66981 6:-0.69065 7:-0.57547 8:-0.621966 9:-0.796964 10:-0.309238 11:-0.753117 12:-0.703503 13:-0.698112 14:-0.710017 15:-0.899455 16:-0.679244 17:-0.743562 18:-0.49371 19:-0.540099 20:-0.683017 
0.06043003099325667 1:-0.763824 2:-0.881514 3:-0.292264 4:-0.672307 5:-0.64455 6:-0.748957 7:-0.57346 8:-0.516586 9:-0.796001 10:-0.305968 11:-0.720942 12:-0.538252 13:-0.785152 14:-0.76006 15:-0.912446 16:-0.405031 17:-0.606739 18:-0.691157 19:-0.573459 20:-0.787681 
0.3593080626521073 1:-0.622224 2:-0.81685 3:-0.425646 4:-0.258607 5:-0.64103 6:-0.793033 7:-0.89744 8:-0.850548 9:-0.799331 10:-0.0404136 11:-0.731593 12:-0.806595 13:-0.480341 14:-0.888727 15:-0.8834 16:-0.490335 17:-0.589142 18:-0.685468 19:-0.92308 20:-0.885133 
0.130999252595122 1:-0.734904 2:-0.899157 3:-0.275296 4:-0.467563 5:-0.67059 6:-0.703246 7:-0.45882 8:-0.622855 9:-0.779026 10:-0.330009 11:-0.784482 12:-0.67462 13:-0.749019 14:-0.795788 15:-0.933128 16:-0.556923 17:-0.66337 18:-0.512945 19:-0.505884 20:-0.789171 
0.2731427820063934 1:-0.870988 2:-0.895129 3:-0.280588 4:-0.633417 5:-0.69005 6:-0.755167 7:-0.79608 8:-0.494875 9:-0.706361 10:-0.402773 11:-0.653137 12:-0.233514 13:-0.743339 14:-0.76403 15:-0.901476 16:-0.554145 17:-0.70593 18:-0.581025 19:-0.93883 20:-0.515823 
0.006910659167910712 1:-0.471185 2:-0.878936 3:-0.525429 4:-0.701693 5:-0.49153 6:-0.504074 7:-0.86441 8:-0.604845 9:-0.641859 10:-0.255389 11:-0.822584 12:-0.74431 13:-0.855365 14:-0.828378 15:-0.913293 16:-0.734031 17:-0.650821 18:-0.350282 19:-0.8983 20:-0.734235 
0.1456179238063371 1:-0.548856 2:-1 3:-0.130592 4:-0.776128 5:-0.28767 6:-0.474789 7:-0.91781 8:-0.820349 9:-0.742706 10:-0.509635 11:-0.784913 12:-0.586696 13:-0.956165 14:-0.682953 15:-0.937707 16:-0.727712 17:-0.576678 18:-0.474888 19:-0.794514 20:-0.232877 
0.1149954026177056 1:-0.806729 2:-0.9497 3:-0.627544 4:-0.940977 5:-0.41315 6:-0.727628 7:-0.83568 8:-0.469819 9:-0.834658 10:-0.0260217 11:-0.692849 12:-0.5721 13:-0.849765 14:-0.762309 15:-0.899927 16:-0.312389 17:-0.46266 18:-0.442098 19:-0.929575 20:-0.500468 
0.06959725475100653 1:-0.591873 2:-0.871386 3:-0.638044 4:-0.817174 5:-0.69529 6:-0.580769 7:-0.8338 8:-0.525722 9:-0.83199 10:-0.391522 11:-0.619418 12:-0.599525 13:-0.719296 14:-0.819685 15:-0.854351 16:-0.471127 17:-0.556139 18:-0.617733 19:-0.688359 20:-0.596676 
0.1215049306756676 1:-0.685183 2:-0.908421 3:-0.56125 4:-0.570208 5:-0.52991 6:-0.827529 7:-0.74359 8:-0.439561 9:-0.765886 10:-0.30465 11:-0.3849 12:-0.73138 13:-0.77208 14:-0.783638 15:-0.951417 16:-0.485863 17:-0.657619 18:-0.475785 19:-0.807685 20:-0.42564 
0.07393667698388275 1:-0.65134 2:-0.9179 3:-0.558963 4:-0.815364 5:-0.20817 6:-0.806715 7:-0.93614 8:-0.516149 9:-0.825087 10:-0.116823 11:-0.749336 12:-0.550446 13:-0.816091 14:-0.722891 15:-0.901996 16:-0.51901 17:-0.590716 18:-0.383141 19:-0.82759 20:-0.613789 
0.4206759072760672 1:-0.770628 2:-0.831314 3:-0.483167 4:-0.590505 5:-0.5684 6:-0.765837 7:-0.80456 8:-0.323638 9:-0.649481 10:-0.224864 11:-0.754923 12:-0.426712 13:-0.852336 14:-0.840978 15:-0.916681 16:-0.646452 17:-0.67845 18:-0.581707 19:-0.877855 20:-0.543969 
0.4499751112260239 1:-0.873228 2:-0.905014 3:-0.404254 4:-0.749238 5:-0.3617 6:-0.771911 7:-0.68085 8:-0.379942 9:-0.656568 10:-0.285971 11:-0.756402 12:-0.665657 13:-0.716315 14:-0.826881 15:-0.8715 16:-0.624384 17:-0.619506 18:-0.755319 19:-0.601059 20:-0.314894 
3.186401087368141 1:-0.703994 2:-0.888021 3:-0.487871 4:-0.70437 5:-0.49608 6:-0.700588 7:-0.80963 8:-0.486001 9:-0.77214 10:-0.280276 11:-0.853477 12:-0.67621 13:-0.713328 14:-0.829919 15:-0.898156 16:-0.525543 17:-0.673173 18:-0.399034 19:-0.714444 20:-0.47324 
0.2980049860854305 1:-0.540636 2:-0.924279 3:-0.670198 4:-0.755681 5:-0.18728 6:-0.465219 7:-0.85866 8:-0.639576 9:-0.903211 10:-0.0513235 11:-0.768819 12:-0.622411 13:-0.773851 14:-0.846662 15:-0.929701 16:-0.704268 17:-0.656234 18:-0.485276 19:-0.734979 20:-0.445935 
0.7075609186490009 1:-0.730085 2:-0.911014 3:-0.545486 4:-0.594239 5:-0.49037 6:-0.600076 7:-0.88675 8:-0.496681 9:-0.716383 10:-0.35505 11:-0.659169 12:-0.722373 13:-0.84296 14:-0.762461 15:-0.884127 16:-0.561635 17:-0.675955 18:-0.41827 19:-0.745179 20:-0.518007 
0.3005209473767679 1:-0.385008 2:-0.81285 3:-0.796216 4:-0.794137 5:-0.41048 6:-0.504336 7:-0.9345 8:-0.745481 9:-0.931651 10:-0.289469 11:-0.857154 12:-0.835308 13:-0.70888 14:-0.826295 15:-0.714548 16:-0.554584 17:-0.812577 18:-0.313681 19:-0.737994 20:-0.633188 
0.06273794484784248 1:-0.63996 2:-0.76685 3:-0.473787 4:-0.720223 5:-0.46588 6:-0.446124 7:-0.85163 8:-0.589232 9:-0.84905 10:-0.348184 11:-0.339941 12:-0.701567 13:-0.841739 14:-0.871231 15:-0.957832 16:-0.596441 17:-0.711321 18:-0.226511 19:-0.777444 20:-0.700892 
0.4442929693555551 1:-0.797884 2:-0.933371 3:-0.564675 4:-0.671641 5:-0.25373 6:-0.698822 7:-0.79478 8:-0.578624 9:-0.759086 10:-0.301794 11:-0.609408 12:-0.624737 13:-0.661691 14:-0.770612 15:-0.946975 16:-0.580367 17:-0.722411 18:-0.399256 19:-0.776124 20:-0.331347 
0.1188103355855874 1:-0.750738 2:-0.857771 3:-0.297938 4:-0.596715 5:-0.5354 6:-0.598204 7:-0.95575 8:-0.516433 9:-0.861486 10:-0.316032 11:-0.594727 12:-0.638433 13:-0.728613 14:-0.807983 15:-0.893106 16:-0.57182 17:-0.569536 18:-0.677732 19:-0.900445 20:-0.355752 
2.148649672912672 1:-0.709172 2:-0.9201 3:-0.603278 4:-0.613297 5:-0.46309 6:-0.621925 7:-0.83221 8:-0.568074 9:-0.772394 10:-0.362982 11:-0.590186 12:-0.683602 13:-0.809099 14:-0.708759 15:-0.844224 16:-0.607985 17:-0.699143 18:-0.42543 19:-0.765099 20:-0.486356 
0.3357955965520225 1:-0.694118 2:-0.915964 3:-0.524187 4:-0.802798 5:-0.2549 6:-0.782384 7:-0.88235 8:-0.557145 9:-0.815856 10:-0.154532 11:-0.66647 12:-0.593277 13:-0.696731 14:-0.758917 15:-0.905264 16:-0.702563 17:-0.607271 18:-0.383662 19:-0.794124 20:-0.319218 
0.413104216933635 1:-0.757762 2:-1 3:-0.478258 4:-0.648622 5:-0.56522 6:-0.388987 7:-0.93789 8:-0.479589 9:-0.793411 10:-0.140962 11:-0.715551 12:-0.668146 13:-0.850933 14:-0.910157 15:-0.902911 16:-0.382707 17:-0.75119 18:-0.357143 19:-0.906835 20:-0.652172 
0.01059671795090864 1:-0.813467 2:-0.787136 3:-0.721858 4:-0.604541 5:-0.40397 6:-0.766134 7:-0.83444 8:-0.445128 9:-0.766771 10:-0.46122 11:-0.523402 12:-0.708607 13:-0.85872 14:-0.592872 15:-0.802371 16:-0.636273 17:-0.677866 18:-0.263802 19:-0.85099 20:-0.517884 
0.1032609513472388 1:-0.757762 2:-0.833629 3:-0.69565 4:-0.638867 5:-0.45652 6:-0.733661 7:-0.7205 8:-0.604036 9:-0.793411 10:-0.178857 11:-0.451423 12:-0.551018 13:-0.759835 14:-0.876461 15:-0.885256 16:-0.658865 17:-0.573467 18:-0.500004 19:-0.720489 20:-0.460864 
0.193971148343066 1:-0.61627 2:-0.768593 3:-0.496038 4:-0.782785 5:-0.35205 6:-0.749396 7:-0.82721 8:-0.606601 9:-0.907034 10:-0.279568 11:-0.745659 12:-0.714905 13:-0.723541 14:-0.796924 15:-0.828124 16:-0.525501 17:-0.690999 18:-0.188623 19:-0.708429 20:-0.806475 
1.039610529151257 1:-0.688455 2:-0.892621 3:-0.536386 4:-0.650791 5:-0.3268 6:-0.653792 7:-0.77778 8:-0.619045 9:-0.828644 10:-0.271522 11:-0.743435 12:-0.679554 13:-0.783877 14:-0.758917 15:-0.864398 16:-0.548715 17:-0.633452 18:-0.513942 19:-0.774504 20:-0.516864 
0.0896800185357763 1:-0.600245 2:-0.828679 3:-0.621161 4:-0.65208 5:-0.39114 6:-0.450846 7:-0.8893 8:-0.583287 9:-0.76897 10:-0.174431 11:-0.589598 12:-0.814446 13:-0.714635 14:-0.853215 15:-0.910857 16:-0.613964 17:-0.736042 18:-0.504918 19:-0.83395 20:-0.690039 
0.06682178609381177 1:-0.83389 2:-0.916664 3:-0.471109 4:-0.717143 5:-0.26667 6:-0.857066 7:-0.7 8:-0.453572 9:-0.752175 10:-0.0508435 11:-0.825541 12:-0.444764 13:-0.786667 14:-0.770966 15:-0.881578 16:-0.433335 17:-0.818781 18:-0.591114 19:-0.899995 20:-0.477328 
0.03052994718058091 1:-0.765129 2:-1 3:-0.405598 4:-0.68486 5:-0.57995 6:-0.685554 7:-0.8916 8:-0.378048 9:-0.899259 10:-0.327543 11:-0.840432 12:-0.352691 13:-0.833787 14:-0.823598 15:-0.953787 16:-0.574733 17:-0.480463 18:-0.252034 19:-0.898375 20:-0.332243 
0.2444603203117672 1:-0.657073 2:-0.864521 3:-0.529974 4:-0.699895 5:-0.42446 6:-0.683259 7:-0.81033 8:-0.580678 9:-0.785025 10:-0.308287 11:-0.640576 12:-0.74101 13:-0.776763 14:-0.716187 15:-0.864307 16:-0.548423 17:-0.663153 18:-0.558753 19:-0.764544 20:-0.428642 
0.3446958893973983 1:-0.731563 2:-0.873579 3:-0.256638 4:-0.749684 5:-0.51327 6:-0.508917 7:-0.82301 8:-0.484201 9:-0.619085 10:-0.316032 11:-0.652614 12:-0.944371 13:-0.787611 14:-0.871991 15:-0.886819 16:-0.490811 17:-0.670821 18:-0.660766 19:-0.734514 20:-0.603541 
0.1447811905449963 1:-0.783927 2:-0.887786 3:-0.426234 4:-0.665104 5:-0.52869 6:-0.713992 7:-0.72678 8:-0.646665 9:-0.764791 10:-0.277575 11:-0.624612 12:-0.622172 13:-0.741349 14:-0.738167 15:-0.860225 16:-0.496219 17:-0.687285 18:-0.481558 19:-0.774594 20:-0.609836 
1.130866894977329 1:-0.733881 2:-0.869057 3:-0.341282 4:-0.62551 5:-0.55087 6:-0.704064 7:-0.89918 8:-0.572606 9:-0.75252 10:-0.254299 11:-0.784115 12:-0.567895 13:-0.760464 14:-0.701678 15:-0.882772 16:-0.645207 17:-0.695772 18:-0.465933 19:-0.766269 20:-0.507244 
0.224792158138847 1:-0.465881 2:-0.923443 3:-0.499818 4:-0.609249 5:-0.61415 6:-0.551217 7:-0.87138 8:-0.789159 9:-0.899345 10:-0.398331 11:-0.705489 12:-0.804621 13:-0.651307 14:-0.790697 15:-0.762397 16:-0.669222 17:-0.662649 18:-0.416575 19:-0.85531 20:-0.531828 
0.0978286629010989 1:-0.762338 2:-0.830243 3:-0.658746 4:-0.804646 5:-0.26874 6:-0.594204 7:-0.81718 8:-0.56046 9:-0.806852 10:-0.107614 11:-0.736866 12:-0.689737 13:-0.824496 14:-0.801669 15:-0.922064 16:-0.321051 17:-0.71753 18:-0.453383 19:-0.890305 20:-0.46764 
0.8524174045115438 1:-0.752007 2:-0.623493 3:-0.606423 4:-0.592944 5:-0.56325 6:-0.703695 7:-0.81928 8:-0.604991 9:-0.758381 10:-0.473146 11:-0.625594 12:-0.668674 13:-0.718875 14:-0.651441 15:-0.85447 16:-0.558853 17:-0.672498 18:-0.676705 19:-0.774099 20:-0.44337 
0.09351456242697401 1:-0.803028 2:-0.918829 3:-0.284088 4:-0.589285 5:-0.26136 6:-0.756363 7:-0.91477 8:-0.523944 9:-0.744318 10:-0.191061 11:-0.739797 12:-0.714283 13:-0.742427 14:-0.712339 15:-0.90311 16:-0.732519 17:-0.642334 18:-0.455491 19:-0.82954 20:-0.363637 
1.698751815349641 1:-0.711798 2:-0.762471 3:-0.490102 4:-0.567015 5:-0.42993 6:-0.580603 7:-0.83373 8:-0.636582 9:-0.730454 10:-0.304316 11:-0.844606 12:-0.701391 13:-0.797307 14:-0.725126 15:-0.84473 16:-0.614838 17:-0.796107 18:-0.47189 19:-0.82186 20:-0.600954 
0.3406243047850788 1:-0.697858 2:-0.777193 3:-0.31499 4:-0.677065 5:-0.55963 6:-0.648253 7:-0.92661 8:-0.61232 9:-0.763065 10:-0.402895 11:-0.735911 12:-0.630928 13:-0.814069 14:-0.800938 15:-0.942638 16:-0.500917 17:-0.537987 18:-0.437314 19:-0.86239 20:-0.486232 
0.2757482332223717 1:-0.661848 2:-0.9071 3:-0.743735 4:-0.727496 5:-0.46532 6:-0.635495 7:-0.73988 8:-0.51569 9:-0.824703 10:-0.106491 11:-0.792005 12:-0.627578 13:-0.722544 14:-0.811866 15:-0.897323 16:-0.410403 17:-0.677482 18:-0.523602 19:-0.826585 20:-0.627745 
1.660575168658407 1:-0.731563 2:-0.841971 3:-0.463129 4:-0.768227 5:-0.52802 6:-0.583322 7:-0.85251 8:-0.527179 9:-0.826856 10:-0.16004 11:-0.749114 12:-0.675519 13:-0.677483 14:-0.818651 15:-0.882627 16:-0.575675 17:-0.721461 18:-0.513765 19:-0.601764 20:-0.471381 
0.1510710617731602 1:-0.670718 2:-0.891443 3:-0.801415 4:-0.732524 5:-0.63526 6:-0.723995 7:-0.87842 8:-0.601392 9:-0.75023 10:-0.307611 11:-0.244344 12:-0.598783 13:-0.708208 14:-0.714212 15:-0.87906 16:-0.586628 17:-0.547756 18:-0.487339 19:-0.81763 20:-0.523405 
1.504467380935351 1:-0.656085 2:-0.73545 3:-0.654322 4:-0.678511 5:-0.32981 6:-0.501753 7:-0.91182 8:-0.588816 9:-0.882679 10:-0.339967 11:-0.538463 12:-0.789366 13:-0.746032 14:-0.795904 15:-0.879699 16:-0.566411 17:-0.737588 18:-0.283367 19:-0.81481 20:-0.644444 
0.4323253104746754 1:-0.722523 2:-0.902686 3:-0.427793 4:-0.614636 5:-0.50954 6:-0.79381 7:-0.74114 8:-0.672442 9:-0.706788 10:-0.346052 11:-0.536513 12:-0.563256 13:-0.847413 14:-0.73395 15:-0.833501 16:-0.65081 17:-0.703732 18:-0.425522 19:-0.795639 20:-0.465938 
0.1427064369564224 1:-0.758035 2:-1 3:-0.43147 4:-0.702202 5:-0.45854 6:-0.607345 7:-0.88156 8:-0.346625 9:-0.834474 10:-0.366773 11:-0.778606 12:-0.521393 13:-0.729275 14:-0.71853 15:-0.927865 16:-0.663672 17:-0.65141 18:-0.507049 19:-0.670044 20:-0.298811 
0.1376698852207424 1:-0.533755 2:-0.819171 3:-0.291144 4:-0.641953 5:-0.36709 6:-0.584926 7:-0.55696 8:-0.631103 9:-0.727574 10:-0.330619 11:-0.75156 12:-0.801082 13:-0.797467 14:-0.90845 15:-0.856096 16:-0.602728 17:-0.782682 18:-0.563292 19:-0.905065 20:-0.85823 
0.3569228025250267 1:-0.805468 2:-0.789914 3:-0.479873 4:-0.688631 5:-0.56656 6:-0.734484 7:-0.79876 8:-0.52632 9:-0.842508 10:-0.269561 11:-0.756938 12:-0.562144 13:-0.719296 14:-0.630532 15:-0.868013 16:-0.619435 17:-0.66337 18:-0.525281 19:-0.674919 20:-0.375845 
0.1869803911087476 1:-0.82505 2:-0.966729 3:-0.420289 4:-0.668146 5:-0.47205 6:-0.639657 7:-0.7205 8:-0.434338 9:-0.799488 10:-0.0399011 11:-0.857769 12:-0.590065 13:-0.850933 14:-0.775385 15:-0.854365 16:-0.61013 17:-0.582355 18:-0.726193 19:-0.604029 20:-0.495652 
0.4480414013957079 1:-0.676278 2:-0.915743 3:-0.620797 4:-0.752858 5:-0.54128 6:-0.636353 7:-0.82962 8:-0.322036 9:-0.866659 10:-0.370906 11:-0.759908 12:-0.522185 13:-0.755349 14:-0.7725 15:-0.910602 16:-0.444702 17:-0.669992 18:-0.437314 19:-0.842725 20:-0.515599 
0.2183819627519402 1:-0.762308 2:-0.879443 3:-0.488049 4:-0.496081 5:-0.36709 6:-0.765852 7:-0.83122 8:-0.415912 9:-0.735826 10:-0.244796 11:-0.779156 12:-0.681736 13:-0.774965 14:-0.725343 15:-0.916056 16:-0.580655 17:-0.710245 18:-0.611814 19:-0.746829 20:-0.432909 
0.3758724246502467 1:-0.743661 2:-0.879279 3:-0.369012 4:-0.805231 5:-0.52113 6:-0.545259 7:-0.88732 8:-0.671633 9:-0.955908 10:-0.152067 11:-0.815702 12:-0.256338 13:-0.789669 14:-0.81664 15:-0.839882 16:-0.616904 17:-0.613114 18:-0.373711 19:-0.91549 20:-0.621405 
0.5865969229271101 1:-0.790323 2:-0.953914 3:-0.337633 4:-0.75668 5:-0.35484 6:-0.674531 7:-0.87097 8:-0.435948 9:-0.86115 10:-0.291413 11:-0.704534 12:-0.452533 13:-0.793547 14:-0.696702 15:-0.889982 16:-0.510672 17:-0.686175 18:-0.505378 19:-0.758064 20:-0.602578 
-4.557952455481926 1:-0.598313 2:-0.819421 3:-0.632958 4:-0.646869 5:-0.46629 6:-0.504023 7:-0.88764 8:-0.652086 9:-0.714215 10:-0.360118 11:-0.77947 12:-0.664525 13:-0.835205 14:-0.756205 15:-0.896215 16:-0.662056 17:-0.694576 18:-0.397002 19:-0.747189 20:-0.559548 
-1.792246185709625 1:-0.485875 2:-0.969736 3:-0.248593 4:-0.440679 5:-0.57627 6:-0.65798 7:-0.78814 8:-0.907384 9:-0.834193 10:-0.27607 11:-0.722787 12:-0.866831 13:-0.706213 14:-0.693534 15:-0.759143 16:-0.64537 17:-0.636274 18:-0.512715 19:-1 20:-0.857625 
-2.157060586918205 1:-0.82765 2:-0.939121 3:-0.416667 4:-0.625001 5:-0.34659 6:-0.555717 7:-0.71591 8:-0.606739 9:-0.788786 10:-0.445298 11:-0.739797 12:-0.749998 13:-0.727275 14:-0.815078 15:-0.919259 16:-0.361015 17:-0.723624 18:-0.43371 19:-0.82954 20:-0.427275 
-5.738997661306381 1:-0.649832 2:-0.92785 3:-0.434345 4:-0.68254 5:-0.4697 6:-0.490428 7:-0.84848 8:-0.595235 9:-0.772726 10:-0.2604 11:-0.636533 12:-0.825396 13:-0.757573 14:-0.707775 15:-0.935408 16:-0.59052 17:-0.580918 18:-0.554713 19:-0.88636 20:-0.519194 
-1.374333350307607 1:-0.786007 2:-0.882421 3:-0.500686 4:-0.637861 5:-0.42387 6:-0.58479 7:-0.83539 8:-0.700178 9:-0.694043 10:-0.464319 11:-0.784612 12:-0.560258 13:-0.714677 14:-0.821421 15:-0.847953 16:-0.677115 17:-0.740952 18:-0.621398 19:-0.753084 20:0.0139944 
-2.04352215954854 1:-0.484684 2:-0.961393 3:-0.697302 4:-0.456374 5:-0.45946 6:-0.618232 7:-0.67568 8:-1 9:-0.682726 10:-0.604211 11:-0.858541 12:-0.830116 13:-0.596395 14:-0.648143 15:-0.846373 16:-0.717256 17:-0.690667 18:0.0774792 19:-1 20:-1 
-2.287079977961247 1:-0.66362 2:-0.836921 3:-0.445965 4:-0.82779 5:-0.45205 6:-0.700537 7:-0.86301 8:-0.66732 9:-0.857056 10:-0.0341329 11:-0.701263 12:-0.483365 13:-0.70776 14:-0.867897 15:-0.896178 16:-0.665613 17:-0.581908 18:-0.404868 19:-0.93151 20:-0.437445 
-2.28008738255566 1:-0.489056 2:-0.946693 3:-0.247762 4:-0.77484 5:-0.73134 6:-0.555757 7:-0.77612 8:-0.82601 9:-0.877353 10:-0.247156 11:-0.843768 12:-0.831128 13:-0.641792 14:-0.816488 15:-0.855775 16:-0.648681 17:-0.615643 18:-0.267666 19:-0.597009 20:-0.615525 
-4.468914383918015 1:-0.773254 2:-0.937707 3:-0.403106 4:-0.652821 5:-0.4186 6:-0.589381 7:-0.7093 8:-0.618768 9:-0.772496 10:-0.243202 11:-0.847851 12:-0.744184 13:-0.736432 14:-0.768724 15:-0.933904 16:-0.513418 17:-0.667285 18:-0.39826 19:-0.82558 20:-0.446506 
-2.105417791701375 1:-0.642027 2:-0.937886 3:-0.513043 4:-0.508074 5:-0.69565 6:-0.210382 7:-0.82609 8:-0.904972 9:-0.89792 10:-0.610907 11:-0.772444 12:-0.72671 13:-0.744928 14:-0.685542 15:-0.752859 16:-0.613378 17:-0.701426 18:-0.2 19:-1 20:-0.80522 
-1.855228762909776 1:-0.403668 2:-0.978157 3:-0.800202 4:-0.826998 5:-0.60245 6:-0.521751 7:-0.63303 8:-0.598951 9:-0.880335 10:-0.452653 11:-0.679882 12:-0.519439 13:-0.657493 14:-0.823055 15:-0.843554 16:-0.696071 17:-0.71999 18:-0.390417 19:-0.90826 20:-0.451983 
-3.200823935184249 1:-0.747492 2:-0.838886 3:-0.245616 4:-0.621915 5:-0.47368 6:-0.639657 7:-0.79323 8:-0.67132 9:-0.786696 10:-0.174204 11:-0.827831 12:-0.59828 13:-0.719296 14:-0.768883 15:-0.941234 16:-0.646039 17:-0.741834 18:-0.495619 19:-0.661659 20:-0.452632 
-1.070159254097848 1:-0.825267 2:-0.942393 3:-0.435483 4:-0.695853 5:-0.39516 6:-0.633845 7:-0.87903 8:-0.61809 9:-0.668655 10:-0.311101 11:-0.683428 12:-0.467745 13:-0.720432 14:-0.825015 15:-0.931238 16:-0.641441 17:-0.676945 18:-0.690858 19:-0.758064 20:-0.0516153 
-1.282598372123072 1:-0.723672 2:-0.937886 3:-0.485995 4:-0.908901 5:-0.33333 6:-0.502833 7:-0.97101 8:-0.725467 9:-0.637049 10:-0.292552 11:-0.886215 12:-0.72671 13:-0.768117 14:-0.895178 15:-0.892907 16:-0.348047 17:-0.601903 18:-0.244444 19:-0.82609 20:-0.772751 
-9.669722842278924 1:-0.695908 2:-0.805071 3:-0.490578 4:-0.65692 5:-0.47368 6:-0.508306 7:-0.84405 8:-0.588139 9:-0.778796 10:-0.365643 11:-0.66842 12:-0.754945 13:-0.77128 14:-0.732127 15:-0.905818 16:-0.571752 17:-0.74343 18:-0.327489 19:-0.82456 20:-0.628854 
-2.621819154132013 1:-0.746959 2:-0.869657 3:-0.386866 4:-0.644424 5:-0.39781 6:-0.585738 7:-0.79927 8:-0.667626 9:-0.728658 10:-0.39131 11:-0.76123 12:-0.690303 13:-0.776155 14:-0.749232 15:-0.85997 16:-0.685008 17:-0.686713 18:-0.566305 19:-0.726279 20:-0.264237 
-3.851169406251435 1:-0.604167 2:-0.862636 3:-0.237178 4:-0.576921 5:-0.51923 6:-0.733207 7:-0.90385 8:-0.544643 9:-0.717811 10:-0.452409 11:-0.811279 12:-0.576921 13:-0.923077 14:-0.687054 15:-0.904352 16:-0.54734 17:-0.697357 18:-0.410258 19:-0.855775 20:-0.676924 
-4.781346785046106 1:-0.629235 2:-0.9809 3:-0.550806 4:-0.781515 5:-0.4385 6:-0.662782 7:-0.89305 8:-0.571425 9:-0.84306 10:-0.238646 11:-0.755093 12:-0.59664 13:-0.686272 14:-0.806616 15:-0.848016 16:-0.454546 17:-0.709278 18:-0.487523 19:-0.759354 20:-0.520852 
-1.92137526156559 1:-0.657614 2:-0.92945 3:-0.400819 4:-0.580951 5:-0.40741 6:-0.526664 7:-0.77778 8:-0.568256 9:-0.768117 10:-0.176392 11:-0.870762 12:-0.720638 13:-0.749792 14:-0.785699 15:-0.957894 16:-0.664195 17:-0.604358 18:-0.659263 19:-0.851845 20:-0.419256 
-1.528883618690636 1:-0.710004 2:-0.849764 3:-0.411086 4:-0.627427 5:-0.36902 6:-0.662394 7:-0.8088 8:-0.609945 9:-0.820434 10:-0.284441 11:-0.774838 12:-0.591366 13:-0.745061 14:-0.668105 15:-0.918486 16:-0.629944 17:-0.770218 18:-0.560233 19:-0.684504 20:-0.336141 
-2.571914666746425 1:-0.727663 2:-0.867971 3:-0.258169 4:-0.721153 5:-0.33457 6:-0.580381 7:-0.83364 8:-0.717191 9:-0.746846 10:-0.353366 11:-0.758142 12:-0.651438 13:-0.773259 14:-0.812836 15:-0.879171 16:-0.6906 17:-0.598041 18:-0.560693 19:-0.750459 20:-0.358227 
-2.217139956013426 1:-0.560387 2:-0.958593 3:-0.675359 4:-0.744926 5:-0.68116 6:-0.458968 7:-0.7971 8:-0.894408 9:-0.841209 10:-0.575533 11:-0.696591 12:-0.908901 13:-0.350725 14:-0.538794 15:-0.901143 16:-0.499667 17:-0.585313 18:-0.466669 19:-0.956515 20:-0.41565 
-3.489282073467168 1:-0.72043 2:-0.945143 3:-0.412187 4:-0.700681 5:-0.55453 6:-0.628034 7:-0.73886 8:-0.720214 9:-0.789623 10:-0.312663 11:-0.738711 12:-0.681371 13:-0.696875 14:-0.744473 15:-0.882124 16:-0.493798 17:-0.674747 18:-0.446491 19:-0.562209 20:-0.5871 
-2.536404850736578 1:-0.468182 2:-0.935064 3:-0.406065 4:-0.34286 5:-0.63636 6:-0.747761 7:-0.90909 8:-0.768183 9:-0.804348 10:-0.18644 11:-0.821577 12:-0.800001 13:-0.684848 14:-0.769874 15:-0.870812 16:-0.524476 17:-0.609818 18:-0.477272 19:-1 20:-0.847276 
-5.165709497766767 1:-0.760145 2:-0.855036 3:-0.483391 4:-0.640482 5:-0.48339 6:-0.655614 7:-0.83395 8:-0.610171 9:-0.725653 10:-0.249482 11:-0.710304 12:-0.547705 13:-0.694955 14:-0.733118 15:-0.947563 16:-0.604313 17:-0.714926 18:-0.575643 19:-0.723249 20:-0.400731 
-2.78932253765948 1:-0.728356 2:-0.893393 3:-0.470651 4:-0.77484 5:-0.40299 6:-0.457874 7:-0.97015 8:-0.586784 9:-0.731342 10:-0.27144 11:-0.882826 12:-0.756077 13:-0.697515 14:-0.892054 15:-0.949098 16:-0.391044 17:-0.555853 18:-0.404976 19:-0.865675 20:-0.6991 
-2.687019411971325 1:-0.894774 2:-0.889621 3:-0.402499 4:-0.653104 5:-0.31567 6:-0.643637 7:-0.7351 8:-0.501417 9:-0.697666 10:-0.155907 11:-0.740033 12:-0.514347 13:-0.811627 14:-0.840341 15:-0.962356 16:-0.69978 17:-0.570486 18:-0.475348 19:-0.86755 20:-0.456071 
-3.542645478101089 1:-0.716509 2:-0.955493 3:-0.360332 4:-0.706275 5:-0.57944 6:-0.638537 7:-0.78193 8:-0.659546 9:-0.798862 10:-0.252338 11:-0.796192 12:-0.676902 13:-0.742469 14:-0.774684 15:-0.876044 16:-0.55188 17:-0.670192 18:-0.390969 19:-0.579444 20:-0.476634 
-2.964845226430304 1:-0.665618 2:-0.955007 3:-0.235694 4:-0.584251 5:-0.55906 6:-0.563052 7:-0.5748 8:-0.598426 9:-0.630264 10:-0.423462 11:-0.855754 12:-0.623844 13:-0.823621 14:-0.760812 15:-0.919438 16:-0.571652 17:-0.720626 18:-0.601572 19:-0.905515 20:-0.770713 
-1.433212953899503 1:-0.731563 2:-0.462707 3:-0.587019 4:-0.833121 5:-0.24779 6:-0.486594 7:-0.95575 8:-0.77434 9:-0.913428 10:-0.604016 11:-0.826313 12:-0.415932 13:-0.528021 14:-0.615972 15:-0.886819 16:-0.722262 17:-0.569536 18:-0.626841 19:-0.80089 20:-0.653102 
-2.067273848569305 1:-0.530557 2:-0.821429 3:-0.559262 4:-0.650791 5:-0.5 6:-0.523552 7:-0.86111 8:-0.777378 9:-0.836955 10:-0.435031 11:-0.745581 12:-0.685714 13:-0.822224 14:-0.839278 15:-0.826316 16:-0.636755 17:-0.66618 18:-0.275931 19:-0.749994 20:-0.564442 
-3.546564062498744 1:-0.636871 2:-0.946793 3:-0.339537 4:-0.590316 5:-0.47858 6:-0.671197 7:-0.70205 8:-0.552271 9:-0.708525 10:-0.393995 11:-0.805064 12:-0.53179 13:-0.741776 14:-0.771039 15:-0.947074 16:-0.698038 17:-0.744237 18:-0.528861 19:-0.888265 20:-0.374299 
-1.662565155440326 1:-0.70054 2:-0.535421 3:-0.620601 4:-0.846692 5:-0.34959 6:-0.405292 7:-0.87805 8:-0.763069 9:-0.904561 10:-0.603145 11:-0.787242 12:-0.56562 13:-0.544715 14:-0.705996 15:-0.849806 16:-0.766106 17:-0.464954 18:-0.657186 19:-0.695124 20:-0.635775 
-2.035936816021298 1:-0.422223 2:-1 3:-0.688892 4:-0.214286 5:-0.83333 6:-0.579604 7:-0.83333 8:-0.817857 9:-0.902174 10:-0.457624 11:-0.781917 12:-0.895236 13:-0.955557 14:-0.578103 15:-0.66842 16:-0.65128 17:-0.809247 18:0.213884 19:-1 20:-1 
-2.097750595343675 1:-0.566666 2:-0.962407 3:-0.214032 4:-0.371429 5:-0.78947 6:-0.495523 7:-1 8:-0.654891 9:-0.835241 10:-0.314893 11:-0.586798 12:-0.768422 13:-0.943861 14:-0.581271 15:-0.895291 16:-0.559512 17:-0.789166 18:-0.192985 19:-1 20:-0.823163 
-4.434085520434254 1:-0.679012 2:-0.867721 3:-0.438274 4:-0.708997 5:-0.44444 6:-0.69638 7:-0.86111 8:-0.595235 9:-0.836955 10:-0.359695 11:-0.818266 12:-0.476193 13:-0.703701 14:-0.86606 15:-0.868422 16:-0.564104 17:-0.655582 18:-0.361115 19:-0.861115 20:-0.533328 
-4.102945651574353 1:-0.756674 2:-0.970507 3:-0.352604 4:-0.698952 5:-0.59538 6:-0.72506 7:-0.77704 8:-0.482598 9:-0.802892 10:-0.193827 11:-0.773098 12:-0.41866 13:-0.748965 14:-0.779023 15:-0.896735 16:-0.542146 17:-0.697563 18:-0.601158 19:-0.777039 20:-0.398839 
-2.073858560139402 1:-0.865004 2:-1 3:-0.563863 4:0.253226 5:-0.75078 6:-0.85856 7:-0.87539 8:-0.523362 9:-0.280779 10:-0.518454 11:-0.673903 12:-0.39297 13:-0.800624 14:-0.684559 15:-0.982291 16:-0.869639 17:-0.78607 18:-0.593974 19:-1 20:-0.720873 
-2.659701733372289 1:-0.744212 2:-0.9504 3:-0.416667 4:-0.508929 5:-0.47917 6:-0.667186 7:-0.54861 8:-0.418156 9:-0.769021 10:-0.251411 11:-0.886412 12:-0.672621 13:-0.657408 14:-0.899547 15:-0.911184 16:-0.627669 17:-0.721816 18:-0.534143 19:-0.843745 20:-0.572226 
-1.961566231071635 1:-0.707023 2:-0.943843 3:-0.324949 4:-0.792452 5:-0.63836 6:-0.563738 7:-0.76415 8:-0.633427 9:-0.796964 10:-0.270863 11:-0.835407 12:-0.762802 13:-0.672955 14:-0.681586 15:-0.910624 16:-0.547654 17:-0.658083 18:-0.421382 19:-0.551889 20:-0.524525 
-9.17585858762588 1:-0.811942 2:-0.887879 3:-0.396741 4:-0.622744 5:-0.45522 6:-0.697223 7:-0.75069 8:-0.576176 9:-0.696496 10:-0.346451 11:-0.770442 12:-0.66917 13:-0.768544 14:-0.706155 15:-0.874035 16:-0.570141 17:-0.688241 18:-0.546939 19:-0.639894 20:-0.524279 
-2.891427531092009 1:-0.655708 2:-0.980429 3:-0.667584 4:-0.72446 5:-0.61644 6:-0.571537 7:-0.78082 8:-0.520943 9:-0.81775 10:-0.264452 11:-0.677357 12:-0.517811 13:-0.678539 14:-0.801849 15:-0.898776 16:-0.527081 17:-0.749142 18:-0.474888 19:-0.753429 20:-0.478359 
-7.103091271501374 1:-0.732512 2:-0.808936 3:-0.615915 4:-0.573194 5:-0.54733 6:-0.740497 7:-0.81481 8:-0.625223 9:-0.702092 10:-0.447584 11:-0.542309 12:-0.611996 13:-0.758576 14:-0.732127 15:-0.877193 16:-0.623301 17:-0.670301 18:-0.463649 19:-0.722214 20:-0.423871 
